5298 32
2949 0.1673452 0.25907138 0.04190692 -0.2387992 0.14089836 0.012422533 -0.09172351 0.04435034 0.34673816 -0.2562986 -0.010545474 0.098181576 -0.22840405 0.38031852 -0.26990074 -0.110596195 -0.19869983 0.12313876 0.026786469 -0.47623357 -0.17435756 0.27932638 -0.17621697 0.33519945 0.18371749 0.15584205 0.14049532 -0.15351808 0.4874021 0.15502885 -0.0075599016 -0.4974026
4318 0.086295925 0.15748902 -0.28278145 -0.04432124 0.14523166 -0.25983155 -0.19863796 0.13028923 0.15811555 -0.07417018 0.16857168 -0.0001469474 -0.12888674 0.33340982 -0.24699986 -0.26471096 0.26784888 0.16737187 -0.04110849 -0.33689967 -0.21490608 0.20126124 0.09598198 0.47021165 0.048928767 -0.29336804 0.0638069 0.06521446 0.23697394 0.3820375 -0.43768117 -0.22796382
2249 0.06088933 0.16497514 -0.104761794 0.027880583 -0.25965708 0.02015652 0.23881455 -0.0031150396 0.15747552 -0.39972082 -0.016845236 0.2258174 0.0515285 0.3908438 -0.02657192 0.16971232 0.3470921 0.35887137 -0.006325922 -0.26183203 -0.4839923 -0.060544096 -0.46907118 0.20959334 -0.15812458 -0.27548316 -0.0127289025 -0.1546612 0.28761783 0.2904139 0.2412709 -0.1990329
998 -0.10001889 -0.09077403 -0.043695167 -0.04194443 -0.021603731 0.27715883 -0.1893609 0.1591125 -0.01831651 -0.20331356 -0.4027693 0.039103873 -0.23733974 0.41427842 -0.034684196 -0.23695545 0.09830016 0.1415318 0.18980941 -0.1332681 -0.3675819 -0.19893058 -0.3304376 0.10191798 -0.16313913 -0.09575714 0.046290327 -0.28927734 0.140015 0.10931443 0.23924607 0.049714334
3278 0.19651012 0.12472465 -0.19665506 -0.17265154 0.045518316 0.086621284 -0.27864906 0.30556768 0.12543857 0.12748358 0.153204 -0.021618852 -0.19863237 0.36701587 -0.30557126 -0.4136532 0.09092585 0.085692845 -0.05644241 -0.24052612 -0.19996724 0.35432422 0.2161023 0.2548605 0.10349159 -0.30191708 0.17369327 -0.023895718 0.22698142 0.5840765 -0.22235861 -0.2144776
864 0.28474587 0.29120773 -0.26048425 -0.17451803 0.25988883 0.11888511 0.28867045 -0.1938549 0.14582972 -0.35799357 -0.45549944 -0.016704783 0.16086148 0.53516376 -0.07007887 -0.45872617 0.14766598 0.22976853 -0.12193158 -0.06813145 0.011286432 0.11372523 -0.19684745 0.23414023 -0.437924 -0.082246564 -0.13324673 -0.0876309 0.24530017 0.11298272 0.045993906 -0.31201416
2764 0.3200909 0.27382174 -0.027183823 -0.12941615 0.247318 0.12305108 0.32227772 -0.1416645 0.19631544 -0.37376973 -0.13050993 0.2056408 0.24666803 0.32618245 -0.40592933 -0.31177056 0.2548192 0.23004022 0.07847613 -0.4040052 -0.0025143502 0.120509475 -0.12549037 0.0792794 -0.038560092 0.18312255 0.08260512 -0.3219245 0.4814948 0.18438645 -0.1102686 -0.089216076
327 0.2915419 -0.10792917 0.045878623 0.09936255 0.09025216 -0.23232937 -0.21583174 0.46995354 -0.33155042 -0.3068647 -0.17185098 0.30868632 -0.13977987 0.41772884 -0.27623475 -0.37173963 0.025816496 -0.1129759 -0.21699291 -0.28717703 -0.19271928 -0.23475073 0.004876143 0.16395691 -0.0594553 -0.3199462 -0.28642598 -0.46876076 -0.027821532 0.041146938 0.09149872 -0.17826791
3553 -0.06994794 0.40725923 0.08445547 -0.012691311 0.112141274 -0.31487405 0.048959333 -0.06212164 0.3252248 -0.23301491 0.008076708 0.073278196 -0.25845638 0.3661035 -0.12923007 -0.084593534 0.7132159 -0.22132286 0.11572229 -0.3219662 -0.061515864 0.18222484 -0.28952554 0.4277743 0.06692743 0.30498606 0.30397987 -0.41765785 0.23661354 -0.1553307 0.2628678 -0.12382048
601 0.045704868 -0.12363724 -0.15924932 -0.04753598 0.18312363 0.1062545 0.041161012 -0.08628246 -0.010818141 -0.023720114 0.20296511 0.18381672 0.027144829 0.21303506 -0.23029602 -0.087323055 0.40661427 0.15335482 0.30679747 -0.66623074 -0.021334374 0.03711535 0.009204731 0.8486571 0.08922062 -0.1250403 0.24089445 -0.15207587 -0.27802017 0.16944242 -0.2717547 -0.3563459
2980 0.09415083 0.4466391 -0.060093936 0.32184017 0.13534787 -0.0027837912 -0.16713561 -0.36631873 0.057005007 -0.12909763 0.059755713 -0.11392299 -0.16811664 0.2633893 -0.45322183 0.25171244 0.4546002 0.15982154 0.095857985 -0.2530022 -0.17151222 0.1728596 -0.18948057 0.16153668 -0.17174363 0.09056785 -0.19380492 -0.4084139 0.21589904 0.53758544 -0.29097944 -0.4189987
4961 0.082294635 0.1604448 -0.32315838 -0.13423088 -0.05558316 0.1048356 0.091385774 -0.14187318 0.24138014 -0.20082127 -0.30147418 0.23953812 0.16686271 0.30702558 0.15918462 0.14656876 0.5730902 0.20977093 0.14710012 -0.24842355 -0.28427777 0.21409346 -0.3638864 0.41187432 -0.059500914 0.3002964 -0.033295993 -0.28711483 0.31735677 0.14629649 0.24409202 -0.35849383
3207 0.06732551 0.18147784 -0.3869699 -0.24924976 0.0932611 0.27582484 0.04401074 -0.18846469 0.19208568 -0.21525703 -0.3153737 0.5075845 -0.05241202 0.19050156 0.13573319 0.016589584 0.4565955 0.21199955 0.05299092 -0.023614291 -0.30947667 0.1226298 -0.24263483 0.43831548 -0.10689507 0.21504244 0.017699849 -0.294077 0.26588637 0.07093092 0.22361252 -0.26050723
3921 0.49360234 0.27418187 -0.42093727 0.16644818 0.31839988 0.1721523 -0.10725934 0.12509586 0.30155665 0.063618675 -0.18769161 -0.08010401 -0.29619887 0.13798536 0.06010027 0.079163454 0.7564997 0.3532016 -0.19567499 -0.20537506 -0.16418703 0.21770157 -0.45007733 0.20648593 -0.20354226 -0.03732976 -0.11539585 -0.2736285 -0.0002696977 -0.07400015 0.3248928 -0.34108087
2649 0.21764275 -0.2838393 -0.16936818 -0.25220135 -0.14037536 -0.20443836 -0.08315545 -0.17313498 -0.19366711 0.10547139 0.11303617 -0.022067284 -0.36560532 0.24677783 -0.3640638 0.06537215 0.10536719 0.40982246 0.42171463 -0.1643036 -0.15062606 0.16473289 -0.24666616 0.4430197 -0.24663256 -0.1185117 0.30548003 -0.25204027 0.036488283 0.4608328 -0.017719282 -0.29316425
8 0.29227367 0.09009212 -0.06674198 -0.2095381 -0.19311471 -0.054004334 0.28809285 0.25086516 0.14974636 -0.2870091 -0.35935688 0.17463627 -0.023888826 0.54531896 -0.32924876 -0.020670284 -0.11723061 0.25916117 0.056308128 -0.16257502 -0.28143653 -0.0076481737 -0.18794647 -0.035727628 0.07219729 -0.18268467 -0.0051233955 -0.222872 0.35952288 0.26647118 0.4108033 -0.33985215
1016 -0.07779142 -0.34210962 -0.5345434 -0.19893076 -0.19401497 0.20992972 -0.46364892 -0.07015936 0.20914814 -0.0283112 -0.5547557 -0.13274512 0.10366049 0.11956593 -0.2664614 -0.48880538 0.06674396 0.29658747 -0.4942442 -0.5600603 0.10706182 -0.54054797 -0.27854633 0.213623 -0.18382698 0.1281122 0.08115274 -0.10275048 -0.010230181 0.42236304 -0.26650405 -0.070604086
2060 0.23156011 0.32860318 -0.12856266 -0.14853106 0.20933369 -0.23906103 0.53433555 -0.31765357 0.19977161 -0.33852252 -0.45187575 0.0952893 0.1913655 0.48342675 -0.29321575 -0.3888339 0.041195087 0.23430991 0.08992034 -0.19864269 0.23898454 -0.021968855 -0.15735391 -0.009719689 0.11699191 0.041243967 0.22950932 -0.36648837 0.15844661 0.3468672 0.082193166 -0.20484665
503 -0.17194638 0.2013496 0.17482966 -0.055187866 -0.049027734 -0.11162773 -0.024569465 -0.16340753 0.21256313 -0.13242926 -0.08126641 0.043203313 -0.037142817 0.31080437 0.036912687 0.100318 0.4466556 0.18852435 0.12080865 -0.46000382 -0.39241678 0.1619131 -0.38635856 0.506014 0.13160507 -0.013148201 0.12514196 -0.25029814 0.38355255 0.07951668 -0.13685657 -0.14107655
4965 0.09701977 0.17645302 -0.07933482 -0.24802339 0.052565165 0.48068094 -0.1042325 -0.14846748 0.5301183 -0.21695162 0.22074169 0.041273758 -0.33240947 0.50993234 -0.030468548 0.1286103 -0.02897503 0.108555235 0.07366757 -0.53741914 -0.5143808 0.12869012 -0.20420444 0.5662513 0.23132521 0.13763528 0.10668293 -0.1236803 0.15043898 0.22355849 0.06101308 -0.40338382
4023 0.015500257 0.4662566 -0.02693612 0.06132748 -0.21746361 0.028662058 0.007986618 -0.08420089 -0.08302642 0.43440035 -0.060662147 -0.22159247 -0.013840117 -0.02903089 -0.58214974 -0.45250252 0.36435416 -0.19265194 0.33991167 -0.23468825 -0.09940513 0.044249687 -0.089406796 0.13276 -0.34231842 -0.004944235 0.055561684 -0.7025284 0.13066164 0.2750953 0.50214696 -0.23598123
2337 0.11400076 -0.35318595 -0.2797758 -0.3176949 -0.31311452 -0.0339477 -0.5553387 0.039529543 0.21093178 0.14051566 -0.5240333 -0.15779608 0.05044302 0.10399526 -0.1741799 -0.42778537 0.06765883 0.2286661 -0.47208688 -0.457905 0.1729098 -0.49453437 -0.0758523 0.15136933 -0.24457759 0.14898404 0.16262488 -0.38814884 0.060328536 0.46413648 0.030031584 -0.14801194
3510 0.092017695 0.15539223 -0.3009645 -0.16655831 0.34114575 0.020493431 -0.09517119 -0.030715048 -0.09861151 0.20923747 0.10274818 -0.13791645 -0.056423295 0.36517328 -0.34945184 -0.19676754 0.029543303 0.3120197 -0.09667541 -0.25203055 -0.27729115 -0.044719122 -0.27047637 0.14049955 -0.22001882 0.015978795 0.16612805 -0.11360955 0.13954939 0.47259235 -0.36464342 -0.15786359
3638 0.2525773 -0.09831874 -0.10863953 -0.09215658 0.2626916 -0.55745065 -0.048289303 -0.03334639 0.10470629 0.02920824 -0.026321795 -0.02953184 -0.43160248 0.104441024 -0.44305748 -0.37350142 0.30377004 0.15024625 -0.09618708 -0.22317456 -0.14761297 0.14437932 0.14879292 0.4818355 0.20725624 -0.23970379 0.24355151 -0.054126877 0.066028476 0.355041 -0.34901872 -0.302364
2034 -0.07545289 0.19057338 -0.09051331 -0.08248678 0.32706952 -0.055809144 -0.015732678 -0.15772115 0.21592128 -0.034421608 -0.33311924 -0.08973179 -0.10757272 0.5454564 -0.25009024 -0.15299901 0.45014194 0.31447527 -0.17061174 -0.21904285 -0.1582313 -0.22159499 -0.21001633 -0.0015298781 -0.6079116 -0.38550964 -0.15179788 0.08302764 0.19454361 0.10024014 -0.10719028 -0.2667196
3328 0.13287112 -0.010944562 0.029851813 -0.28091964 -0.17028296 0.105176814 0.11932488 0.24694717 0.3226229 -0.24208024 0.17498106 0.1605912 -0.012879273 0.3779325 -0.08976197 -0.32440454 0.27468795 0.2795466 0.04175449 -0.35610896 -0.591724 0.19287546 -0.23020746 0.06158354 -0.07723971 -0.25838393 -0.08329624 -0.0062423544 0.5601644 0.4380613 -0.015658267 0.026152942
4590 0.1879464 0.56398654 0.07043528 0.029079553 -0.1734366 -0.18975353 0.08838413 0.052544422 0.27206296 0.09955979 0.012659736 -0.42713302 -0.35056815 0.05599509 -0.120713495 -0.38717383 0.70195526 -0.08157613 -0.21107237 -0.5539052 -0.42402753 0.16646202 -0.110301614 0.27627796 -0.51050735 -0.110513665 0.024747245 -0.49622294 -0.109883994 -0.019100996 0.291243 0.1876271
4288 0.22956254 -0.09777336 -0.022899805 0.013694398 0.22529487 -0.16750467 0.0053119236 0.01932205 -0.26128438 -0.10184389 -0.12089054 0.06204406 -0.21705405 0.48111364 -0.31064475 -0.38643324 -0.15101463 -0.030304853 -0.32904834 -0.1334764 -0.08917034 0.3706413 0.06867868 0.24163187 0.4033408 -0.32301092 -0.08445017 -0.51943237 0.2311334 0.27362713 -0.31641263 -0.50821596
4471 -0.16935232 0.25810555 -0.29606226 -0.0374692 -0.11167138 -0.21644124 0.28653604 0.00030342408 0.3115595 -0.13576245 0.14547995 0.083591476 0.029551428 0.5577719 -0.09363534 -0.20738392 -0.07897321 0.41240108 -0.27885088 -0.07707223 -0.5994832 -0.203624 -0.39176247 0.0022241033 0.17011313 -0.20690359 0.29330888 -0.32641044 0.18974994 0.119204946 0.1426299 -0.19569221
4951 0.40917295 0.039584603 0.026669987 0.28961766 -0.1805163 -0.1536781 0.023212371 0.48400345 -0.2298463 -0.3598923 -0.05645326 0.16439018 -0.00044811142 0.4813941 -0.3223275 -0.13613443 0.07863948 0.123030394 -0.25398508 -0.050462462 -0.31940892 -0.36479393 -0.12005081 0.12474487 0.029344395 -0.27269578 -0.21695787 -0.563571 0.1324081 0.031146985 0.23697771 -0.2767661
4113 0.22216845 0.21405903 -0.52530766 -0.18343124 0.20882882 0.32634208 -0.018703815 -0.012335234 0.123644546 0.029659955 -0.19535083 -0.009843779 0.1266286 0.24907985 -0.09405277 -0.20861916 0.36607078 0.37904602 0.18874732 -0.08305648 -0.13026255 -0.032649692 -0.078526504 0.50254405 -0.4805846 -0.2601167 -0.03336527 -0.039866827 -0.13420065 0.15155528 0.23682249 -0.36147118
5050 0.06453029 -0.07832888 -0.29480052 -0.06547594 -0.2197358 0.104260005 -0.41260388 -0.1288733 0.07801326 0.18246482 -0.3110617 0.27180102 -0.47303793 0.27920836 -0.5156721 -0.38086164 0.23430806 0.21551795 -0.1365781 -0.5340457 0.52750546 -0.35593092 -0.120198764 0.17288546 -0.088160604 0.108331546 0.133137 -0.13695419 -0.19907555 0.624157 0.15287268 0.26385364
3018 0.09763392 0.10215006 -0.14014322 -0.30209586 0.07583478 0.24370223 0.5926914 0.22171086 -0.063131936 -0.072664365 -0.28236297 0.120952494 -0.13847561 -0.19024678 -0.65309113 -0.4297065 0.45594996 0.26456892 0.11901164 -0.32974628 -0.31461924 -0.24584046 -0.6356532 0.124429174 0.013684724 -0.2498756 0.14316663 -0.07088266 0.0057855486 -0.1289083 -0.3617306 0.0070289527
3834 0.18332364 -0.09806217 -0.040365692 -0.26095772 -0.17789428 -0.2741521 -0.27331066 -0.103023075 0.09884714 0.2028048 0.003486722 -0.005664055 0.079918295 0.4090325 -0.22655892 -0.06416257 0.07662225 0.19167833 -0.06253904 -0.13074829 -0.2702903 0.07347145 -0.39734954 0.19696184 0.07031378 -0.17079839 0.20729883 -0.21363844 0.47051895 0.65267736 -0.2089787 -0.22537716
16 -0.08283121 0.22532104 -0.14300345 -0.17791134 0.2577753 0.040955245 -0.10124683 0.30869317 0.37948775 -0.31370142 0.2629941 0.08337792 0.2060946 0.3966171 -0.16023512 -0.29931122 0.24369578 0.26438636 0.31181812 -0.1394445 -0.48033002 0.012982523 -0.4904814 0.19246459 -0.04476254 0.3310451 0.17147131 -0.109907076 0.28790256 0.55139124 0.19815828 0.11075131
2642 -0.097300425 0.06815294 -0.16734971 -0.30009317 0.23262009 -0.010483174 -0.52327794 0.12690622 0.15039054 -0.27109537 0.06339196 -0.006872593 -0.23567803 0.1659863 -0.33028582 -0.2716065 0.12123353 0.22501065 -0.06516061 -0.48082617 -0.13275185 0.27830282 0.11024494 0.5402339 0.36512288 -0.088165194 -0.0005176437 -0.1270962 0.2728141 0.13648675 -0.28285852 -0.39233097
895 0.2814667 0.36032504 -0.085875176 0.27532265 -0.101518884 -0.0139846625 0.51333666 -0.22425698 -0.33487514 -0.08511293 -0.25559428 -0.2820532 0.27590406 0.3615989 -0.51374424 -0.8366837 -0.03987174 -0.25368142 -0.01551756 -0.45150578 -0.0017881825 0.39681464 0.21871632 0.06056083 -0.2715246 0.03817532 0.145902 -0.99832404 0.39840648 0.036647387 0.3111986 -0.14513835
1583 0.23109375 0.13960955 -0.367227 -0.13203636 0.3798753 -0.44959232 -0.47124112 -0.10989976 0.257474 0.21766129 -0.1942321 0.055987127 -0.47249043 0.2256012 0.3231773 -0.047169678 0.121840954 -0.17169006 0.29653335 -0.20883007 0.017381107 -0.20626938 -0.007590179 0.18555054 0.5067254 -0.61028737 -0.0040798825 -0.3946593 0.5083912 0.38256922 -0.14151141 -0.26343107
5147 0.00035134662 -0.112103775 -0.002124236 -0.25143972 0.3183932 -0.03881261 -0.32566866 0.1099935 0.21329607 0.34082964 -0.5554018 -0.31813565 0.35875562 0.333212 0.18614124 -0.11416832 0.42248714 -0.060374726 -0.2800471 -0.5796219 -0.18682545 -0.22800776 -0.4978332 0.25030982 -0.27694884 -0.085015744 0.29646635 -0.062400892 0.44931552 -0.00016149411 0.0713318 -0.49175864
3626 -0.2093816 0.17670675 0.23012649 0.376297 0.060033582 -0.202537 0.0044560875 0.27672577 -0.33731934 0.47086552 -0.3855949 -0.20789543 -0.056520395 0.07283554 -0.34121954 -0.56211543 0.33567083 -0.2963113 0.39244908 -0.10602852 -0.21689127 -0.0249866 -0.1618227 0.30614135 -0.04866991 -0.07774142 -0.28253525 -0.78665936 0.22394766 0.03418493 0.51259625 -0.22089463
2699 0.21355481 0.060141683 -0.2344589 -0.20198333 -0.21709228 -0.16282198 0.005304342 0.20866548 0.37079424 0.32309294 -0.26754367 0.15270342 -0.09964982 0.3276466 -0.40585417 -0.11766938 0.47221896 0.38526353 0.07930324 -0.0796967 -0.33892268 -0.031557556 0.17671542 -0.06563466 -0.257649 0.15255728 0.23116207 -0.57850313 0.24184772 0.11661152 0.5927041 0.29101503
4696 -0.5619075 0.1107129 0.11937893 -0.288098 0.42818588 0.35570627 -0.11465189 -0.087112576 0.15284804 -0.05657693 -0.09161402 0.0866878 0.06536303 0.47069383 -0.20244758 -0.28711897 0.24159026 0.25289038 -0.07247021 -0.6722394 0.15911235 -0.027067823 -0.3521227 0.6893562 0.19472589 -0.012202415 0.34825853 -0.13945138 -0.07894044 0.1236601 -0.19500677 0.18118215
1954 0.24419355 -0.13966404 -0.25729728 -0.07357212 0.6457797 -0.60051787 -0.17266156 -0.26820928 -0.0021299494 -0.0726548 0.22567794 0.23064472 -0.41853425 0.45370775 -0.043369647 -0.21375321 0.36389124 -0.17007321 0.09108729 0.0499783 -0.15228839 -0.20606418 0.21299055 0.3044341 -0.1690655 -0.2055533 0.5760216 -0.47523758 0.114169344 0.41993237 -0.10346364 0.08112057
1843 -0.040709957 0.2573237 -0.24402305 -0.10741185 0.28269044 -0.3242951 -0.40508217 -0.13447231 -0.21445018 -0.012711134 0.15045476 0.190477 -0.24315114 -0.010512108 -0.4304801 -0.28108358 0.07529859 0.12762383 -0.091913484 -0.5476744 -0.1535098 -0.04046566 -0.029733587 0.82278913 0.2284346 -0.097777724 0.22296064 -0.20078406 -0.04179498 0.001104883 -0.19182321 -0.15611345
3344 -0.0900866 0.22853372 -0.111239605 -0.32585338 -0.47238496 -0.106240176 0.25358233 0.31356266 0.15734915 -0.3884877 0.088410825 0.17155968 -0.119434744 0.39644018 -0.04380614 -0.21257187 0.15683042 0.29986355 -0.09694174 -0.060994893 -0.4254582 -0.21746197 -0.29477304 -0.032935884 -0.014271404 -0.35835475 -0.009592627 -0.24134344 0.26321787 0.3397039 0.6026989 -0.20252968
2422 0.37190726 -0.1789821 -0.011580875 0.18362398 0.26547527 -0.43840778 -0.34170678 0.040038925 0.11138539 0.068685584 -0.10048006 0.12507088 -0.4832437 0.21077712 -0.15806772 -0.5593902 0.020981276 0.24732146 -0.11830556 -0.35085642 -0.035635497 0.16495271 0.2178946 0.52642655 0.34637064 -0.28538057 -0.09818058 -0.30128807 0.17440173 0.10451316 -0.30381152 -0.21714099
5104 -0.25351825 0.1793434 -0.018448723 -0.36707816 0.14159751 0.030103901 -0.19346535 0.07234696 0.24737433 -0.41433093 0.046760637 0.2586892 -0.11970629 0.37709993 -0.13400719 0.23598035 0.36718306 0.1031173 -0.0065784897 -0.4713544 -0.22066176 0.3148101 -0.10511978 0.62791896 0.24649599 0.07391242 0.069263235 -0.13033807 0.61847275 0.14269882 -0.19711405 -0.38266975
4328 0.03853065 -0.032953404 -0.027122295 -0.5046113 0.026482556 0.029268134 -0.4458888 -0.14282994 0.19991975 0.15584403 -0.13414808 0.02611171 -0.5028781 0.35514098 -0.45106778 -0.37307754 0.10856765 -0.07848959 -0.17091458 -0.34852222 -0.2364695 0.14593653 0.09111731 0.08457422 0.23255211 -0.31439367 0.14226568 -0.09082918 -0.08160789 0.5068861 -0.32448265 -0.20671025
2574 0.5813246 0.1938423 -0.020581514 0.2138206 0.031634256 -0.024914037 -0.0020377596 0.26119286 -0.36264655 -0.13673821 -0.2992477 0.13853517 0.17721425 0.40323475 -0.5663167 -0.47903442 -0.09136293 0.21440354 -0.26375064 -0.20897742 -0.005809741 -0.2799015 0.009832544 0.057826653 -0.04124291 0.06971523 -0.2114642 -0.66672885 -0.052229155 -0.050963305 -0.08224819 -0.3064103
4807 0.11394767 0.07319784 -0.27632344 0.022087004 0.27616757 -0.047031652 0.11480513 -0.159073 0.28175804 -0.22657058 -0.43673885 -0.24701802 0.2893449 0.35055876 -0.4464178 -0.30325854 0.033699267 0.24782361 -0.22453478 -0.5163888 -0.06556308 0.2236027 -0.13841388 0.25797257 -0.016935872 -0.059759337 0.031390626 0.07235989 0.28672582 0.4201813 -0.25431922 -0.52841693
2593 0.36352557 0.020197496 0.12740603 -0.2388273 -0.099916086 -0.15379952 -0.16871925 -0.20246205 0.16790767 -0.0064280634 0.13292813 -0.08168723 -0.352806 0.5642489 -0.15283434 0.0824773 -0.015206494 0.032869924 0.025968209 -0.03772655 -0.44329768 0.32401302 -0.051699556 0.29602933 0.2789765 -0.3340218 0.044783313 -0.29141483 0.54313034 0.7287499 -0.32859048 -0.30591786
2683 0.0077164085 0.08380762 -0.14267662 -0.17151919 -0.34727663 -0.06671241 0.29228133 0.12505539 0.16761164 -0.42301413 -0.07375765 0.34345284 0.011229418 0.3931824 -0.059299737 -0.14505284 0.022796528 0.4234399 -0.02471606 -0.044826213 -0.611529 -0.21309075 -0.47085825 -0.06733899 -0.064054884 -0.45316383 0.020074705 -0.30150446 0.3905064 0.23491344 0.35484985 -0.047175422
1997 0.27434176 0.06523492 0.087404124 -0.42276713 -0.4128612 -0.010141715 0.14120233 0.20748918 0.2735895 -0.30364323 -0.29876602 -0.010292725 -0.06781296 0.44381967 0.11309384 0.04903213 0.09897689 0.46086434 0.22674027 -0.40355587 -0.31269696 0.060489133 -0.23600708 -0.11009133 -0.0104217455 -0.4449032 -0.08207148 -0.2703245 0.2634925 0.5342251 0.21468204 -0.11877723
3281 0.32486442 0.31199107 0.1909997 0.4435206 0.27331975 -0.09902246 0.046897057 0.12085478 -0.21781951 0.0071721766 -0.34373224 0.24824886 0.05101834 0.5784008 -0.044668853 -0.46022964 0.15338805 0.42110255 -0.039755423 0.14332667 0.035426747 -0.11272366 0.07206502 0.01158314 -0.15579803 -0.046598136 -0.082193896 -0.48491785 0.064891964 -0.015680015 0.19670191 -0.70300037
80 0.25006416 -0.29317752 0.0726645 -0.38659275 -0.28822875 -0.27409536 -0.21987376 -0.0040391427 0.17277259 0.17399828 -0.12526248 -0.037428994 0.08026977 0.30232435 -0.20051746 -0.1375989 0.10222779 0.2712479 0.06795519 -0.10723688 -0.47077307 0.032333665 -0.33330834 0.28834826 0.21908705 -0.2111639 0.24199255 -0.11752732 0.6782854 0.56090903 -0.23081118 -0.17471632
4206 0.26578686 0.039192352 -0.6474054 0.68456805 0.091676764 0.29533488 0.18523377 0.13050902 -0.31031892 -0.040467918 -0.048703633 -0.3108357 -0.49439412 0.5753552 0.053895637 -0.5552416 0.3233116 0.44742623 -0.22815871 0.0957961 -0.35247606 -0.3903427 0.20794946 -0.25208703 0.066354625 -0.2735788 0.27087572 -0.69473356 0.56347835 0.3579868 -0.44676188 -0.013941767
3105 0.24012846 0.031675488 -0.41589054 -0.20831713 0.14250621 0.029711634 -0.12591377 -0.3058126 0.01459055 0.03541785 0.14433585 -0.062234204 -0.25620776 0.19895934 -0.20023116 -0.35297248 0.13799794 0.047287803 0.08560364 -0.44217733 -0.45865768 0.09688075 0.17694804 0.70267797 0.24509728 -0.29652098 -0.0015194173 0.0037596906 -0.3484485 0.39831212 -0.3599626 -0.34477067
91 0.53435254 0.06134334 -0.19858794 -0.54490274 0.122410595 -0.31846488 -0.22900113 0.15146984 -0.13917007 -0.024050282 0.06612613 -0.057959266 -0.38977674 0.056688976 -0.51008946 -0.19492745 -0.12239206 0.1386565 -0.06744656 -0.42349824 0.02008452 -0.002776805 0.036482643 0.394838 0.48837626 -0.12932327 0.124288835 -0.41562805 0.08684003 0.39610264 0.02252202 -0.06966799
4345 0.31806132 0.061289635 -0.73938864 0.6209126 0.19492355 0.3024847 0.1288509 0.12833716 -0.35209894 -0.1292935 0.08317153 -0.50521505 -0.49383074 0.74417824 -0.13240147 -0.39144868 0.14894286 0.38674656 -0.21912187 0.029607663 -0.23530388 -0.104716085 0.16805092 -0.25194815 0.0750664 -0.30364144 0.097508565 -0.7190861 0.6922766 0.40164796 -0.33724952 -0.09267365
4697 0.2493337 -0.062442638 -0.55791706 -0.36210874 -0.080631465 0.2060599 0.18845882 0.14095578 -0.1805739 0.08420666 -0.21547538 0.12311448 -0.29705396 0.2673632 -0.19339502 -0.03574684 0.24146293 0.33067107 0.032039985 0.1968911 0.19168696 0.21031645 -0.33026716 0.37126303 -0.2716771 -0.0023438886 0.123867154 -0.3740319 -0.02666386 0.12255042 0.3650758 -0.5604038
3240 0.5718151 -0.08569092 0.20066124 -0.103985816 0.4851498 -0.36437425 0.1826389 -0.068704285 -0.17329746 -0.14754964 -0.0738365 0.08895196 -0.27915803 0.31586257 -0.5538758 -0.36748487 0.0013287667 0.030788053 -0.23470145 -0.12714007 -0.13371168 -0.14740817 0.142534 -0.004380467 0.022834336 -0.36008933 -0.35085785 -0.619154 0.5375254 0.09106704 -0.25931814 -0.28159282
1412 -0.14428015 0.21370457 -0.109024405 -0.30616117 -0.3315293 -0.104616545 0.27152804 0.36168236 -0.08273515 -0.3392731 -0.053419117 0.29415727 -0.06593618 0.51925826 -0.05780679 -0.1777304 0.06570707 0.2518549 -0.122098155 0.12923142 -0.5205758 -0.24116457 -0.4102649 -0.085166395 0.08317481 -0.5010674 0.15481709 -0.21434791 0.1864883 0.21456334 0.52545714 -0.3295354
1080 -0.08014723 0.2512503 -0.15787268 -0.11629062 -0.24529986 -0.12706928 0.15230224 0.21478449 0.2597583 -0.53277534 -0.09748095 0.2017608 -0.05550102 0.73168916 -0.14193352 0.23987883 0.18932408 0.07912625 -0.10651469 -0.2987942 -0.468462 -0.1881703 -0.19720863 0.32809886 0.040400878 -0.54040426 -0.1328807 0.030226545 0.07669201 0.08263708 0.16330864 -0.3908439
5229 0.27112088 0.027085714 -0.30691656 -0.13932298 0.18919337 0.030614572 -0.4417068 0.3903436 -0.05405417 0.12752533 0.28859413 0.12256267 -0.47983697 0.47089866 -0.33026013 -0.3995048 -0.025996229 0.13835317 -0.068914495 -0.2279855 -0.01535143 0.40164858 0.2484536 0.1494895 0.20443511 -0.27976516 0.2228774 0.00019635775 0.44618988 0.53688484 -0.22073568 -0.32444635
621 -0.31000254 -0.083744206 -0.22977668 -0.018300472 0.22564442 -0.10601254 0.11761732 0.0743011 0.2980396 0.073731735 -0.17332123 -0.14804488 -0.097533084 0.24133179 -0.26467705 -0.25027558 0.47272092 -0.17005533 0.056947026 -0.32690516 -0.45711964 0.31052142 -0.3119023 0.03245923 -0.14479858 -0.063862905 -0.109157234 -0.34338623 0.051771395 0.16732934 0.2205477 -0.36253962
18 -0.09735385 0.056370024 -0.15081692 -0.05832097 -0.3098987 -0.17840946 0.32153502 0.10296196 0.12630525 -0.52769506 -0.15613712 0.33296815 -0.16187179 0.5094913 -0.048682675 0.015625628 0.119654864 0.20154989 -0.10059095 -0.48376432 -0.765044 -0.011741817 -0.48445427 -0.13916749 0.08176272 -0.2752559 0.11937772 -0.022861294 0.17679009 0.2948757 0.25468433 -0.21461296
2314 0.025851455 0.17848809 -0.22349611 -0.11551775 -0.023035195 0.17653567 0.09271639 0.10447127 -0.019326374 0.010414289 -0.3246481 0.115230694 -0.089400165 0.38975477 -0.36964083 0.42173508 0.1880314 0.3021957 0.17522603 -0.17411412 -0.21009344 0.11433587 -0.14107378 -0.09956034 0.11801531 -0.05455856 0.00070491637 -0.36465353 0.12986097 0.49885747 0.44284672 -0.60047907
4531 0.23774953 0.22856057 -0.35538357 -0.27571702 -0.06231299 0.06808089 0.2196248 0.055106804 0.07759311 -0.26252046 -0.08370457 0.25595444 -0.14456329 0.51319665 0.22418015 -0.31312725 0.25633755 0.43217346 -0.068777084 0.29300046 -0.26425904 -0.3451007 -0.39719966 0.004283998 0.10869454 -0.3266552 0.12856218 -0.1264608 0.013268749 0.21594642 0.6884406 -0.363089
4581 -0.22893962 0.24031068 0.009699543 -0.09268302 0.027898608 0.49108484 -0.10656028 -0.32354423 0.7349826 0.019495808 0.050334066 0.032750588 -0.30704492 0.3574344 -0.3200647 -0.17162766 0.38717648 0.06398708 0.000579164 -0.40547216 -0.20520292 -0.004925528 -0.064970106 0.5326547 -0.08571076 0.19792008 0.26337898 -0.14726621 0.16177131 0.13122594 0.20237777 -0.14257036
1679 0.031171832 0.15178165 -0.46520844 0.3684787 -0.47516587 -0.106250525 -0.048209254 -0.1619476 0.19477895 0.10465908 -0.054814316 0.24175608 0.083932206 0.38621417 -0.03877806 -0.019584425 0.70351714 0.7691906 -0.022027753 -0.24638784 -0.65411264 -0.040367853 0.13454677 -0.1247518 -0.09667724 0.1555831 -0.12238551 -0.5493516 0.5917433 0.14361225 -0.32226837 0.31602684
2739 0.18148889 -0.04795843 -0.4939001 -0.43724725 0.30467507 0.00095947145 0.015970085 0.24421416 0.06107197 0.14951539 -0.32345814 -0.10787009 -0.05702418 0.5532003 -0.059542015 -0.4001305 0.2189399 0.21492814 0.15616491 0.1823087 0.022900349 -0.18975152 -0.18253352 0.109401755 -0.36526704 -0.21568832 0.02733059 -0.006552599 0.22055554 0.020327393 0.6586027 -0.5523662
2230 -0.014533952 0.3947606 -0.15814543 -0.22209643 0.06363419 0.1376131 -0.057988003 0.30238968 0.31280935 0.053871598 0.09464635 -0.053741682 -0.04160441 0.3369677 -0.27165845 -0.19399129 0.42224777 0.5842289 0.29767263 -0.3188258 -0.06674046 0.28430384 -0.34039307 0.12006409 -0.25557715 0.112572215 0.14001985 -0.37524766 -0.18933918 -0.13629255 -0.22290939 -0.20788145
5278 0.22396041 -0.13782571 0.24816065 0.36109912 -0.03820676 -0.11197147 -0.17991842 0.32733223 -0.36371416 -0.091716334 -0.34723464 0.11195739 -0.3980538 0.44718775 -0.051005367 -0.33346224 0.064548545 0.060106963 -0.16045395 0.06761627 0.016847715 -0.045024145 -0.32828337 0.06403937 0.26338804 -0.59083885 0.22110642 -0.74248666 0.1899786 -0.094007276 -0.07297238 -0.27092767
2547 -0.26113194 0.20494673 -0.33249795 -0.27734596 0.25706434 -0.09982965 -0.42826962 0.0053119157 0.0943657 -0.22648266 0.18436608 0.20606573 -0.21841274 0.012157539 -0.28436208 -0.13029686 0.30175364 0.3133708 0.030552015 -0.5439214 0.19854262 -0.0058526727 0.0016758707 0.96741414 0.40476927 -0.21227762 0.3000422 -0.3121824 -0.020663332 -0.12000866 -0.38011956 -0.13669737
2671 0.33021367 0.11957543 -0.13216822 -0.27065936 0.16726328 0.16780837 -0.12495659 0.53877676 -0.06494541 -0.10038633 -0.08400223 0.010807202 -0.0035841735 0.712469 -0.3685115 -0.15614112 0.123648904 0.3415606 -0.08357841 -0.31714422 -0.01854019 0.11195765 0.1113503 -0.089007474 -0.4660736 -0.5149932 0.17692475 0.13386646 0.509874 0.3844778 0.18127878 -0.11490252
2207 0.055362508 0.091672 -0.31964305 -0.08737252 -0.41379276 -0.23820958 0.28839257 0.14211275 0.2325541 -0.4862298 -0.20950614 0.38058442 0.05533692 0.34494147 -0.016742589 0.067943305 0.30003485 0.34464076 0.13473673 -0.3057397 -0.8000608 -0.13768508 -0.44352397 0.05112942 0.040657446 -0.2716921 -0.102901526 0.011040795 0.36178046 0.34344494 0.19090626 -0.07653203
3697 -0.35098436 0.30891907 0.20713545 -0.32235214 0.05028732 -0.12145434 0.21642824 -0.15793598 -0.07775999 -0.17807895 -0.43757996 0.079380125 -0.1929618 0.065211415 -0.35360128 -0.42046398 0.43027052 0.2394485 0.059081286 -0.43637177 0.050589237 -0.38041377 -0.21511857 0.44569945 -0.027890237 0.2543136 0.4352254 -0.16742729 -0.03034096 -0.13025182 -0.07097306 -0.05031073
3554 0.24175207 -0.15308122 0.15741597 -0.24046607 -0.23351306 -0.4072211 -0.10242516 -0.0051743113 0.15537708 0.1182795 0.09414529 0.06141173 0.03747424 0.38082394 -0.06738842 -0.06708905 0.16804385 0.31419253 0.108565606 0.026454624 -0.39712885 -0.034873568 -0.2316829 0.38555303 0.26119077 -0.3747482 0.17736755 -0.24866298 0.6386259 0.55880076 -0.10588074 -0.11672217
4071 0.3313158 0.17158547 -0.21120629 -0.38695198 0.17935416 -0.20781194 -0.46583393 -0.25355947 -0.015934417 0.26730558 0.01545709 0.062523335 -0.4416506 0.25479192 -0.26179338 -0.44349408 -0.13074414 0.16957031 0.08838983 -0.2462401 -0.039704014 0.09843597 0.21574311 0.5250694 0.39129984 -0.25333518 0.2850167 -0.22285697 -0.07263361 0.52653587 -0.16556849 -0.07722368
2125 0.30916873 -0.24333528 0.34918922 0.5656547 0.009437447 -0.09553158 -0.2187852 0.3285233 -0.4678677 0.13765131 -0.41295904 0.21867563 0.0050368127 0.1565652 -0.16769463 -0.38131133 0.09947365 0.18438673 -0.03225947 0.005286564 -0.1577116 -0.084269054 -0.19067106 0.3254261 0.117558554 -0.14904448 -0.1579921 -0.75631166 0.035354517 0.0770762 -0.07730344 -0.5105607
1263 0.06484075 0.27178884 -0.018706404 -0.15961349 0.26867458 0.0036283552 -2.0891788e-05 -0.08129599 0.60881734 -0.053717338 -0.06813618 -0.06846449 -0.47473484 0.14680465 -0.19654983 -0.07319357 0.36008322 0.3758819 -0.12877044 -0.42937696 -0.2633965 0.16490443 -0.13504615 0.5432386 0.25297487 0.17252286 0.008097053 0.21933386 0.5457997 0.1708165 -0.26629257 -0.5364798
3251 0.18669967 -0.0082589 -0.31129864 0.131678 0.29351348 0.03604391 -0.016749222 0.37432095 0.1319868 0.10559662 -0.18323532 0.29753584 -0.19574349 0.32156646 -0.18958697 -0.7217999 0.09596153 0.3126974 -0.43108705 0.05429667 -0.033994444 -0.104128666 -0.22892863 0.034573883 -0.25028795 -0.4770242 -0.28213063 -0.2330835 0.185474 -0.15396447 0.2506616 -0.33227685
1159 0.4123821 -0.099897236 -0.31392696 -0.5302637 -0.015769413 -0.21807882 -0.2587518 -0.0313471 -0.078689374 0.23827344 -0.115190595 -0.030874679 -0.43283394 0.22048473 -0.23459122 0.074778795 0.22110938 0.16458182 0.19346713 -0.009834481 -0.08782679 0.23175973 0.031312313 0.5962016 0.37780622 -0.09263511 0.27195054 -0.29307604 0.1643118 0.4353589 -0.21744019 -0.20142294
5014 -0.10325085 0.06415211 -0.063699864 -0.2736263 0.3016047 0.1959973 0.062598504 0.27151933 -0.32521352 0.07856452 -0.1477361 9.734058e-05 0.094077714 0.7425666 -0.34795013 -0.34744263 -0.12678027 0.33468613 -0.39782828 -0.18025579 0.28659025 -0.34106278 -0.13477203 0.25920856 -0.43129396 -0.4530971 -0.08052094 -0.35319096 0.14718738 -0.10866519 0.287466 -0.19304647
4862 -0.20557319 0.059870295 -0.42519954 -0.0986941 0.48308 0.062179286 0.080557264 -0.12965834 0.17412461 0.18451434 -0.4405189 -0.013486192 -0.082710095 0.26717836 0.12989843 -0.054736376 0.23593484 0.3746422 0.4629994 -0.124742076 -0.38302258 0.3936596 -0.30319664 0.56725705 -0.045169454 0.1608008 -0.18858868 -0.42067027 0.18509614 -0.12713048 0.40271133 -0.17895865
4316 0.12841949 -0.17313267 -0.018524967 0.09380058 -0.24269712 0.10132993 0.090200245 0.24810767 0.33179367 0.1133159 -0.05780495 -0.13572942 -0.029323544 0.30913043 -0.048889317 -0.29982236 0.30045247 0.16179597 0.42611748 -0.28545642 -0.458174 0.23435128 -0.2252817 0.2880052 -0.44622207 -0.28467444 -0.22080515 0.059006575 0.6447337 0.46739522 0.03140749 -0.17120008
373 0.25647485 -0.36215377 -0.26774102 -0.40305826 -0.06907663 0.041431583 -0.30316502 -0.078801155 0.05510067 0.057522617 -0.26709425 -0.054102115 0.49518892 0.058211725 -0.3183598 -0.25958732 0.074016854 0.21641423 -0.10929699 -0.507498 0.1223424 -0.59086967 -0.21917357 0.14928046 -0.061418038 -0.17987598 0.5189751 -0.42048436 -0.048138287 0.4817448 -0.014694859 -0.3427162
4123 0.33485442 0.005410418 -0.15330778 0.077438086 0.3538117 -0.31136614 -0.088447765 0.2510328 -0.11199804 -0.17932071 0.04833535 0.13736023 -0.30004632 0.4936039 -0.3848788 -0.4852679 -0.32461062 0.1785001 -0.15676005 -0.3220869 0.031930666 0.43829256 0.11210553 0.19455305 0.4459911 -0.20770428 0.030507809 -0.37255064 0.373341 0.25592658 -0.30091193 -0.38169125
199 0.10698774 0.19860667 -0.09533755 -0.34439722 -0.15073974 -0.046953946 0.35421807 0.16263436 0.09869093 -0.3144136 -0.034372307 0.21889952 0.0037965314 0.2131677 -0.29336086 0.15684026 0.29663688 0.21886788 -0.08619948 -0.22027151 -0.7191023 -0.40221694 -0.36725104 0.043823153 -0.09957831 -0.42886972 -0.3077063 -1.4153466e-06 0.34461153 0.36508408 0.16581184 -0.34837407
4414 0.22080784 0.12331062 0.12549062 -0.09169902 0.022834515 0.10493288 -0.094465494 -0.03702974 0.18608563 -0.5366412 -0.63726324 -0.07444846 0.32555723 0.3455062 -0.35644615 -0.21516225 -0.21264057 0.24542555 -0.24985035 -0.58128387 -0.07014244 -0.18375333 -0.041136235 0.16700855 0.104773276 0.3045696 -0.20607282 -0.59595656 -0.10642954 0.09092604 -0.05614304 -0.5527615
103 -0.4214037 0.20991157 -0.09392846 0.28965613 -0.21853504 -0.19864702 0.12586446 0.4687713 -0.50599444 0.2712482 -0.2841272 -0.14807257 -0.24811791 0.513872 -0.18807024 -0.4635163 0.18761027 0.003909139 0.36486718 -0.23187503 -0.50560176 -0.045885663 -0.19545746 -0.08008855 -0.017867638 -0.07544286 -0.3018609 -0.5060361 -0.15015775 -0.020006647 0.51330197 -0.16473112
3749 0.019159893 0.2239464 -0.26239735 -0.19480683 0.010647091 0.20127875 -0.16611142 -0.12156208 0.25852567 0.03161694 -0.19371483 0.033274967 0.39523247 0.32101697 0.028723001 0.32735273 0.3397841 0.3516552 0.05515739 -0.5816942 -0.26721036 -0.078732796 -0.14652003 0.47115585 0.05931624 0.06825749 0.19830555 -0.084873706 0.16530043 0.40261745 -0.15771106 -0.56906796
1611 -0.42822373 0.15114021 -0.18397635 -0.1365811 -0.07158026 -0.13385676 0.02826056 0.31306338 0.19110884 0.27162647 -0.14982998 -0.12795864 -0.28400564 0.32159597 -0.28431287 -0.4030144 0.464769 -0.3571662 0.6693512 0.19969006 -0.31565088 -0.111978434 -0.14894888 -0.055562094 0.044422694 0.11276441 0.045687716 -0.5329692 0.32539594 0.25416705 0.7246161 -0.20886916
1420 0.4564306 -0.0021741488 -0.22124088 -0.35026443 -0.024494838 0.22369517 -0.38692325 0.085268155 0.005936219 -0.41123265 -0.7101011 -0.34592864 -0.06951396 0.08679322 0.033318415 -0.60024405 0.63644224 0.31674498 -0.1351047 0.087591246 -0.2541606 -0.07980574 -0.21561792 0.36361966 -0.19032834 0.26529914 -0.1838453 -0.16095386 -0.14056198 0.11344342 -0.41828266 -0.10832236
913 0.070070505 0.21876353 -0.06879364 -0.15638095 0.17978907 0.017504128 -0.23159657 -0.28418422 0.22923256 0.086833656 0.2695276 -0.06426885 -0.34423986 0.47344446 -0.28564847 -0.16263653 -0.050283536 0.048873585 -0.04558835 -0.3095084 -0.4438893 0.31864825 0.006810358 0.5235413 0.29764047 -0.09932969 -0.15743881 -0.1345668 0.059178468 0.5467706 -0.44469604 -0.45928687
1091 -0.28533736 0.09312006 -0.122317426 0.39694637 -0.05676342 0.27022216 -0.08758874 0.21918526 -0.28987068 0.20535168 -0.62499535 -0.49367294 -0.22464384 -0.03542432 -0.6275108 -0.5694433 -0.031566516 0.0058843154 0.12987027 -0.25130177 -0.47606513 0.08754763 0.20281716 0.08380906 0.025106166 0.05171129 -0.3531816 -0.866931 0.050439168 0.13701324 0.3155726 -0.15034035
1099 -0.07926624 0.19279286 -0.16274175 -0.05738108 0.33377162 0.4051024 0.029156351 -0.08292907 0.18033919 0.03804612 -0.27449167 0.11897825 0.20809214 0.25736877 -0.19025132 0.33852583 0.28997058 0.3340642 0.24914804 -0.62964183 -0.10099975 0.18587837 -0.06968739 0.46931568 0.22313666 0.18059054 0.1732076 -0.25908327 0.061132822 0.30496657 -0.045216363 -0.6294801
1125 0.23511645 -0.09449735 0.21400242 0.3451672 0.46568838 -0.54998434 -0.12213053 0.025248386 -0.4822168 0.009306203 -0.066850334 0.5751136 -0.44885883 0.36320162 0.49661168 -0.31559712 0.26262963 -0.22188804 -0.33344588 0.019699207 -0.0060074683 -0.19630976 0.19569536 0.57003015 0.00017983402 -0.39625508 0.29230773 -0.79691136 0.2517325 0.2551548 -0.09258661 -0.05112184
4069 0.04338345 0.4670894 0.25113967 -0.2138998 -0.18015341 0.52240676 0.25795922 -0.31908375 0.41387057 0.1945885 0.13850158 -0.13460763 0.025921429 0.09816544 -0.28372067 -0.3423122 0.41963562 -0.098381184 0.25048643 -0.58829194 -0.3224146 0.082441926 0.070912346 0.4915229 -0.30056295 0.244888 0.24817312 -0.4582791 0.44714433 -0.0027001097 0.3105986 -0.40671754
3629 0.16758241 -0.036151964 -0.22607334 -0.28613886 0.27652428 -0.25330073 -0.44666615 -0.01797688 0.041613612 0.021840366 0.17953783 0.06788687 -0.6308299 0.1264683 -0.38825157 -0.2832585 0.06739349 0.087360784 0.01284499 -0.31669143 -0.08126486 0.2800029 0.19167535 0.44832104 0.41643676 -0.29987264 0.26927006 -0.10337028 0.2784999 0.46352765 -0.21090563 -0.32921115
4516 0.2186716 0.024549788 -0.22457442 0.019364838 0.15464588 0.14897904 -0.09234238 0.88491976 -0.18317866 -0.022159358 -0.097279176 0.030203328 0.15240352 0.8517569 -0.15861574 -0.58478045 0.12603375 0.22523212 -0.24691811 -0.3199478 0.022218768 0.11088285 0.22341748 -0.061373305 -0.5951618 -0.4743342 0.17174055 -0.009592817 0.24153033 -0.039676018 0.02771865 -0.3383668
2553 0.19217435 0.10621041 -0.67330086 -0.112422355 0.28939676 0.34154293 0.17991996 -0.0043800166 0.096555755 0.006922698 -0.29632413 -0.006950591 0.15955669 0.4214699 -0.040742338 -0.15035123 0.4263023 0.40572482 0.039300952 -0.057242025 -0.05397551 -0.17607968 -0.02410131 0.33026758 -0.46745667 -0.28660026 -0.2655587 0.13858709 0.0033331676 0.31145316 0.3287505 -0.5198864
1258 -0.03649422 0.43987334 -0.29739243 -0.0060138176 0.22014533 -0.09600708 -0.21458954 0.08173165 0.66565067 -0.11276509 -0.21727815 0.32720098 -0.11427519 0.07002744 0.5209189 0.03910891 0.34312263 -0.029627237 0.17433791 -0.35919994 0.06661607 0.09752612 -0.41400835 0.21164416 0.18048571 -0.110759884 -0.1817504 -0.4966783 0.35896337 0.32887676 -0.18344 -0.45870763
1280 0.19286446 -0.1474106 0.10126818 0.19101414 0.10493489 -0.35727218 0.35747632 0.40742853 -0.16492671 -0.20913999 -0.15490605 0.48739251 0.22717014 0.48246953 -0.26577005 -0.35606158 -0.17128561 0.02721734 -0.3059218 -0.15861723 -0.43584394 -0.20002939 -0.3503459 -0.02948856 0.050590858 -0.24890596 0.16444294 -0.683978 0.07875239 -0.08266185 0.08534157 -0.34667376
4617 0.08438398 0.004682632 -0.1785594 -0.37131774 -0.16577166 -0.07931355 -0.2635985 -0.16251966 0.13083458 0.15989119 -0.18420932 -0.077385016 -0.35859585 0.14302972 -0.38246503 -0.54863864 0.25341016 0.32142895 -0.13837007 -0.36588922 0.06307126 -0.018159468 -0.13078398 0.19284953 -0.097032614 -0.22905058 0.24434361 -0.10028123 -0.19428663 0.32352188 -0.03462353 -0.029419383
1824 -0.120290644 -0.01780138 0.18209983 -0.14694674 0.5574004 0.3777213 -0.20348375 -0.20884748 0.7549872 -0.062250834 0.0743636 -0.15408209 -0.23897262 0.4202693 0.107202016 0.091719665 0.20603925 0.5382401 0.10240429 -0.47437486 -0.29247802 -0.26343086 -0.18618403 0.54776144 0.094543986 0.1967959 0.43707684 -0.2293758 0.16463462 0.02524381 0.1334158 -0.37520972
4175 -0.04338846 0.19138154 -0.25425273 -0.14619634 -0.14145397 -0.18822241 -0.05226013 0.30744648 -0.110474944 0.39223695 -0.25766787 -0.59972495 0.020412222 0.15811545 -0.29744074 -0.26466116 0.39896083 -0.043812588 0.07025415 -0.013095984 -0.4669213 -0.12346992 0.15873945 0.21931711 0.54526234 0.15461451 0.15461032 -0.49194908 0.10165016 0.7066075 0.5118422 0.018579423
1166 -0.30865526 -0.037694912 -0.12354761 -0.14392774 0.08879958 0.13669285 0.08107148 -0.23280373 0.026261164 -0.16511348 0.013231996 -0.043926105 -0.63560057 0.05678846 -0.37301016 0.37099025 0.3511164 0.59361464 -0.007428217 -0.5078865 0.067953534 -0.0619387 -0.33966509 0.44331083 -0.09775323 0.33555517 0.2350985 -0.19884495 -0.12703048 0.23583375 0.052033044 -0.7974362
1179 -0.114695914 0.6545144 -0.017166182 -0.098763414 -0.27136934 0.08875983 0.011386172 0.005160052 0.06544943 0.23489103 0.10573852 0.08221126 0.095909715 0.28677732 -0.23965052 -0.5676412 0.5527187 -0.06386008 0.58593124 -0.62307805 -0.100720935 0.35874864 0.014293716 0.12104985 -0.5381334 0.3041554 0.18887135 -0.7865424 -0.17317413 -0.19279507 -0.00027558472 -0.027091447
366 -0.4230417 0.6818339 0.42837924 -0.21826214 0.13964142 0.11757514 0.18593565 -0.017972225 -0.14684786 0.14663932 0.13811833 0.17490698 0.11315479 0.03182961 0.08216321 -0.5536431 0.5646059 0.2542521 0.40564036 -0.4898465 0.05204318 -0.11074723 0.24639927 0.29473522 -0.32263044 0.084887 -0.024164435 -0.59368455 -0.10666399 0.18497583 -0.094602235 -0.46933353
4138 0.49070257 -0.16401377 -0.2469787 0.28031018 0.030497843 0.40388334 -0.04358769 0.8650156 -0.3746347 0.04414348 -0.01710486 0.16690183 0.0932281 0.56714725 -0.12857014 -0.53889745 0.2511427 -0.061968245 -0.16969822 0.17727691 -0.15481709 0.284963 0.060809195 0.15511635 -0.14790007 -0.37528023 0.05889771 -0.34804666 0.23399733 0.19244865 0.05427689 -0.47908393
3168 0.0005087043 0.1225234 -0.281932 -0.017378483 0.050717086 0.32620144 -0.117415674 -0.48908705 0.32437447 0.1541644 -0.1695852 0.021551544 -0.11615615 0.5067831 -0.38428473 -0.08268304 0.22337134 -0.03992671 -0.06559076 -0.3878372 -0.41662848 0.12185279 0.115475565 0.18522868 0.13550967 -0.009899429 -0.09884821 -0.14636642 -0.4020731 0.7115718 -0.1845396 -0.3984892
4659 0.21603484 -0.030262409 0.0772123 0.08000729 0.28044307 -0.17404678 -0.1670519 0.114634156 -0.054976106 0.1954809 0.045456402 0.11859884 -0.25251353 0.4491144 0.03420083 -0.37531275 -0.2134237 0.31395468 -0.058304142 -0.26666552 -0.30008706 0.2844012 0.22455376 0.27126992 0.099988274 -0.22930393 -0.0257967 -0.6292775 -0.3072468 0.29421836 -0.4920764 -0.45433882
1261 -0.17950821 0.11679759 -0.17026904 -0.2644471 0.6126866 -0.11693065 -0.31858173 -0.10818234 0.07789521 0.10931524 -0.1918528 -0.033636816 -0.18092492 0.6530371 -0.09146923 -0.070112124 -0.0984894 0.31309637 -0.1301115 -0.28309655 -0.15656073 0.015228976 0.12576237 0.5151558 -0.31232557 -0.4927471 -0.044695694 0.08609817 0.43116084 0.24373572 -0.12311118 -0.18929778
4547 -0.40462855 0.14190395 -0.120776445 0.1539509 0.1027188 0.19066322 -0.01409255 -0.12943569 -0.31043553 0.08304096 -0.41127083 -0.44851172 -0.22209033 0.36978742 -0.35137907 -0.47621402 0.33246964 -0.07653583 0.41172448 0.16169256 0.15899076 -0.13337171 0.1386131 0.009554551 0.33065113 -0.06612407 0.1807422 -0.79147345 0.52332985 0.12078104 0.48663077 -0.2540513
1704 0.018982247 -0.2902032 -0.062539846 -0.23915309 -0.2567085 -0.097164735 -0.26364616 0.0090794675 0.33931413 0.06414111 -0.22665057 -0.058681495 0.42489702 0.27578384 0.10170548 -0.32636362 0.034126434 0.3129919 0.041836247 -0.3519271 -0.54537433 -0.06288939 -0.56060314 0.30362353 -0.15798031 -0.15985936 0.0770495 -0.05695257 0.66886806 0.4506467 -0.33832824 -0.18763798
617 0.12961192 0.16977394 0.19493379 -0.1277433 0.08373265 0.2082123 -0.21487026 0.49369684 0.10906991 -0.25237063 -0.22579901 -0.09844906 -0.1564073 0.57436633 -0.13067976 -0.59290653 0.47136664 -0.13577475 0.25854346 0.03793311 -0.1872434 0.064077154 -0.06570123 0.22541907 -0.32151943 -0.05711984 -0.15049355 0.09554029 -0.30989447 0.58477825 -0.37731272 -0.15659623
3911 -0.1625215 -0.19438168 -0.34346533 -0.09623631 0.04258735 -0.2579143 0.23406154 0.15112963 0.6855138 0.3798588 -0.109576106 0.12428755 0.19131422 0.038918477 -0.2696866 -0.8391366 0.39082944 0.15417515 -0.24328788 -0.052432746 -0.18807735 -0.4090671 -0.4191971 0.06495988 0.039729517 -0.22721083 -0.23392902 -0.09570875 0.46878424 0.15249148 -0.16296956 -0.28655666
1265 -0.39878982 0.5422918 -0.1959028 0.48194486 -0.051273115 -0.04996404 -0.017153919 -0.034672696 -0.2979102 0.032207627 0.055849083 0.2435972 -0.3980894 -0.55150896 -0.31991893 -0.27690884 0.3141926 0.35826766 0.25120994 -0.5808622 0.008430267 -0.2707711 -0.5980916 0.08775774 -0.094338454 -0.11403604 0.19575346 -0.14437173 0.023385443 0.34436062 -0.2484819 -0.74148124
6 -0.48689875 0.16090655 -0.1988531 -0.0003773536 0.025625287 -0.08270893 -0.017759837 0.15221399 -0.13576144 0.37011522 -0.37521943 -0.43440315 -0.24583735 0.25962818 -0.37905192 -0.43728355 0.36833304 -0.3284898 0.5514682 -0.06610641 -0.34318945 -0.15554145 0.014157402 0.0020502836 0.06550599 0.23149638 0.18367569 -0.62816787 0.3566823 0.3711393 0.77608407 0.038269717
1652 -0.088158734 0.20097801 0.025364554 0.27640995 0.070754655 -0.08091111 0.2860214 0.7471321 -0.20418596 0.050418705 -0.8008606 -0.081812575 -0.42118126 0.037461717 -0.45607367 -0.46459293 -0.28767067 -0.1591144 0.19066149 -0.19635573 -0.4873291 -0.20652851 -0.07075857 0.23556119 -0.3268793 0.1302467 -0.17277542 -0.6050516 -0.24136493 0.25453135 -0.07885016 0.057417657
3709 -0.027955884 -0.23700175 -0.6059301 -0.3091203 0.026142348 0.025513032 0.037144464 -0.16347793 -0.031177513 -0.2501965 0.13639955 -0.1366884 -0.48416814 0.21838875 -0.09152305 -0.38891768 0.31953776 0.5009696 0.10787467 0.05107729 -0.076625526 -0.0092549315 -0.6528018 0.395475 -0.5625235 0.20204018 -0.035376348 -0.073652804 -0.26524037 0.21814418 0.038959187 -0.4865412
1245 -0.18924253 0.12047949 0.18667245 -0.63491344 -0.036677226 0.09220249 -0.25241137 0.36648774 0.24814315 -0.65969 -0.81825775 -0.20441961 -0.14964022 0.007816546 0.1958145 -0.14983742 0.031371005 0.33264956 0.0885327 -0.07546121 -0.42772645 -0.21983685 -0.027018236 -0.10261399 -0.16213048 -0.5552981 0.0958972 -0.7113387 -0.022510488 0.4114599 0.10337724 -0.053163342
3229 0.2583411 -0.13687849 -0.5321726 -0.14897957 0.14314897 -0.04689771 -0.5406819 0.24990205 0.067762345 -0.2949595 0.26679236 -0.24706806 -0.48661926 -0.09599007 -0.1528972 -0.51497865 -0.14476664 0.3446891 -0.15187037 -0.489755 -0.4250418 0.21885577 0.35445955 0.4523009 0.5128164 -0.1999264 -0.016602019 -0.2573833 0.32190397 0.25267124 -0.33532917 -0.43752196
755 0.19412805 0.051088028 -0.6511262 -0.33237228 0.106348485 0.15095991 -0.20113687 -0.19108784 -0.14702563 0.08034264 -0.25929174 0.0967071 -0.47370496 -0.11509045 -0.26915294 -0.4079621 0.21706016 0.17262785 0.1472989 -0.033849202 0.104600005 -0.061795045 -0.09252874 0.36166173 -0.31881756 -0.10130004 0.10505091 -0.19292231 -0.24095467 0.41998184 0.37048936 -0.28932136
4924 -0.11976353 -0.143693 -0.096882455 0.012777603 0.14875653 0.16180596 -0.35250926 -0.22542585 0.32675818 -0.14789848 -0.086078845 0.15856956 -0.25273222 0.407283 -0.051374823 -0.5601117 0.23911117 0.40625653 -0.16384076 -0.35121706 -0.15531223 0.035677854 -0.40082365 0.0006843252 0.23210572 -0.38757783 0.034402788 0.19198015 0.33868608 0.6879986 0.08327343 0.13547312
3164 0.08706777 -0.1473078 0.15587215 0.30905142 0.10912386 -0.005366518 0.111327946 0.73502946 -0.25166422 0.15703027 -0.41563603 0.27283737 -0.037309192 0.06527008 -0.16072065 -0.39519534 0.32784024 0.0019791583 -0.26870292 0.12487996 0.02894058 0.0015808528 -0.3217774 0.020167358 0.11924803 -0.12048969 0.25511497 -0.91884667 -0.049006835 0.097510114 -0.088046394 -0.4045828
1809 0.18481767 -0.00036013825 0.1589075 0.21880296 -0.15041652 -0.13968377 -0.02065813 0.13452485 -0.036319464 -0.18346004 0.27179116 0.25232998 -0.03493242 0.77894396 -0.36069748 0.04300368 -0.022001041 -0.080839016 -0.15992656 0.21531492 -0.36773774 0.0042739855 -0.11659138 0.1874922 0.31831977 -0.43585402 -0.06260245 -0.703284 0.0023794738 0.45969626 0.061291877 -0.39315525
1892 -0.28750774 -0.02856828 -0.036584172 -0.18832815 0.027578972 0.22471006 -0.117266335 -0.04621092 0.3813391 0.24620529 -0.4759465 0.38018557 -0.20321652 0.71378845 -0.14790334 -0.16484922 0.08729427 0.13764815 -0.41255748 -0.3564136 0.11892522 -0.15269746 -0.23006213 0.27143145 -0.41632733 -0.10722898 -0.076522976 0.21405788 0.634997 0.1577459 0.33604252 -0.26562348
2973 0.121866144 -0.19802503 -0.37751377 -0.34092435 0.066871606 -0.09798824 -0.5640708 0.06576853 0.22566408 0.2740743 -0.117093235 -0.05838228 -0.07195327 0.1655594 -0.2907395 -0.46792674 -0.03059929 0.2053471 -0.018857926 -0.43630868 -0.008341532 -0.09300228 -0.049958847 0.20848702 0.1168505 -0.21293133 0.33757922 0.03246383 0.12032235 0.55761707 -0.22376229 -0.36684993
1948 -0.13130596 0.5316058 -0.12996705 -0.17275614 -0.08507522 -0.1710436 0.041023728 -0.3262719 0.45671505 0.05837383 0.23937258 0.18518853 -0.18999311 0.7226076 0.053402666 -0.21123737 -0.2883997 0.0025550995 -0.32546446 -0.15842733 -0.9045033 0.06700843 -0.33222336 0.21048649 0.34677324 0.030765522 0.16572808 -0.22920094 -0.07870063 0.37046736 -0.2651244 -0.3996127
491 0.3979184 -0.108036876 -0.61279714 -0.4461019 0.2059371 -0.05558611 0.10524491 -0.14554644 -0.0023959703 0.045773264 -0.2039915 0.083610706 -0.692801 -0.048031524 -0.15316781 -0.25927484 0.32120988 0.2464187 -0.010247804 0.19001971 0.1552752 0.116289444 -0.22809452 0.3437777 -0.0682729 -0.09832533 0.35414824 -0.41222277 -0.38885495 0.27197394 0.19307731 -0.45123702
331 0.0076096356 -0.05616043 -0.4358438 -0.26983285 0.15323365 -0.14101228 -0.29143533 -0.21561833 0.014014534 0.19602093 -0.46336833 -0.21007635 0.35368013 0.13630618 -0.21874548 -0.14845996 0.53072745 0.22511117 -0.074617594 -0.39053884 -0.3197608 -0.219264 -0.3719018 0.37250644 -0.28249598 0.1252964 0.008283678 0.1408411 -0.033600632 0.5373665 -0.38794553 -0.31047404
3703 0.31153908 0.45284253 0.40405476 -0.55727464 0.27423072 -0.09547703 -0.23366824 0.09590211 -0.5242438 0.09794846 0.21139562 0.00026404246 -0.44176227 0.113074735 -0.006014633 -0.22639522 0.21109243 0.29331195 0.08919752 -0.07746408 -0.12850717 -0.17856982 -0.08088747 0.7542914 -0.14561331 0.05642112 0.23210523 -0.22324847 0.022026932 0.40827796 -0.19204898 -0.048084248
4506 -0.08649596 0.23838158 -0.17167601 -0.06140326 0.088643506 0.3592041 0.0029392687 -0.12133584 0.15878755 -0.23191313 -0.37437117 0.5030481 0.19263574 0.26435354 -0.05204516 0.259674 0.5044857 0.47837004 0.22149028 -0.012418851 -0.45310152 0.1436547 -0.20120841 0.14148702 0.28558242 0.2550236 0.06873776 -0.5008207 0.39960536 0.26595792 0.256227 -0.16213098
3733 0.074017644 0.1822654 -0.20436639 -0.23059595 0.17665407 0.012871962 -0.34685788 0.11186474 0.109884374 0.002088465 0.2576041 -0.081536256 -0.32816157 0.36161542 -0.25689682 -0.35374916 0.051015213 -0.038411777 -0.12944718 -0.46170598 -0.45317686 0.31162384 0.106913686 0.4749469 0.15681736 -0.3500254 -0.044795338 0.06983297 -0.10343921 0.46137834 -0.39466208 -0.39862934
4265 -0.10572401 0.09944859 -0.234226 -0.21350524 -0.26639688 -0.26361674 0.23093447 0.33705676 0.020439832 -0.43467906 0.16254613 0.19347544 -0.021276508 0.43644387 -0.067952126 0.07174428 0.58067036 0.2555726 -0.1904335 -0.28377935 -0.61481196 -0.33048663 -0.19200474 0.19287856 0.020639649 -0.51102763 -0.2874968 0.09558735 -0.049225263 0.44066334 -0.07310684 -0.17857295
2205 -0.060882512 0.18445279 -0.029866317 -0.24848947 0.27628627 0.05522342 -0.4005311 -0.052340712 0.29177698 -0.15019572 0.27169216 0.1601363 -0.42678165 0.4539107 -0.39397526 -0.091503404 0.012724112 0.039973848 -0.11478452 -0.52121955 -0.07128559 0.36159644 0.025433771 0.57202286 0.45675972 -0.11659448 0.0050717057 -0.06494685 0.38088202 0.432852 -0.3687289 -0.32963425
2780 0.19644539 -0.048400085 -0.30361462 -0.2994438 0.14843489 -0.1876345 -0.21174324 -0.31925255 0.022448052 0.1599289 0.21597496 -0.0026773436 -0.3737011 0.293925 -0.2949005 -0.18176864 -0.030122872 0.19260177 0.29201794 -0.22338018 -0.27522781 -0.032463983 0.10554736 0.39188573 -0.020455273 -0.18741399 0.31007755 -0.24284278 -0.40585503 0.67256343 -0.266168 -0.3535607
733 -0.26559323 0.2707529 0.12027461 -0.17858031 0.16987576 -0.42596358 -0.087163426 -0.045241795 0.37320486 -0.14661695 -0.055900358 0.055982515 -0.49142823 0.18502451 -0.12876421 -0.4287504 0.30804822 0.16446391 -0.19915338 -0.35146964 0.018760687 -0.02415428 0.090095624 0.77586305 0.28882357 -0.23359641 0.07078233 0.09939587 0.21876365 0.20030542 -0.31542578 -0.19704321
1793 0.17660427 -0.36078537 -0.5104107 -0.27484128 -0.14646518 0.07592577 0.120877765 0.06464981 -0.3849181 0.17465694 -0.13464414 -0.30642396 -0.5086141 0.46822447 -0.090593755 -0.09616702 0.34982422 0.4915221 -0.2113631 0.26634416 0.19892201 0.19917975 -0.33065823 0.30531678 -0.19071424 0.120588414 0.35890144 -0.6405807 -0.012151836 0.019488841 0.072467 -0.36142248
262 0.2546083 -0.025250247 -0.15854804 -0.34641296 0.086800516 -0.43221548 -0.2826421 -0.095412396 -0.10721615 0.102740005 0.19695602 -0.0769083 -0.561435 0.02577145 -0.37780213 -0.43169302 -0.0077350866 0.22596055 -0.17364018 -0.35975787 -0.18763845 0.023293385 0.10840964 0.61143553 0.38547692 -0.34433913 0.07633715 -0.1868931 0.056061547 0.30041012 -0.30775955 -0.2139829
835 -0.15647164 0.08010423 -0.03723564 0.39557007 -0.103317924 -0.11901984 -0.035222568 0.26054433 -0.035659928 0.5767826 -0.45662352 0.13874888 -0.40782762 0.2689167 -0.12063594 -0.8712502 -0.14287764 -0.086074114 -0.275806 -0.24344689 -0.071974866 -0.009195567 0.008775458 0.22255288 -0.12691781 -0.022131583 -0.10979598 -0.6095428 -0.35090318 0.040001787 0.45402706 -0.29214108
4817 -0.089409396 -0.15234497 -0.27034542 -0.20100936 0.12562844 -0.26191452 -0.22300822 0.005464967 0.30687875 0.16427912 -0.26023507 -0.019367343 0.28144938 0.103140675 -0.12832691 -0.38674566 0.3409814 0.24093623 -0.2865218 -0.3982205 -0.22544153 -0.04347179 -0.35546508 0.4186736 -0.018717315 -0.09616626 -0.0125613045 0.07761464 0.15949312 0.4403215 -0.46346796 -0.40599275
3385 0.48259127 0.0852428 -0.79179996 -0.105665945 0.14181134 0.23135331 -0.17909415 -0.057412554 0.1415575 -0.48930776 -0.29416084 -0.6109824 -0.08965698 -0.24394007 0.043933127 -0.49624795 0.4734388 0.32299644 -0.11220286 -0.13089965 -0.37480804 -0.110790916 -0.14084019 0.29056013 -0.12276344 0.009493274 -0.39878008 -0.43656108 -0.26084164 0.0038488812 -0.09094398 -0.54516107
4749 0.0043491707 0.05419308 -0.52283347 -0.06427729 -0.10509041 0.07777782 0.29834113 0.064173944 0.13024437 -0.15687706 -0.22854963 0.17474478 0.077073984 0.43255332 -0.23651291 0.2778614 0.3437788 0.3754307 0.399858 -0.5208819 -0.5321587 0.09472415 -0.06553853 0.2013949 -0.3690376 -0.23926534 -0.19556035 0.106515974 0.110797845 0.19242175 0.1663155 -0.4696807
2461 0.015295216 0.29212436 0.06745477 -0.40713447 0.0018842272 0.26823634 -0.06008068 -0.27904293 -0.005636131 -0.43166128 -0.15677235 -0.23644978 -0.2987717 0.64956576 0.05780327 -0.21694982 -0.07132359 -0.01377156 0.12619591 -0.16065659 -0.6576286 0.17944227 -0.087571435 0.22815555 0.016584177 -0.24179944 -0.39588645 -0.33476365 -0.5082728 0.5684228 -0.33011055 -0.26019177
1586 -0.14722829 0.21762915 -0.24968958 -0.34570697 0.11516798 0.15725303 -0.07034237 0.18405208 0.2845177 -0.17756331 0.1694065 0.096280605 -0.16432479 0.18448399 -0.2476148 -0.3737738 0.09862187 0.19099836 -0.038114194 -0.57057095 -0.25186104 0.283558 -0.27999923 0.14356685 0.13081348 -0.29117063 -0.1557744 0.1675919 0.4347064 0.5168626 -0.05203546 -0.28995264
4344 -0.3818482 0.15130766 -0.17581396 -0.09894867 -0.1044338 -0.2562975 -0.0079487255 0.0945298 -0.012247732 0.1972025 -0.25710666 0.012486546 -0.25045025 0.5224027 -0.21144855 -0.29812083 0.47313493 -0.17694232 0.55619085 0.27686882 -0.39905012 -0.18160684 -0.03342601 -0.1147993 0.17820406 0.021076072 0.1404855 -0.3632258 0.34544915 0.3100218 0.88961107 -0.23507228
2399 0.27079582 -0.02188203 -0.6582159 -0.13497591 -0.04226024 0.35498953 -0.014972311 -0.24830674 0.028032973 0.042683203 -0.21135356 0.3092032 -0.25014743 0.14287311 -0.1812976 -0.61123407 0.19748764 0.35435045 -0.094379164 0.09897007 0.12039612 -0.31633148 -0.15908076 0.28824216 -0.2131099 -0.20975764 0.074912295 -0.0036370023 -0.18030898 0.28834778 0.47865313 -0.38108888
1501 -0.16563326 -0.0048748828 -0.29327103 -0.018636761 -0.11540585 -0.12604718 0.12618239 -0.16337934 0.45406842 -0.11017104 -0.39759263 0.3626812 0.02253144 0.39343455 -0.27530485 0.08132263 0.6394078 0.28986463 0.31790346 -0.20561774 -0.67923653 0.29639995 -0.059640527 0.10368002 -0.06458357 0.18989217 -0.23476112 -0.27622354 0.42673057 0.21506834 0.087658234 0.09182435
1543 -0.20120609 0.19476669 -0.2011764 -0.17913699 0.0650592 -0.062210247 -0.032930583 -0.37870306 0.29795316 0.0064885877 -0.020737566 0.07205034 -0.15277143 0.69845897 -0.22993632 -0.40623844 0.25568148 -0.09894625 0.40230587 0.14184445 -0.19488415 -0.09772596 0.12969479 0.5787059 0.31946495 -0.036475807 0.14503214 -0.06490448 -0.33664358 0.3324477 -0.3179325 -0.40884125
839 -0.24907081 0.030966872 -0.12207757 -0.43579254 -0.06813314 0.23769106 -0.23666272 0.423662 0.11931928 0.32158187 -0.3878069 0.25499418 -0.25280347 0.63145334 -0.22808471 -0.122757174 0.21947946 0.6184855 -0.22884941 -0.22200792 0.33696312 -0.18062814 -0.031758826 -0.06652404 -0.4959058 -0.6062898 0.18355267 -0.14809202 -0.051563255 0.13308428 0.27005288 -0.05744638
5264 0.42477304 0.13352124 -0.47581664 -0.18615443 -0.20813331 0.012901382 0.033935502 0.067574374 0.04745166 -0.03452987 0.046377745 0.2957615 0.0490307 0.35545072 -0.19654138 -0.3615922 0.0063176546 0.29601768 0.08689891 0.43199208 -0.12883902 -0.17760672 -0.2647636 0.2614419 -0.008803074 -0.36757421 0.1081168 -0.25097483 0.13531946 0.2553878 0.41811052 -0.5340926
1455 0.387463 0.012322937 -0.44337225 0.13238926 0.096667945 0.30776006 0.029091211 0.037663758 -0.21793115 0.33626485 -0.00065184705 0.060360957 0.21529369 0.32314223 -0.42922845 -0.05037859 0.11983117 0.27818915 0.45862362 -0.54759216 0.008400187 0.08795483 0.27060694 0.34469125 -0.1796869 -0.27792123 0.40416726 -0.09578989 -0.1670787 0.59154475 0.05368878 -0.48980632
3106 -0.27476344 0.17642494 -0.13569944 -0.27285033 0.51890635 0.04315504 -0.21870169 0.28715417 0.10353109 -0.18942685 0.422192 0.13859035 0.050600894 0.43346652 -0.3049618 -0.10251034 -0.18818335 0.37215272 0.0008405087 -0.46108618 -0.42556846 -0.028686596 -0.36192265 0.59852844 0.15263157 0.13996167 -0.02380158 -0.11490263 0.1895767 0.29157984 -0.111021146 -0.0332958
3585 -0.3165937 0.29493877 0.049493045 -0.29510453 0.30332157 -0.00012841553 0.04902179 0.014840848 0.28679118 0.35845837 -0.15534924 -0.18772745 0.17125303 0.787954 -0.10304812 -0.25806397 0.20235471 0.084879875 -0.18903692 -0.28940874 0.034502637 0.2093596 0.3613469 0.7033034 -0.44183207 -0.42469507 -0.037612345 -0.14469472 0.34332976 -0.09197396 0.09013961 -0.36870816
2490 -0.2991413 0.47810486 0.019544981 -0.20683016 -0.18496221 0.24577813 -6.468958e-05 -0.055715047 0.32520512 -0.037759103 0.06603494 -0.14540389 0.23767404 0.1652002 -0.25914645 -0.66185653 0.47986463 -0.15313205 0.25990385 -0.5695156 0.019238718 0.33878455 0.13256288 0.49979207 -0.40350088 0.055055857 0.24396013 -0.5267216 0.21183583 0.007641656 0.2763442 -0.15185876
4015 -0.27332827 0.47745633 0.013094423 -0.32885736 0.24278542 0.6317416 -0.14406832 -0.1578113 0.30235708 0.21311818 -0.38451937 0.06503822 -0.42023233 0.17513222 -0.0009206275 0.41858178 0.43820503 -0.01877911 -0.034363203 -0.30730268 -0.39982948 0.036533892 -0.13207069 0.7169536 0.43028128 0.251946 -0.052721743 -0.24088344 0.51510435 0.053544234 0.1320771 -0.42142695
4057 0.4364842 -0.104452804 -0.2153308 -0.1711252 0.041185807 -0.19848238 -0.4713493 -0.023323786 -0.012518606 0.036859024 0.01584991 0.14221588 -0.5504306 0.253109 -0.34797165 -0.54184306 0.102595 0.024426913 0.0084610935 -0.42216122 0.10983524 0.2700774 0.32210776 0.27689078 0.24464743 -0.2797115 0.23966174 -0.07989283 0.14056143 0.56092787 -0.18356459 -0.15810941
3119 -0.15043946 0.07800477 -0.15073952 -0.1653689 -0.23025604 0.09911651 -0.16913286 -0.049680103 0.17671286 -0.18806227 -0.41620752 -0.10088926 -0.08080146 0.5081891 0.10638635 -0.5117358 0.72811216 0.0123691885 -0.00036735137 0.32388633 -0.2720248 -0.12595025 -0.4858562 0.14126125 -0.11707627 0.08194677 -0.23389362 0.07960686 0.2211294 0.34217024 0.18375948 -0.2681076
1696 0.18301642 0.23628855 -0.012741394 -0.18351442 0.36153895 0.2218072 -0.09533128 0.13051997 0.25259623 -0.06231118 0.022419842 0.12202049 0.1902655 0.5762087 -0.17364189 -0.11006883 0.2744016 -0.00081626873 0.2511685 -0.69805044 -0.08677963 0.14716487 0.10924302 0.18646634 -0.093481325 0.0096499445 0.0072818142 -0.14297944 0.031685296 0.2144809 -0.1419666 -0.48493466
4682 -0.3754588 0.48949233 -0.0238936 0.10242495 -0.017366813 0.24759054 0.36346313 -0.011373079 -0.036631275 0.083545186 -0.14699374 -0.27916512 0.27936858 0.0004195599 -0.30782497 -0.65665907 0.5406679 -0.29754436 0.38582438 -0.6481219 -0.29613015 0.22010674 0.16530111 0.42755497 -0.03044143 0.24602468 0.1050879 -0.65300065 0.25316757 0.2818679 0.38408887 0.1504702
2376 0.034642994 0.20322594 -0.22628064 0.22440752 0.13663371 -0.60121685 0.121716976 0.39391008 -0.03221739 0.3893506 -0.051539194 -0.12304009 -0.48555043 -0.07610038 -0.35168788 -0.86388594 0.074805066 0.12041578 -0.34005448 -0.2695541 -0.26724342 0.17008674 0.010613367 0.39193782 0.35154787 -0.28191245 -0.17063035 -0.04862969 0.33833194 0.09332763 -0.17783272 -0.33483452
817 -0.30917892 0.12433691 0.1995438 -0.5976194 0.01869076 0.40143904 -0.15011537 0.14144298 -0.050068084 -0.39626423 -0.5196859 -0.1694936 -0.24395359 0.5004024 0.24560909 -0.16097103 -0.16901784 0.53105444 0.13091068 -0.15720633 -0.24219653 -0.15619846 -0.34488302 -0.056813378 -0.4614368 -0.7916981 0.0018805217 -0.45541194 0.13770875 0.13940892 0.45682865 0.0053312266
3739 -0.0659302 0.67584586 -0.46208477 -0.19171143 -0.10538158 -0.38589013 -0.04389 0.23421496 -0.26653716 0.3539179 -0.2728722 0.16946872 -0.32887486 -0.17992121 -0.6167118 -0.5084922 0.042088903 0.25593963 -0.08619398 -0.20521843 -0.06984168 0.25956434 -0.3064118 0.22516435 0.29229364 -0.17932622 0.1765605 -0.10500674 0.3510469 0.0075943354 -0.045139715 -0.11457314
969 0.31049857 -0.4025131 -0.13898423 0.15487334 -0.11442679 -0.22747058 -0.74983114 0.26500714 -0.07225458 0.15221028 -0.27637026 0.089777455 -0.14176132 0.26136175 -0.22667001 -0.7773961 -0.18169384 0.15300082 -0.29207695 -0.41867918 -0.10809118 -0.09652755 0.031641904 0.49863404 0.09184447 -0.14161758 -0.013659453 -0.17289157 0.035509586 0.16723514 -0.24101073 -0.21762577
5103 0.3281086 -0.14556594 -0.022413302 0.26199108 0.075923 0.021896515 -0.11468482 0.18922934 0.01589893 0.012131729 -0.44835764 0.35022223 0.11254467 0.31190667 -0.27118242 -0.94480944 -0.22292417 0.26221907 -0.34996867 -0.3027455 0.046605755 -0.012456058 -0.047565594 0.08949674 0.33211556 -0.26914746 0.10098528 -0.15706237 0.16352569 0.24217731 0.10312335 -0.34184244
2190 -0.16292343 0.44334865 -0.153299 -0.5572016 0.3636201 0.19565295 -0.29532975 0.32344565 0.37695476 -0.24585661 -0.23744671 0.15455902 0.1819443 0.83539426 0.32004008 0.037152108 0.018537698 -0.036396705 -0.10615862 -0.6388116 0.122733876 -0.2152103 0.089115545 0.48723188 -0.3848335 -0.35707754 -0.06413798 0.022543894 0.3288207 0.13238947 0.21791406 -0.22940178
4995 -0.12489375 0.47185606 0.183874 -0.29828975 0.18093939 0.08973127 -0.06242634 -0.037066307 0.067249365 0.4215639 -0.09956373 0.08993688 0.016075302 0.34135878 -0.30023843 -0.37148294 0.26670277 0.45211622 -0.24892567 -0.20379934 0.28812698 -0.13049589 0.3302853 0.07843739 -0.75493044 -0.3909886 0.18358105 -0.25807637 0.2804821 0.35628742 0.42480174 -0.4053453
4315 0.051407184 0.47137746 -0.36218897 -0.15453768 0.05138061 0.24123506 -0.28822845 -0.15607548 0.3798914 -0.35117096 -0.24813692 0.28952616 -0.009587123 0.09835283 0.21242298 0.07333644 0.47307292 0.1944273 0.05412989 -0.033669822 -0.10169765 0.14814772 -0.39762342 0.5017057 -0.032109927 0.22392352 -0.11548591 -0.29397818 0.48967737 0.042378876 -0.0007344428 -0.62647545
4757 -0.06778916 0.54712063 0.025138218 -0.0054417644 -0.43875012 0.040361613 0.13745546 0.0016814473 0.045346837 0.4326013 -0.017871363 -0.30414662 -0.0863673 -0.089411914 -0.6042315 -0.68942684 0.39170405 -0.31596547 0.3798649 -0.17755482 -0.20168516 -0.061984994 0.07115035 0.32974613 -0.23951244 0.042452004 0.20584086 -0.8510331 0.30152652 0.12747033 0.599116 0.08475686
644 0.04842496 0.112971194 -0.10900295 -0.24583101 -0.27157843 -0.22402455 0.25973824 0.14576602 0.05501566 -0.4347107 -0.09029006 0.4362478 -0.0046830038 0.39971963 -0.113290444 -0.2202702 4.3883847e-06 0.37063423 0.18104254 -0.15562557 -0.56921315 -0.1608448 -0.37630463 -0.08194692 0.106357485 -0.4183616 0.28075725 -0.086994626 0.3773251 0.3828455 0.4129565 -0.029871073
5070 -0.22342502 0.47746357 0.088812254 -0.2794445 -0.38640696 0.34991992 0.13510384 -0.18464307 0.14165868 0.14818245 0.0665103 -0.22920431 0.37999225 0.043535862 -0.06464322 -0.662431 0.3592807 -0.37439075 0.40102074 -0.53308696 -0.3284652 0.13519068 -0.056001168 0.64465415 -0.41464967 0.042008847 0.28039673 -0.63465977 0.2785856 0.09000337 0.2662558 -0.16457373
2612 0.18956977 -0.14788654 0.0252561 -0.28766125 -0.610875 -0.026260354 -0.27734447 0.045032267 0.099575475 0.17229617 -0.086761884 0.28193626 0.21824624 0.40077856 0.0803964 -0.30320388 0.22694543 0.31613258 0.17465766 -0.13930017 -0.3736595 -0.27894914 -0.64239895 -0.17786646 -0.17118059 -0.21400782 0.10097086 -0.28047067 0.39129698 0.38238028 -0.22764714 -0.13515984
4704 0.30557632 -0.07152114 -0.28328374 -0.11564478 0.09124699 -0.1611031 -0.4126833 -0.067552336 0.05971635 -0.020115018 0.21310516 0.13019745 -0.71546143 0.28714523 -0.27279025 -0.62409234 -0.058039054 0.29092938 -0.12291499 -0.29762638 -0.25690863 0.33829823 0.1772882 0.23882268 0.5755913 -0.37451965 0.3329877 0.03630104 0.34330037 0.3816925 -0.16779383 -0.18573886
2753 -0.048490208 0.09828381 -0.1368295 -0.5524594 -0.46670055 0.19157104 0.18217319 0.3224206 0.31610456 -0.6851957 -0.07274928 0.019918585 -0.33994195 0.372809 0.040047213 0.31438226 0.27062058 0.03104489 0.19425309 -0.5129013 -0.6667757 -0.21653435 -0.058458854 0.2928637 -0.075913146 -0.08742859 -0.1959868 -0.0931855 0.21440044 0.22058962 0.4512782 -0.43695962
3508 -0.1674096 0.15123089 -0.13509369 -0.31419328 0.40477243 0.027227493 -0.3472339 -0.04333888 0.10497566 -0.42705685 0.19776016 0.41131294 0.023832008 0.24494104 -0.17686296 -0.37481704 0.5207241 -0.19625388 0.11743389 -0.719475 0.18844117 -0.41881087 0.004771962 0.5580226 -0.036597878 0.20592594 0.028888768 -0.2590465 -0.088033184 0.087682515 -0.36351195 -0.008133207
354 -0.6918416 0.10395762 -0.26993796 0.21747747 0.24347542 0.12188376 0.06197714 0.013928148 -0.059781365 0.041024048 -0.21912636 -0.13768722 -0.04188812 0.35323116 -0.24355009 -0.5764637 0.6674698 -0.1643183 0.35829303 -0.024815384 -0.68518 0.04334748 -0.13292578 -0.11896465 0.26288763 -0.02739119 0.07537189 -0.22257206 0.30783597 0.3381781 0.75490785 -0.03954102
387 0.10105902 0.31109798 -0.009018137 -0.06767081 0.16782956 0.02565136 -0.25767398 -0.34807026 0.2676839 -0.09027637 0.2667855 -0.03598704 -0.3676763 0.79698545 -0.24174355 -0.026921289 0.015184773 -0.17635264 -0.15484941 -0.17409405 -0.44922912 0.41600227 -0.06912106 0.2718256 0.24852657 -0.026700677 -0.19967465 -0.3295859 0.09111314 0.5839169 -0.5066357 -0.421113
4978 0.58708376 -0.028357329 -0.5817993 -0.48271027 0.022636428 0.27392966 -0.04238798 -0.032824155 -0.20866679 0.24172987 -0.31360376 0.16502915 -0.113092355 0.12864465 -0.24805568 0.03780431 0.47426042 0.18028781 0.19454741 0.1645283 0.14279915 0.054746382 -0.31378025 -0.020877639 0.13680498 -0.12596871 0.4593683 -0.41724128 0.0003142272 0.4660832 0.23249243 -0.3980323
2895 0.2449478 0.108147465 -0.2796987 0.21713603 0.27226764 -0.006416412 0.21437465 0.013351211 -0.14820626 0.079304874 -0.3684953 0.27886817 0.2786487 0.747597 -0.29439458 -0.26827297 0.08639591 0.27032545 -0.16620296 0.022800228 0.092582636 -0.1604382 0.2558542 0.1276724 -0.25578445 -0.5443296 0.08827588 -0.284709 0.11871259 -0.06086523 0.12371039 -0.60970354
4226 0.1135777 0.46221292 -0.23511079 -0.41565457 0.030196829 0.34696585 -0.10461667 0.03376626 0.019612264 -0.19901268 -0.8927888 -0.02504056 -0.16165975 0.2571844 0.17812024 0.16710062 0.5568337 0.3708401 -0.33207804 -0.11924628 -0.2950166 0.08396389 -0.6019859 0.17674501 -0.27933937 0.081227735 -0.06903944 -0.2326297 0.012802289 0.21687214 -0.06729985 0.21064998
370 0.14483507 0.0032878222 -0.0003326936 -0.36841825 0.1124117 0.16897179 -0.10151359 0.59629756 0.2527576 0.1078488 -0.27510276 0.32736993 0.102160044 0.5194145 0.46478957 -0.118088715 0.5889527 0.061623383 -0.015304694 -0.63094974 -0.053613815 0.21179965 -0.051829655 0.060507968 0.34090462 -0.28381023 -0.21980985 -0.06361437 0.14819518 0.5205351 -0.1542597 -0.18099971
3336 0.26560917 0.013002363 0.02674461 -0.19007033 0.40462384 -0.55032533 -0.1131987 -0.22695704 0.2498992 -0.029317824 0.1839255 0.07008617 -0.39011312 0.3576768 -0.15731977 -0.13392228 0.13177688 0.4534283 0.32838154 -0.024028167 0.03864052 -0.19178489 0.10409899 0.23196787 0.28745747 -0.14015575 0.564776 -0.3681538 -0.12959018 0.6046233 0.03728513 -0.34186044
3842 -0.073283695 0.12459817 -0.2857721 -0.113871485 -0.05952236 -0.12345918 -0.15096496 -0.10210617 0.2992629 0.18285349 -0.19388871 0.009825223 0.17366132 -0.049901836 -0.07332101 -0.11300475 0.6395989 0.30760217 -0.12502907 -0.39154452 -0.40867257 0.0060700616 -0.30422887 0.32889852 -0.30566883 0.030585645 -0.025453258 0.061417617 0.040674806 0.57630885 -0.4127179 -0.49284762
1777 0.06969985 0.10767119 -0.17220631 -0.1985144 -0.14428437 -0.24621725 -0.34724742 -0.0561838 0.35690334 -0.002438984 -0.17838375 0.042906776 0.18362321 0.26699874 0.21851568 0.039202444 0.20857544 0.14392464 0.0057320613 -0.39083087 -0.36323315 0.077997774 -0.6123892 0.21741895 -0.06360186 -0.23326555 -0.10836958 -0.117630586 0.42858788 0.70921725 -0.35557115 -0.28661212
3742 0.10635915 -0.35943887 -0.41545948 -0.38083714 -0.03415121 -0.21216682 -0.5265745 0.10336242 0.22466551 0.23220263 -0.17685975 -0.0911476 -0.0031166559 0.07896065 -0.2608219 -0.41516343 -0.06647587 0.21568829 -0.05026772 -0.47319463 -0.0827693 -0.22608581 -0.266286 0.13470206 -0.104613006 -0.21884486 0.44805786 0.04007468 0.15606952 0.57373106 -0.1806274 -0.4104975
4548 0.32563108 0.07583717 -0.22334279 -0.32511348 0.09748556 -0.2975105 -0.2412508 -0.30229357 -0.0661555 0.20061846 0.06312944 0.002000405 -0.4096763 0.17800196 -0.4105793 -0.17850833 -0.09307886 0.06679381 0.076516524 -0.33372998 -0.3854439 0.12072225 0.18147014 0.4844395 0.23089801 -0.28048766 0.26465696 -0.18391569 -0.2514913 0.70042115 -0.33652207 -0.28207907
241 -0.2388866 0.10573569 -0.22976823 0.3722792 -0.095032685 0.2632926 0.004471003 0.15726717 -0.64767253 0.1745191 -0.54905593 -0.30544254 -0.04559255 0.21972862 -0.4743225 -0.45247784 0.18072504 0.038198058 -0.07480405 0.035661474 -0.20348395 0.26175004 0.008734821 -0.020811828 0.20797656 -0.30815145 -0.12668246 -0.890301 0.627412 0.019593976 0.23736894 -0.15413181
2413 0.21909003 0.3151792 -0.6376887 -0.20614295 0.18449853 0.113744 0.1428422 -0.05750717 0.2996221 -0.19293812 -0.45481744 0.01648975 -0.11037463 0.17553553 0.3367588 -0.45976242 0.570423 0.23080096 0.03260868 0.37055743 0.019983869 -0.037162367 -0.4483001 0.37115502 -0.3699095 -0.20092587 -0.33264577 -0.07343205 -0.03530871 0.2705699 0.13639896 -0.40849036
233 0.23086955 0.17396632 -0.056763355 -0.28471154 0.17304677 -0.07477533 -0.13829431 0.15217052 0.07720939 0.118441425 0.33575037 -0.08654826 -0.40309894 0.37402663 -0.4631835 -0.10315623 -0.11884884 0.07858389 0.108564295 -0.34237897 -0.15569286 0.33753845 -0.023364184 0.45519847 0.4098732 -0.37151214 0.15229838 -0.03932282 0.4039001 0.54563165 -0.19798903 -0.38533276
3608 -0.28579712 0.1509829 -0.11808864 -0.27321315 0.2033828 0.21332489 -0.021850493 -0.27358443 0.24556099 0.1348032 0.16647922 -0.12884256 -0.07812331 0.20065373 -0.098231584 -0.32373506 0.54773194 -0.3469405 0.34922242 -0.50704724 -0.5914738 -0.20510058 0.24848641 0.30637687 -0.15230809 0.17192926 -0.083075516 -0.1899396 0.48221514 0.29937306 0.38639408 -0.2951501
4886 -0.033785075 0.47470096 0.31527373 -0.18715186 -0.01726373 0.10998835 0.3795953 -0.31777793 0.20824075 -0.3762908 -0.0771917 0.33555153 0.34766024 0.29977086 -0.26724562 -0.62734795 0.17853887 0.14264983 0.2177705 -0.42899722 0.5106955 -0.0003683131 0.26641393 0.44529638 0.10446514 -0.11489163 0.32700288 -0.545281 0.108322226 0.17325611 0.03511525 -0.36807355
2910 0.04145639 0.025857968 0.09426155 -0.4459739 0.04683351 0.5031085 -0.04707875 -0.17939343 -0.047362518 -0.44814897 -0.028305048 0.17479204 -0.26362923 0.51381063 0.36398393 -0.35201108 0.12566458 0.35003218 -0.0184089 -0.20593518 -0.68168867 0.2030056 -0.35282576 -0.19553624 0.37928835 -0.31497642 -0.16936776 -0.3011401 -0.11173591 0.7008793 0.2503876 -0.047945347
446 0.5194218 0.33510655 -0.25993717 -0.26764074 0.30100656 0.0846367 0.39188194 -0.39512262 -0.113962725 -0.099453226 -0.39050385 0.02354903 0.08352337 0.6673449 -0.5321199 -0.34880656 -0.45856872 0.136907 -0.035357714 -0.37099046 -0.073209755 0.34677762 0.14719172 -0.090110816 0.18454017 0.088357806 0.05829703 -0.5256947 0.02273352 0.39449435 -0.16982313 -0.3034272
700 -0.1874956 0.36096698 -0.42215225 0.1431141 0.15475464 0.10715193 0.07389658 -0.3082584 0.02427396 -0.098568864 -0.15965557 -0.0015991479 -0.064022586 -0.29139927 -0.16013573 0.062393147 0.66531295 0.21061383 0.39915502 -0.5084454 -0.135905 -0.35819763 -0.12440852 0.3366466 -0.44268116 -0.12152889 -0.22653955 -0.10616551 -0.27605575 0.77859217 -0.09126054 -0.5235813
2267 0.3291669 -0.45661464 -0.14955343 0.35405505 0.0073314984 -0.07142147 0.25219688 0.3031291 -0.34193888 0.20759334 -0.26290575 0.31907523 0.017618103 0.47281718 0.04583762 -0.4814713 0.0040761777 -0.01524756 0.13050501 -0.11623807 -0.34504798 -0.3066503 -0.11429729 0.33456433 -0.056949526 -0.11653582 0.07060061 -0.5397604 -0.45471627 0.19179747 0.06393171 -0.2343668
1221 0.21506993 -0.39502642 -0.24121141 -0.43989104 -0.08620298 -0.1426997 -0.47961566 0.10640051 0.14339152 0.046577793 -0.367975 -0.059606213 0.41902065 0.24454117 -0.21790522 -0.30371052 -0.048190612 0.33174983 -0.20541331 -0.32110772 -0.032410804 -0.6551994 -0.15079382 0.22648467 -0.3195679 0.0025954705 0.13596489 -0.18356429 0.08624357 0.45285854 -0.03617372 -0.45711368
11 0.2727607 -0.02054934 -0.65401435 -0.12839738 0.23992068 0.16428159 0.066348985 0.30702755 0.054455027 -0.05305735 -0.24439883 0.25207368 -0.33600673 -0.12717433 -0.40541232 -0.24154544 0.26120564 0.22039007 -0.05903488 0.16454163 -0.31983978 0.043780833 -0.3148221 0.31320095 -0.31415543 0.03964545 0.31193954 -0.13792641 -0.30424756 0.18465889 0.2331249 -0.49521023
2328 -0.11432178 0.29569364 0.046431188 -0.2883772 0.4350811 0.09250823 -0.39128062 0.2486942 0.18560483 0.022558045 -0.07141789 0.06778967 0.1372937 0.6960721 -0.11138317 -0.14349747 0.10191966 0.1406289 -0.14629239 -0.4173316 0.08481362 0.09979916 0.1626077 0.632261 -0.25909796 -0.49860653 0.07688157 0.18554354 0.44634628 0.14917566 0.052966405 -0.4683523
3242 0.23711245 -0.136748 -0.39174566 -0.5184303 0.18977375 -0.31215975 -0.3744468 0.3618445 -0.11763354 0.17020631 0.1345898 0.26153028 -0.5138615 0.18099813 -0.3002334 -0.31693357 -0.100757174 -0.18190226 -0.10805755 -0.22530255 -0.15478745 0.348566 0.021204 0.47587994 0.46288794 -0.29995906 0.31401202 -0.23697016 0.370567 0.26807427 -0.10148521 -0.2145998
1037 -0.0633505 0.0073962677 -0.19268185 -0.39762676 0.101461835 -0.07188252 -0.33426842 0.28756016 0.18571481 0.2464635 -0.37663352 -0.15725625 0.49114856 0.53405035 -0.23541807 -0.25586393 0.116400465 0.34083658 -0.12714104 0.017903928 -0.041060742 -0.39358014 -0.030134229 0.10426824 -0.38601255 -0.53107685 0.31747952 -4.2037063e-06 0.48685193 0.2997591 -0.024009004 -0.41461748
1274 0.2936878 0.072927736 -0.3600202 -0.12729551 -0.062480904 0.26291463 0.18903299 -0.0014482047 0.31926486 -0.2509313 0.03333873 -0.027786886 0.006262455 0.26240036 0.110078335 -0.41439196 0.29551044 0.5043882 0.1444852 -0.00839797 -0.6028461 -0.027674703 -0.54714155 0.18141605 -0.12745483 -0.15541022 -0.21483923 0.0467251 0.38880613 0.43792012 0.18746144 0.0056155156
3663 0.11237312 0.31800038 0.07336469 -0.20777772 0.07046884 0.10561268 -0.09083961 -0.35465422 0.36352962 -0.06891675 0.13370556 0.025411507 -0.19266593 0.68117356 -0.26109016 -0.025940185 0.12942544 0.0104640005 -0.044735935 -0.28924724 -0.5811239 0.33225673 -0.19517894 0.29219183 0.09712026 0.068933286 -0.2652944 -0.16607812 0.24573344 0.5251689 -0.47649756 -0.19446541
3705 0.10737052 -0.11988228 -0.19392549 -0.33742815 0.031224182 -0.19600362 -0.2095796 0.2764124 0.18652941 0.16409707 -0.272604 0.054372083 0.41504 0.5166756 -0.055976238 -0.35293812 0.13114114 0.42855835 -0.0376395 -0.09591003 -0.15731551 -0.5542164 -0.1535087 0.07389988 -0.5136914 -0.13308443 0.5629267 0.089341566 0.16625322 0.38588074 0.2659717 -0.38936475
2802 0.32616434 -0.040423416 -0.31835705 0.19438712 0.12035492 -0.019666953 -0.3427807 0.90951633 -0.31548038 -0.15321472 0.1795407 0.16176361 -0.37560546 0.48739997 -0.15652062 -0.792414 0.0061024716 -0.017229998 -0.28205252 -0.32656825 0.045648538 0.39533037 0.3405339 0.23419583 0.08790583 -0.32347596 0.06541151 0.0006802749 0.3985976 0.4119217 -0.12468955 -0.21646988
1486 0.12077732 0.2920995 -0.23634027 -0.2068793 -0.16718237 0.29503 0.03708206 -0.3094407 0.18065225 0.21675907 0.06701393 0.26656604 -0.17603068 0.42303947 -0.35734206 -0.37520716 -0.122046165 0.12614572 0.0311682 -0.5190081 0.414976 -0.05297216 0.08340336 -0.09230821 0.0073118065 -0.31964996 0.1748732 -0.6765764 -0.5552739 0.5764829 -0.1484281 -0.23153044
2638 0.23660192 -0.02949059 -0.62736773 -0.29347003 -0.19084013 0.22102581 0.15087396 0.038554415 -0.080614686 0.42891905 -0.3506347 0.16670871 -0.50835526 0.29487127 0.051692013 -0.4126746 0.051176686 0.4894532 -0.20396616 -0.16306786 0.42576534 -0.39172563 -0.14247149 0.23802334 -0.14165841 0.122756295 -0.1784472 -0.10040806 -0.20826486 0.6126515 0.2877334 -0.15529151
762 -0.043296903 0.15032417 -0.057424027 -0.11381763 0.20363179 -0.10087581 -0.23281208 -0.2923926 0.16101733 0.015715165 0.2725254 -0.03180679 -0.23050396 0.75282437 -0.3318883 -0.14773956 0.0698511 0.03191707 -0.12545253 -0.2507009 -0.50339067 0.3688524 -0.018957 0.37553447 0.1979144 -0.045211896 -0.16752304 -0.079988666 0.034626625 0.6115191 -0.54687834 -0.33656347
3543 0.18641496 0.21534464 -0.2952215 -0.26887134 0.25084448 -0.21444103 -0.4333962 -0.334302 0.13621388 0.19499886 0.003448522 0.10678017 -0.61218965 0.21258943 -0.25505134 -0.34396333 -0.12888266 -0.05888126 0.11249778 -0.382407 -0.18370622 0.15925233 0.03819458 0.2798604 0.34928665 -0.36488324 -0.045251798 -0.18098478 -0.0672789 0.49910584 -0.29407945 -0.30539674
493 0.25748178 0.4545733 -0.12161889 -0.44777623 0.028143225 0.42190763 0.23603337 -0.035240475 -0.005227018 0.2539901 0.27554864 -0.10091515 0.088421 -0.14703956 -0.5123601 -0.31954083 0.27163786 -0.018753432 0.2833443 -0.5892994 -0.1219006 -0.11921961 0.15012725 0.3831646 -0.23935577 0.38555628 -0.071071155 -0.65596265 0.13078468 0.2556257 0.32848516 -0.2719221
4714 0.353705 -0.012066578 0.38977244 0.37456465 0.09387837 0.1208902 -0.08834889 0.41880322 -0.43649712 0.024223745 -0.09985342 0.098955 -0.04062065 0.8921724 -0.50698537 -0.14401661 0.13061336 -0.1387874 -0.16788054 -0.044761278 -0.010157535 0.3420936 0.11425365 0.11538131 -0.011942641 0.0069702184 -0.2717728 -0.58807075 0.14663784 0.3307256 -0.17969061 -0.5545046
1328 0.36232966 0.29824924 -0.16094436 -0.21386403 0.050203923 -0.19189362 -0.068701304 -0.122605115 0.04263704 -0.11110178 -0.1627543 0.068608776 -0.15263696 0.42641455 -0.33605066 -0.30719894 0.2818364 0.3551178 0.5538286 0.24776545 0.051409263 -0.29690635 -0.02816633 0.05572779 0.27562273 -0.088139445 0.61504304 -0.15692462 -0.10796694 0.45002553 0.31273952 -0.23899393
480 0.0008258611 0.04043012 0.62895256 0.25710392 -0.07389472 0.019697988 0.087617755 0.4680293 -0.55803514 0.50756633 -0.3182122 0.7068321 -0.18738058 0.25510493 -0.05847012 -0.2929631 0.25646034 0.2558565 -0.08969396 0.020219076 -0.062278546 -0.2367532 0.0913006 -0.01700728 -0.2755816 -0.038020108 0.12997532 -0.6469934 0.1895291 0.09126329 -0.4352866 -0.75002736
274 -0.24474551 -0.1990357 -0.38828632 -0.08273716 -0.04765549 -0.106744654 0.04732871 0.28429285 0.7928408 0.50373113 0.11348523 0.46754527 -0.27585453 0.22825672 -0.1715924 -0.15294187 -0.04054626 0.26597768 -0.22675627 -0.2745607 -0.12622099 -0.3124158 -0.46835122 -0.17912439 0.11474391 -0.3336339 0.07965401 -0.5625685 0.41089353 0.20639738 0.3455741 -0.058860075
2646 0.15566897 0.31509268 -0.089602426 0.08448786 0.20948166 0.15777971 -0.07194095 -0.23151134 0.38090512 -0.23559864 -0.038253713 0.023439951 -0.04948855 0.68760157 -0.21864395 0.37909466 0.15762046 0.062040612 0.10552116 -0.38541424 -0.2854175 0.42267776 -0.16130006 0.123487756 0.048529737 0.15329154 -0.08077236 -0.3824845 0.34436035 0.39564836 -0.1069112 -0.6157385
3184 -0.08170725 0.16320919 -0.24419975 -0.33607352 0.32073078 -0.11304616 -0.36509693 0.105028905 0.1511934 -0.05162451 0.19385199 0.0060973554 -0.11190863 0.3688472 -0.075525545 -0.10707683 0.0047615548 0.19722725 0.016717369 -0.5436152 -0.03529461 0.32257092 0.16399783 0.7943639 0.17667197 -0.3852589 0.07828104 -0.05614855 0.37268278 0.2782203 -0.22629833 -0.3380306
1006 -0.107285455 -0.027761828 -0.28177157 -0.29055288 -0.3601264 -0.06709867 0.5185496 0.24143304 -0.024938827 -0.50522393 -0.104877904 0.34708565 -0.1646807 0.37180242 0.22644177 -0.121019565 0.5019563 0.0733036 -0.023181513 -0.45791668 -0.5160054 -0.019483475 -0.43741894 -0.08824644 0.17882234 -0.24544822 -0.467745 -0.10830285 0.13368584 0.47037122 0.3322135 -0.17608988
3118 0.25026822 -0.021884551 -0.2259566 -0.37098998 0.16485582 -0.23819439 -0.28496125 0.13918485 -0.10981374 0.054450158 0.13557051 -0.014058242 -0.4168854 0.21980621 -0.338916 -0.30037037 -0.072602235 0.15533483 -0.051246807 -0.31608477 -0.07403074 0.45922664 0.06539476 0.53365517 0.51382816 -0.31834286 0.19900267 -0.0769041 0.34281832 0.4528422 -0.23817904 -0.38649887
3055 0.26419756 0.114803754 -0.37937003 -0.39938396 0.27643454 -0.20869318 -0.20244606 0.4748373 -0.095130496 0.107551575 0.5029384 -0.02903052 -0.44106138 0.25354943 -0.30898845 -0.49121657 -0.014821748 0.22190957 -0.100583985 -0.24080415 -0.18090276 0.23061769 0.25103012 0.2080334 0.20321698 -0.37777376 0.3771845 0.008642744 0.5210741 0.40548095 -0.1452253 -0.29795042
5173 0.083824 0.06725172 -0.04200971 -0.045834173 0.044565387 -0.48736304 0.45297253 0.06986795 0.57818085 0.035173535 -0.09738277 0.12543707 -0.19590302 0.04694711 -0.20805219 -0.49456096 0.4996455 0.2653901 -0.38469082 -0.16864072 -0.6131284 -0.15989271 -0.4745065 0.018025829 0.1618759 -0.16850913 -0.102428615 0.09020563 0.4270977 0.19716248 -0.14070122 -0.24311735
5001 0.15926193 -0.26448667 -0.24722984 -0.22600974 0.016473627 -0.4854056 -0.4690057 0.007310399 0.19682084 0.17398757 -0.060078032 -0.15602736 0.31160045 0.40942684 -0.37679115 -0.2161916 0.06868458 0.12568389 0.0759574 -0.15631515 -0.2339133 -0.16363281 -0.18839417 0.42820573 0.10837614 -0.097829185 0.40044263 -0.048722662 0.17540304 0.5696911 -0.27454326 -0.42948452
170 -0.040919926 0.24018471 -0.13742071 -0.2664646 -0.03149992 -0.15980303 0.07870008 0.24989514 0.041921973 -0.13080952 0.0706594 -0.1690533 -0.124789245 0.4363601 -0.47762242 0.27548304 0.21990041 0.0507151 0.13044669 -0.033737563 -0.25745997 0.23952422 -0.27926204 0.15509473 0.2934505 -0.14481479 -0.056644563 -0.5171706 0.0721311 0.5169412 0.3024651 -0.28174368
2345 0.017291306 0.15494896 -0.21712707 -0.20353487 0.03204403 0.29216915 0.08283847 -0.07217808 0.16623381 -0.40496022 -0.28058177 0.42370617 0.20080326 0.4021399 0.40577072 -0.33091885 0.54592806 0.46360043 0.21474087 0.03194954 -0.48027328 0.11573479 -0.4565485 0.30500743 0.32507923 0.18285449 0.077979796 -0.12576255 0.16003978 0.1979778 0.34976882 -0.091703296
4198 0.42719203 -0.18398601 -0.8442754 0.45360574 -0.024928832 0.15910019 0.35009062 0.19347765 -0.5190015 0.05769654 0.025257867 -0.12974857 -0.46799457 0.5601087 0.20912693 -0.30710524 0.21559057 0.3490688 -0.033097945 -0.30605537 -0.2087498 -0.2982469 0.52229667 -0.018522818 0.20281193 -0.543611 0.2324777 -0.63255364 0.7986841 0.24182406 -0.23298962 -0.25360617
1300 0.008530982 -0.060271014 -0.23701754 -0.60755134 -0.21753758 -0.32006076 0.1431922 0.1616136 0.07081324 0.040724695 -0.4374869 0.005352874 -0.15310222 0.47415826 -0.15310764 0.07903158 0.50476986 0.22510873 0.049080145 0.0489087 -0.15292895 -0.10996049 -0.23230991 0.070364945 -0.18411648 -0.20799012 0.057102554 -0.1499245 0.4031882 0.25025564 0.5084678 -0.12075906
4692 -0.106133185 0.12579553 0.010240638 -0.16092655 -0.008332428 0.25232992 -0.014733515 0.014350031 -0.011360922 -0.5503611 -0.26876992 0.1963663 -0.019932248 0.3030809 0.12095279 -0.4401867 0.11351806 0.5218117 0.14538148 0.10861688 -0.6488157 -0.0663009 -0.49179223 -0.18573269 0.1323692 -0.51019377 0.33088335 -0.3348195 0.2976334 0.2786352 0.63118106 0.061196797
4410 -0.022606248 -0.12304974 -0.6719751 -0.4027279 -0.057132315 0.024523485 0.33646053 -0.44408828 -0.35873127 -0.30352977 -0.20723218 -0.20295684 -0.27911863 0.37337795 -0.4007041 -0.45391005 -0.15072477 0.47318706 -0.29471403 -0.46055013 0.95586115 0.015369451 -0.08144194 -0.009418422 -0.29313996 0.18273944 0.4783838 -0.7120634 0.13231461 0.4956522 -0.050800703 -0.2609849
4253 0.0015724888 -0.026151774 -0.7820343 0.7875101 -0.008407455 0.059258092 -0.0068196813 0.10805523 -0.61260337 0.08048801 -0.25609696 -0.16981891 -0.27556026 0.3962809 0.10255798 -0.5369733 0.38574192 0.61762935 -0.12154277 -0.22186318 -0.06974978 -0.46472687 0.23757705 -0.14144075 -0.021830728 -0.13340183 0.1793539 -0.6364189 0.58783513 0.40904117 -0.41496882 0.044507038
1107 0.16328968 0.30050573 -0.120724104 -0.26709667 0.63452196 0.07590189 0.050509673 0.33190846 -0.11923267 0.23870361 0.023118263 -0.016544914 0.024238838 0.60856473 -0.23029606 -0.41271263 0.001384421 0.37746 -0.46434182 -0.035264622 -0.23904784 -0.8044973 -0.25325543 -0.13936053 -0.21525224 -0.42371774 -0.36928952 -0.3913613 0.26130363 -0.10437075 -0.24414511 0.023029512
1866 0.3422533 -0.15898119 -0.8471127 0.27552512 0.22417736 -0.083217524 0.1307427 -0.24515316 -0.5476406 -0.07791938 -0.17102545 -0.08923421 -0.38195163 0.50170404 0.07914685 -0.580849 -0.02140735 0.3116138 -0.21419126 -0.36547393 0.05898866 0.12829766 0.4263039 -0.032540534 0.1369757 -0.23172313 0.2223146 -0.7634401 0.73125446 0.24493013 -0.28606802 -0.104478404
4147 -0.06555674 0.22121808 -0.25009197 -0.2053244 0.18891892 -0.10695734 -0.32157868 -0.18222646 0.37511286 0.14472419 0.04818053 0.029512016 -0.3663125 0.30473462 -0.29402778 -0.25999278 0.31120333 0.05324068 -0.24123766 -0.36580878 -0.38032067 0.22163665 0.033904016 0.38896614 0.32814467 -0.25418255 -0.04081511 0.06544635 -0.0079854475 0.520019 -0.55488086 -0.26085642
4458 -0.026544427 0.05974893 -0.20569625 -0.45231894 0.13465002 -0.00072674116 -0.58251506 0.07095399 0.33642438 0.100045234 -0.054922294 -0.06259071 0.27113643 0.517929 0.11238168 0.015758552 0.11103777 -0.16044909 -0.07225553 -0.6864473 -0.25140563 -0.041911043 -0.21181595 0.34014678 -0.023160838 -0.3177626 0.043515906 -0.0434978 0.40744683 0.33428806 -0.3360585 -0.5072497
3113 -0.08354446 0.38975734 -0.199579 -0.43715158 -0.07908593 0.106197014 -0.037282 -0.37911597 0.26685885 0.1385363 -0.03042771 0.12207453 -0.01383439 0.6200814 0.096264265 0.03392327 -0.13487537 0.037251536 -0.32907632 -0.3532229 -0.7976523 0.21682276 -0.18315281 0.30668586 0.34079808 0.027526299 0.14929257 -0.24397354 -0.12678415 0.42363477 -0.36930075 -0.49402836
4143 0.06935641 0.17124747 0.039018065 -0.08171662 0.20151153 -0.12015095 -0.3120184 -0.10750387 0.15703508 -0.14206235 0.234078 -0.106715515 -0.27034712 0.68371874 -0.32426894 -0.001097305 0.16400982 -0.023958132 -0.03196293 -0.21543711 -0.21690674 0.5294335 -0.21374853 0.23331144 0.11673876 -0.06294963 -0.13651487 -0.22176574 0.2773384 0.6044572 -0.595663 -0.47287247
602 -0.10000649 0.14605182 -0.058970977 -0.32715055 0.2054225 -0.11354885 0.05820886 0.20386872 0.30107036 -0.014159393 -0.44695616 0.03303227 -0.08788155 0.5844095 -0.15719491 -0.25862733 0.20020361 0.3740858 -0.41511235 -0.062338825 -0.21462642 -0.29830632 -0.15197764 0.1573768 -0.6110411 -0.61721873 -0.0081374245 0.20735055 0.41484645 -0.108981006 0.32941648 -0.35937127
1563 0.08122117 -0.057156082 -0.115641735 -0.2652167 0.6659169 -0.091492936 -0.24702682 -0.14110643 0.06432336 0.2975685 0.25319225 -0.42272508 -0.24374782 0.3182121 -0.08560855 -0.36298195 -0.17157443 0.9034817 0.2980672 -0.14290112 -0.083859086 -0.24024326 0.1783581 0.43640208 0.12223527 -0.07662545 0.44807106 -0.71231496 -0.14591753 0.05401787 0.027024014 -0.094350934
3577 0.47908738 0.10079119 -0.7667199 -0.32873866 0.030253083 0.35558426 -0.082071126 -0.09311131 -0.036256276 0.18437426 -0.3573279 0.13274878 -0.46681908 0.15136501 -0.19662827 -0.5121434 0.11123094 0.24267077 0.0027114092 0.063803226 0.27223265 0.004114506 -0.31101128 0.19340444 -0.425042 0.0038953966 0.032758765 -0.17697628 -0.21074535 0.23669991 0.52693737 -0.35425988
4367 0.5741716 -0.46434018 -0.2691253 0.5150529 0.006211804 -0.16090284 -0.22216484 0.18078524 -0.38500676 -0.009440537 -0.14519037 -0.006884366 -0.14813805 0.17397039 -0.07357157 -0.5772007 -0.1300104 0.16704805 0.24660084 -0.28965598 -0.41206506 -0.2157373 0.19213012 0.79573387 0.14873621 -0.07746987 -0.10001787 -0.37182683 -0.18107468 0.06965463 -0.17180076 -0.3534288
761 0.2962209 0.19234636 -0.19609761 0.022428049 -0.07278741 0.24893747 -0.26520994 0.020709349 0.33482873 0.14076935 -0.34532756 0.027693093 -0.6520441 0.362787 -0.5465066 -0.2940933 0.20507027 0.27870163 -0.39335465 -0.34438232 0.37664145 -0.15300642 -0.37424952 -0.1549463 -0.12651338 -0.28259355 0.14811404 -0.2163586 -0.17079592 0.3977851 0.57612246 0.24897227
5081 -0.030109549 0.0024420416 -0.050187923 0.33721894 -0.078163095 0.12897189 0.111939 0.34818685 -0.4403252 -0.62850034 -0.16081095 0.44675756 0.0038132367 0.34942248 0.008683444 -0.5777902 0.08778428 0.6192577 -0.077886835 -0.0068669217 -0.52717805 -0.008436596 -0.35958824 -0.19452734 0.31710616 -0.428684 0.048942115 -0.46000904 0.451123 0.1523639 0.42135134 0.11960609
4894 0.028900335 -0.116290554 -0.37840572 -0.43631324 -0.042151574 -0.077654056 -0.25588968 -0.3771988 -0.02092552 0.2572997 0.035847235 -0.1301417 -0.870847 0.30275857 -0.2930912 -0.25256327 -0.023931138 0.2779055 -0.0038977049 -0.1562372 0.14143611 0.051513053 -0.024932614 0.4773905 -0.026569603 -0.14740157 0.21165586 -0.1890003 -0.30945525 0.6274935 -0.052234586 -0.20321062
2848 0.32102412 -0.16274363 -0.12169056 0.030046836 -0.032542486 -0.3256991 0.23383161 0.43276665 -0.32292095 -0.15651326 0.097890496 0.19620071 -0.33789858 0.43982852 -0.05868266 -0.37299362 -0.021871196 0.07630581 -0.1318649 -0.1990056 -0.23406395 0.30782393 0.069848545 0.2607844 0.44819477 -0.3574471 -0.2624982 -0.22573116 0.17233638 0.5022058 -0.06881273 -0.4924706
5128 -0.10034547 -0.25024492 0.00026576218 -0.12152206 0.30679315 -0.08506037 -0.3089034 -0.060131986 0.41882443 0.13917045 -0.3691298 -0.23960209 0.52736145 0.1397658 0.16238591 -0.38795844 0.28191307 0.35362738 -0.18234615 -0.52664906 -0.1626414 -0.26180273 -0.48549303 0.5241957 -0.07870073 0.08279012 0.5481883 -0.12268994 0.04704206 0.20752701 -0.4283758 -0.47942108
1705 -0.063272215 0.36408445 -0.13354108 -0.393078 0.17221104 0.07882806 -0.32863528 -0.3159528 0.23008604 -0.12763259 -0.014864969 0.08833779 0.030137507 0.6679747 -0.04096593 0.09028778 0.043928556 -4.5742352e-05 -0.13081986 -0.29218927 -0.40458396 0.45567906 -0.058052454 0.42062333 0.2994088 0.16454902 -0.10629773 -0.3682809 0.012072118 0.57153654 -0.45961872 -0.47990605
3923 -0.28074935 -0.1339678 0.30511832 -0.4673792 -0.24497935 0.21057071 -0.061835196 0.40646183 0.15641397 -0.59160054 -0.75887525 0.029401937 -0.3409413 0.00012539724 0.22469763 -0.35554722 0.07264806 0.45021328 0.17204796 0.12542331 -0.5342734 -0.036203712 -0.06897507 0.03247541 -0.27134618 -0.51153034 0.126083 -0.7451247 0.16271141 0.39041072 0.30061105 0.2803451
3788 0.42567477 0.22474143 -0.33208418 -0.3077137 0.1385108 0.27296776 -0.35242653 0.18723029 -0.028598825 0.082776375 0.0023990085 -0.110362515 -0.15589349 0.39026713 -0.42507008 0.01875432 0.083260365 0.0723552 -0.18573752 -0.37953806 -0.32753986 0.0346924 0.42962828 -0.052600704 0.0021367348 -0.07482658 -0.014465371 -0.37049112 -0.30468225 0.64371336 -0.06577219 -0.409254
992 0.21801159 0.2106146 -0.6143376 -0.34939352 0.11761336 0.1416694 0.21619813 -0.06817732 0.1340291 -0.004725789 -0.5020056 0.07909842 -0.051653568 0.14510827 0.09326076 -0.24384819 0.65057904 0.12738822 -0.19964312 0.12472011 0.011122678 -0.1218813 -0.5962103 0.38689312 -0.15335207 -0.1157695 -0.22867419 -0.060540877 0.02769135 0.065143235 0.26626566 -0.36344662
5136 0.037691135 0.08151257 -0.27291867 -0.28910002 0.042056967 0.06474247 -0.24474294 -0.21059057 0.0417726 0.0420251 0.15567815 -0.007812357 -0.19233017 0.38926753 -0.21720186 -0.29637507 0.024449404 0.062028117 0.024860237 -0.33736023 -0.54717386 0.22349583 0.12476539 0.6152696 0.15166536 -0.34104344 0.13167642 0.03545573 -0.2542075 0.451434 -0.41701004 -0.43911138
1138 0.36045206 -0.30385476 -0.15393355 0.36547843 -0.034465916 -0.16164047 -0.43625706 -0.17290309 -0.25918666 0.10037863 -0.27067697 0.29781568 -0.69023645 0.39898348 -0.29109502 -0.70876503 -0.09671027 -0.10711727 -0.33402696 -0.23473598 0.011490058 -0.14153244 0.2672526 0.2167387 0.052115645 -0.3060309 0.115384184 -0.32689148 0.12548535 0.14696501 -0.22283575 -0.23288979
1729 0.52468276 -0.21290527 -0.15800802 -0.07832799 0.34361795 -0.22140487 -0.47256935 0.25514343 -0.19072835 -0.1044429 -0.22008531 0.13343054 -0.19441903 0.19279899 -0.06500834 -0.7191626 0.040226694 -0.14753066 -0.03808736 -0.59908116 -0.093542725 -0.35084185 0.1246048 0.07342599 0.16372986 -0.1326078 -0.6009281 -0.5487488 -0.04894595 -0.0740711 -0.38078457 -0.27644846
1370 0.13049065 0.28212467 0.2886219 0.27055064 -0.00970568 0.25308558 0.045549307 0.65060896 -0.032880276 0.21905582 -0.04434976 0.0505562 0.15032783 0.63744646 -0.39810687 -0.65991735 0.2563195 -0.06326052 0.019165263 -0.1558074 0.078282796 0.012424494 0.17784125 -0.019908022 -0.3993425 -0.24736689 0.19781226 -0.2829735 -0.08544505 0.36317077 0.21715294 -0.29523996
395 0.39922047 -0.41846392 -0.40506738 0.06760615 -0.03733072 -0.2210294 -0.061506774 -0.091936946 -0.18701273 0.41115376 -0.08324446 -0.09077924 0.41363174 0.1837822 -0.083559334 -0.18396229 -0.0998276 0.32356966 0.52104145 -0.5818408 -0.26216835 -0.29514128 -0.11377481 0.7203331 -0.20621593 -0.2930612 0.41991982 -0.06303375 -0.107979335 0.5347164 -0.20482881 -0.42894575
4825 -0.045314617 -0.36532655 -0.32594755 0.073603936 -0.09585491 0.045695815 0.16677982 0.21769264 -0.6268 0.1617056 0.040325426 0.13062583 -0.9652566 0.307111 -0.14306112 -0.24473822 0.39198595 0.53401893 -0.5658217 0.0691249 0.23696946 0.10419662 -0.2721028 0.24581128 -0.520882 0.2774916 0.17170803 -0.22383492 0.07750447 0.18382044 0.2180422 -0.6338169
3020 -0.17382553 0.06981596 -0.67755 0.29445466 -0.0947088 -0.2547814 0.15697329 0.22863878 -0.04126587 0.30322802 -0.38098615 0.09045418 -0.14094828 0.4013859 -0.49570918 -0.29394737 0.75779 0.1472719 0.16735795 -0.31460816 -0.58972996 -0.2256361 0.6281417 -0.33487928 0.33613157 0.29897386 -0.037335068 -0.6159204 0.42648038 0.20228685 0.5326636 0.4734221
164 -0.6167906 -0.065850586 -0.17003761 0.023042941 -0.13380376 0.076708056 -0.23599851 -0.10175059 0.12435532 0.1997693 -0.34321815 0.09707605 -0.3187788 0.4816769 -0.35516796 -0.5721598 0.6046352 0.0425591 0.02256361 -0.23126198 0.20648132 -0.44191274 -0.0007971931 -0.025132895 -0.0015118967 0.085528776 -0.32556066 0.31912622 0.15368894 0.56607115 0.28455552 -0.4473273
2791 0.16428517 0.08511446 -0.1522919 -0.53427845 0.09661143 -0.19686858 -0.18156922 0.36319146 0.06899902 0.09841905 0.1413119 0.04914169 -0.6842977 0.1792663 -0.21908695 -0.47293642 -0.015862253 0.30285376 -0.0066468595 -0.27424347 -0.02776541 0.37323263 -0.07578943 0.15800275 0.61609554 -0.42598435 0.18437354 -0.013681416 0.32215068 0.4634764 -0.12889001 -0.24987786
5262 0.52394015 -0.21333131 -0.030164327 -0.4588376 0.21361133 0.23097025 -0.18686499 -0.2677969 -0.30935103 0.06980626 -0.13501205 0.20802525 -0.1556764 0.3770713 -0.5591012 -0.100041114 0.5485125 -0.23181576 0.08533742 -0.16435802 -0.17059106 0.16021273 -0.2986282 -0.053666662 0.2094821 -0.5154107 0.84722847 -0.37187564 0.1039338 0.13948442 -0.39849433 -0.08136392
845 0.35886976 0.0095650805 0.12148493 0.1721262 0.36913013 -0.21408388 0.044474624 0.03474671 -0.119825676 -0.03329893 -0.47616875 0.31509116 0.10531391 0.92904025 -0.3070628 -0.4082878 -0.18027101 -0.010972301 0.031018384 0.06679997 0.20241198 -0.20088525 0.18494062 0.27920675 0.10214529 -0.4484369 0.08077829 -0.31447658 0.19217195 -0.06771986 0.010963859 -0.54244536
690 0.25762334 -0.15261297 -0.7940822 0.65233815 0.14950217 0.1246577 0.23602886 -0.08219941 -0.51657665 0.19362284 0.14516847 -0.12980679 -0.49971348 0.65580803 0.053107392 -0.35673356 0.15749861 0.1549328 -0.10165286 -0.2618582 -0.3721384 -0.5835839 0.46425936 -0.033405643 -0.13712455 -0.37090924 0.46942684 -0.5644629 0.51952374 0.43901917 -0.29828945 -0.13292803
3063 0.046811193 -0.22691059 -0.019701058 -0.16725639 -0.44315758 -0.08537795 -0.40877736 -0.011991983 0.25569907 -0.0193744 -0.19429491 0.09706417 0.51989925 0.30730975 0.1983555 -0.039524145 0.012025151 0.19829635 -0.028157718 -0.50208974 -0.48007485 -0.1749261 -0.53185624 0.5745637 -0.058885474 -0.05573738 0.06402281 -0.083105914 0.76061565 0.36724833 -0.22930257 -0.38541904
2514 0.12975636 0.26747686 -0.49422756 -0.3381816 -0.15669337 -0.26170868 0.18302584 0.043761536 0.1347035 0.1264038 -0.02419335 0.26368383 -0.011042296 0.38975877 -0.30153996 -0.2893159 -0.22729519 0.3336382 -0.2268616 -0.05651542 -0.46410382 -0.52327865 -0.50230205 -0.22611849 0.20957008 0.029386496 0.29126987 -0.33436006 0.2319817 0.13217077 0.18939365 -0.12520671
1702 0.03200317 0.21093065 -0.6598661 -0.17555512 0.26719636 0.2356443 -0.25803238 -0.20004752 0.25472775 -0.08779934 -0.1124755 0.109338164 -0.2919281 -0.025962459 -0.031246431 -0.20408848 0.48696512 0.09552779 0.2519624 -0.24093857 -0.06941064 -0.033910617 -0.16771467 0.97389084 -0.192397 -0.26793325 -0.15963832 0.17068183 -0.10151673 0.12948717 -0.03966879 -0.3151536
4210 -0.20454955 0.016939754 -0.20558214 0.52600324 0.045777112 -0.28931406 0.43797958 0.3439435 -0.42854762 0.38191217 -0.46867648 -0.0939953 -0.4878246 0.20789889 -0.16083542 -0.6971194 0.111558944 -0.382995 0.029916314 -0.32869315 -0.35469726 -0.049467243 0.14373918 0.30742738 0.5206288 0.30187505 0.21603544 -0.63311297 -0.4337791 0.47008502 0.20250054 0.08007475
1496 -0.1535323 0.17205045 -0.41577807 -0.113040395 -0.2753868 -0.09691172 0.17208275 -0.08613824 0.31124994 0.0784557 -0.4466098 0.42717296 -0.08540947 0.49176872 -0.03970931 0.16238748 0.34069452 0.48819962 -0.011890821 -0.35529023 -0.72472423 -0.051140867 -0.15690352 0.114419594 -0.099904165 0.32480136 -0.20790374 -0.10406037 0.04765249 0.3171079 0.034416422 0.1146988
3993 -0.09104778 -0.3316026 -0.36894685 -0.4369407 -0.09858045 -0.11753372 -0.088929124 -0.25472984 -0.4207379 0.222277 -0.075985506 -0.18349132 -0.8780285 0.24067268 -0.26758102 -0.36295488 0.05549911 0.51208943 0.02765 -0.14701799 0.2837178 0.08101052 -0.1676563 0.29652926 -0.22033747 0.08851806 0.45323333 -0.2870758 -0.17863873 0.40719435 0.08981765 -0.31570113
717 -0.33756974 -0.0572539 -0.4920321 -0.1080945 -0.20946962 -0.25734794 -0.10038009 0.10816848 0.59697974 0.40940705 -0.12501451 0.26384458 -0.02866869 0.44796616 -0.058908097 -0.2156457 0.012983113 0.3042737 -0.4604438 -0.12284706 -0.1596227 -0.36493987 -0.5202575 -0.0928332 -0.014535709 -0.23029807 0.24448726 -0.254 0.27443355 0.310301 0.2302527 -0.21464391
