5298 64
2949 0.009770974 0.26227522 -0.004555424 -0.035765406 -0.2964191 0.23728576 -0.15980877 0.049375575 -0.014561712 -0.23210432 0.06749231 -0.3757415 0.19723912 -0.042816743 0.12633765 0.27462095 0.44748056 -0.040917262 -0.19147511 -0.24189815 -0.06615408 0.02801472 0.038487352 0.07164742 0.089141496 0.20128264 0.25028348 -0.044228517 -0.110082924 0.25387272 0.028598502 0.26615438 0.39000058 -0.19086394 -0.16972815 -0.26701275 -0.24276699 0.3213369 -0.12214269 0.06499285 0.22920829 0.19030048 0.25146306 0.10996159 -0.0355626 -0.09690106 0.10361396 0.21176179 0.12340658 -0.09488399 -0.030368408 -0.20015621 0.11305973 -0.027200172 0.12275992 0.0365101 -0.110992834 0.066207394 0.2932444 0.08492005 0.30534595 -0.07059572 0.18187132 0.046000704
4318 0.1971068 -0.20981763 -0.2442347 0.25269642 -0.060381886 0.31767774 0.17365511 -0.029261723 0.19883755 -0.0874348 -0.041017454 -0.23614953 0.055122823 -0.3224864 0.06929369 0.1689205 0.50225323 0.038704734 -0.22290422 -0.20439638 0.077913575 -0.051678687 0.28619322 0.12872662 0.1102826 -0.26944044 0.26170364 0.3354721 -0.011929369 0.22951366 -0.05651207 0.18234017 0.06371932 -0.060091253 0.0087662125 -0.11480248 -0.1362545 0.21296768 0.18244052 0.086766556 0.09993163 0.030973066 0.11072753 -0.06733275 0.08414753 -0.15328665 -0.08671258 -0.049786862 0.011173399 0.17773484 0.0259389 -0.18995455 0.1955422 0.34091523 -0.068761624 0.36421064 -0.039818756 -0.102068245 0.2271018 -0.11461981 0.20566227 -0.10355771 0.039742358 0.09635552
2249 0.12791637 0.20305215 -0.017164703 0.17170775 -0.086580746 0.2480141 0.20798613 -0.26904914 0.00096525846 -0.032327678 0.12914385 -0.39713407 0.109442115 0.08892343 -0.07119687 -0.12521751 0.14525317 -0.38317853 -0.268209 -0.110802844 -0.059680022 0.04531349 0.43654972 0.21891265 0.4139583 0.034667872 0.5151481 0.10796556 0.17481662 -0.06046907 -0.0136760585 0.16211796 -0.00028038668 -0.21606857 0.04754121 -0.05029693 -0.12698895 -0.073803745 -0.012947455 -0.27602184 -0.033035047 -0.18893702 0.19575287 -0.019388568 0.2685634 0.0931552 0.12144991 0.022603858 0.100748844 0.054488264 -0.08526295 -0.111652926 0.039468214 -0.019325174 -0.05655578 -0.24937442 -0.063110396 0.12118424 0.31759554 0.13453631 0.12012681 -0.24541055 0.00016410318 0.0024906117
998 -0.21655947 0.15561296 -0.15347902 -0.13508329 -0.10986332 0.3300049 0.3257339 -0.13828677 -0.11651075 0.060642764 0.13196713 -0.39271632 -0.017441686 -0.068554245 0.19040182 -0.0064982097 0.17568506 0.12794875 0.0824114 -0.22488903 0.055676926 0.250192 0.34701416 -0.0132112065 0.29608685 0.05977278 0.22022311 -0.13457881 0.09681608 -0.10184537 -0.14292915 0.07062564 0.006282309 -0.05443937 0.16696121 -0.021368612 0.119435824 0.028059512 0.14012145 -0.119015984 -0.068239935 0.13734141 0.19773595 0.11540158 0.052007735 0.12002093 -0.030197436 0.27373096 -0.13832812 -0.045976594 -0.40304273 -0.12070484 -0.02358848 -0.23359574 0.09866195 0.018365718 -0.29885122 0.2057041 0.031816814 0.27813107 -0.024953634 -0.14428802 0.04668843 0.094058074
3278 0.17640944 0.013197022 -0.3099891 0.18905596 -0.009590356 0.2515551 0.10601472 -0.057164993 0.077234365 -0.13445255 -0.06697114 -0.3184325 0.1689037 -0.14230458 0.083620556 0.2405542 0.44028175 0.15170428 -0.23281987 -0.1969377 0.23641391 0.2817088 -0.0137100285 0.05086747 0.3417064 -0.21652122 0.16792904 0.21797504 0.010246894 0.25582114 -0.035504866 -0.004963771 0.14803082 -0.020828443 0.025285957 -0.10736838 -0.08962131 0.20333438 0.033867616 0.17894822 0.06860868 0.045446187 0.38399553 -0.07835867 -0.049985554 -0.09466699 -0.08475481 -0.125264 -0.12947737 0.18630552 0.055917345 0.013841816 0.22633354 0.12009665 -0.2591859 0.5939214 0.06768973 -0.09869223 0.083898835 -0.0734079 0.1447266 0.11265042 0.18958572 -0.22791392
864 0.04671244 -0.056941062 0.25048524 0.021821486 0.1429295 0.04836941 -0.16179523 0.0026459347 0.08935554 -0.014788057 0.1630187 -0.24886239 0.09081956 -0.17061728 0.35594958 -0.16123693 0.50756586 0.1254874 -0.19675441 0.01555974 -0.060139652 -0.26575333 0.19929586 0.26208186 0.37369078 -0.14409608 0.3229078 0.08070129 -0.14486404 0.37754786 0.21219404 0.02388778 0.23497836 -0.25448614 0.15058513 -0.086048774 -0.051202755 0.07712108 -0.323971 -0.16940252 0.15940797 -0.02731269 0.35436255 -0.22526753 -0.057179812 -0.0007131211 -0.031630754 0.24578726 0.10615644 -0.1807964 -0.078940034 -0.22126758 0.0135336295 -0.06286016 -0.087895885 -0.2634278 -0.35154012 0.21892568 0.044261403 0.28352463 0.024188126 -0.11861247 -0.0013622184 -0.30471292
2764 0.10188508 0.052827735 0.34486663 -0.14158736 -0.39726576 0.041117072 -0.24432582 -0.23237911 0.11641273 -0.22055244 0.17397046 -0.33669063 0.2018827 -0.033804532 0.1326579 -0.09106611 0.36255276 0.14242071 -0.29661852 0.10052028 -0.17872855 -0.0145628555 0.2498799 0.19385837 0.09735084 0.054780796 0.048337497 0.2321734 -0.028689414 0.40872684 0.18802819 0.2912193 0.2246342 -0.25473246 0.17809449 0.114870004 -0.16240047 0.12832484 -0.09293815 -0.021532241 0.20947033 -0.020322945 0.23957908 -0.039552458 -0.11261033 0.028952604 0.3938202 0.21513987 0.06425255 0.0938653 -0.057931352 -0.3405041 0.086345755 -0.17084244 -0.23306434 -0.043117363 -0.1249513 0.17565863 0.1939847 0.30855405 0.1070946 -0.01940827 -0.019807726 -0.21330921
327 0.20213844 0.05941537 0.033173386 0.20761086 -0.19034517 0.25794882 0.3047674 -0.31919906 0.024373654 -0.35384592 0.25135565 -0.09530144 -0.018056544 -0.23845597 0.363279 0.090652294 0.1907995 0.27264032 -0.077071205 0.13481395 0.27493617 0.0017073624 0.23337711 0.1440848 0.06304086 0.0026764814 -0.0028826834 0.11814686 0.123143636 -0.21188857 -0.11508267 -0.20055103 0.07130015 -0.014184576 0.31322446 -0.25292513 -0.2157434 -0.34610763 0.036445495 0.2418547 0.19514626 0.23669806 0.3872211 -0.1501313 0.0239473 0.2690756 -0.031070048 -0.13200676 0.020180589 -0.025789807 -0.13003118 -0.20529176 -0.0117776925 -0.12153107 0.11189182 0.14512704 -0.15423049 -0.06087255 0.30152994 0.22435133 0.025490476 0.2778176 -0.046211742 -0.0874504
601 -0.097571775 -0.10982919 -0.14422438 0.14257835 -0.47721064 0.60203856 -0.07972304 0.020040128 0.33771002 -0.21413459 -0.10682199 0.04976153 -0.17735791 -0.13279217 -0.16472566 -0.03512539 -0.10721922 0.1426956 -0.08312357 -0.37361354 -0.19353686 0.028688967 0.18819575 0.001646197 0.27971363 -0.18453276 0.18494762 0.4372547 0.16534331 0.31723323 0.0022660946 0.3396416 0.20958579 0.03523536 0.026360955 0.19386566 -0.34510806 0.1872686 -0.0071441447 -0.22380869 -0.1658395 -0.10024246 0.20544825 -0.1675958 -0.01007731 0.25479966 0.15532388 -0.011856911 0.08808813 -0.000249151 0.016056133 -0.19834177 0.04671298 0.11692315 0.22729407 0.28637037 -0.22538789 0.05735582 0.22497968 -0.007985986 0.13485853 0.123319805 -0.1381077 0.20662121
2980 0.27135214 0.2505426 -0.05664735 -0.033198718 -0.432761 0.16481504 0.10746962 -0.20239496 0.08709457 -0.037927788 -0.58329034 -0.20143417 -0.17226355 -0.2144093 0.24340542 0.014374682 0.17024614 0.101150595 0.06807391 -0.13622354 0.035194065 0.12515916 0.10929077 0.1049588 0.1671142 -0.3185457 0.45433107 0.051862143 -0.26954764 -0.08781694 0.20267607 0.13730748 0.3234726 -0.2610746 -0.014787246 -0.054494813 -0.07063912 0.34177712 0.05342233 -0.15017463 0.08284199 -0.23449142 0.042085126 -0.2060205 0.49601123 -0.27200225 0.2343942 0.12633538 0.011586221 0.25880015 -0.0044289343 -0.09655011 0.15341361 0.09441299 -0.18071418 -0.046460547 -0.06153713 -0.029172948 0.42102915 0.19912855 0.1720651 -0.1799543 -0.11079245 -0.26173514
3553 0.3357092 -0.23706493 0.013210057 -0.031728916 -0.24069917 0.5728144 0.017110419 -0.20366147 0.13915919 -0.16126512 0.22887614 0.43736187 0.13055691 0.37625802 0.12708868 -0.23657954 0.25720412 -0.30298668 -0.31761417 -0.20068385 -0.12294613 0.062393624 0.39448798 0.30333427 0.173128 0.12593159 0.19898646 -0.0899852 -0.32498702 0.080452986 -0.36511356 0.06054871 0.36765832 -0.030943055 0.0019463279 0.037072264 -0.22580135 0.49907878 0.010242558 -0.13459067 0.10604568 -0.2230665 0.0065998686 0.15027934 -0.058938615 0.13001029 0.45667848 -0.010290444 0.18229595 0.22656177 -0.14217184 0.0748117 0.059157044 0.113987684 0.034465175 0.1232923 -0.13277355 -0.118437745 0.44370684 0.18333411 -0.2989762 0.11351564 -0.08493992 0.10802397
3207 0.100523256 0.26251805 -0.047816683 0.12693761 0.056802005 0.4291498 0.28980023 -0.102796175 0.031580728 -0.26700044 -0.016051555 0.008770055 -0.10511826 -0.015832447 0.22755562 -0.21919417 0.20260243 -0.09529263 -0.11558831 -0.3153885 -0.28015807 0.04188552 0.37167335 0.12648144 0.20054266 0.016184678 0.28431395 0.015137878 0.10931189 0.29398808 0.16915984 0.24202456 0.13637763 -0.1260143 0.2806954 -0.033315882 -0.15662712 0.11468442 -0.05130929 -0.24497253 0.1516666 -0.10822392 0.069545254 -0.15494247 -0.19933812 -0.030684035 0.3187937 0.2391446 -0.1346883 -0.023363322 -0.102173716 -0.059501544 -0.12788466 -0.21344282 -0.35315332 -0.14351177 -0.36716536 -0.10162463 0.1323291 0.23519534 -0.048045315 -0.1930415 0.3498675 0.0069229454
4961 0.111413844 0.18616153 -0.09708042 0.10414161 -0.14743073 0.45359024 0.31442878 -0.13659039 0.02589331 -0.21674192 0.027521234 -0.04660607 0.029931767 0.09649242 0.039583996 0.049299248 0.15371272 -0.08183161 -0.20064145 -0.13402094 -0.28979978 0.02662299 0.38041398 0.15086365 0.30193934 0.045146305 0.19010827 0.01827606 -0.017301511 0.2380988 0.113068 0.26571733 0.14830661 0.08837796 0.12998505 -0.13499211 -0.08218795 0.28367886 -0.13853434 -0.30840233 0.12611443 -0.23400088 0.10757425 -0.17508577 0.024732266 -0.04380633 0.49025804 0.103380285 -0.000571912 -0.0741403 -0.16373551 -0.052072622 0.008503763 -0.1674129 -0.3335 -0.25022188 -0.39182374 -0.06326558 0.22279458 0.120899186 -0.008431155 -0.3446363 0.15172508 0.0964723
3921 -0.21609695 0.17327756 0.024338968 0.21026675 -0.063856244 0.17887926 0.33924332 -0.277771 -0.027609915 -0.027755624 -0.08103903 -0.063620314 0.010030949 0.16939102 0.12847587 -0.16513269 0.12128894 0.040394478 -0.082848616 -0.33962703 0.066081375 0.014305024 0.24198945 0.1988451 0.28142545 -0.11447584 0.35435203 0.13379857 -0.14594491 0.22165029 -0.18520394 -0.062303614 0.10153358 -0.23977381 0.0031352444 -0.14921854 -0.093707666 0.44361043 0.053770192 -0.11685031 0.107561566 -0.108106166 0.0321878 -0.4366027 -0.15890633 -0.0962995 0.545161 -0.2668952 0.20111145 0.017306646 0.021738358 -0.057259377 0.17431459 0.013896117 -0.13943402 -0.37705663 -0.2689484 0.24692875 0.19720477 0.4892949 -0.12091373 0.01328537 0.37303326 -0.10231626
2649 -0.08366639 0.26704967 -0.0828489 0.026535219 -0.25143743 0.4909754 0.12936857 0.07220803 0.22373445 -0.1890083 -0.06001719 -0.24990126 0.040518094 -0.06217452 -0.023079844 0.17020503 -0.09764982 -0.104118384 -0.43524122 -0.27854362 0.11808928 -0.49192995 -0.04412828 -0.15149125 0.5107541 -0.20550916 0.24696891 0.22088686 0.053091165 -0.10980207 -0.26893288 0.29724398 0.35622555 -0.06280233 0.049012184 0.12778735 0.014564103 0.049876206 0.062771104 -0.14813353 -0.052414022 -0.27501303 -0.00145255 0.039963804 0.04064143 0.10514803 0.10420048 -0.06848116 0.039849784 0.24203272 -0.18679789 -0.18492071 0.12527336 0.053232487 0.23785727 0.3573483 -0.16056967 -0.26514184 0.028573284 0.15540701 0.13655567 -0.13952251 0.059507787 -0.02569024
8 -0.023793513 0.32384172 0.011217103 -0.10431634 -0.011642209 0.11605013 -0.03163989 -0.25959483 0.02198038 -0.30195537 0.0914284 -0.36975208 0.25490174 -0.020876763 0.12793228 0.022613464 0.4198061 -0.12101415 -0.26915193 0.1483508 0.14098607 -0.049379732 0.13116853 0.19693561 0.4149326 0.354196 0.24344511 0.061204217 0.17839421 0.069410145 0.011174411 0.24565846 0.18576193 -0.18331389 -0.10137134 -0.12573919 0.012102745 -0.2826112 -0.1014343 0.005797281 0.23814097 -0.07620966 0.20266846 0.07674158 0.11212314 0.12779647 0.20213234 -0.030249055 0.08603457 -0.20824502 -0.026141068 -0.045721084 -0.006160894 0.054111347 0.1536964 -0.111746624 -0.16117416 0.30985162 0.34229246 0.21625493 -0.016930895 -0.02479285 0.18369797 -0.21808147
2060 -0.026004301 -0.12309957 0.33393392 -0.17851843 0.0064248005 0.07428667 -0.31861216 -0.16856289 0.10326379 -0.22109474 0.13033268 -0.1124377 0.37219715 -0.20073745 -0.040110055 -0.19816646 0.39967653 0.14772618 -0.46818817 0.3637206 0.0735251 -0.3600256 0.38767335 0.006679546 0.19855334 0.058565218 0.2115532 0.07779331 -0.04426297 -0.047607087 0.3662608 0.16753034 0.43630722 -0.21641031 -0.19621149 0.0069074337 -0.13925643 0.08807183 -0.30454928 -0.2128644 0.17550619 -0.045831636 0.04274271 -0.059550963 0.007853304 -0.15739182 0.16008788 0.25122717 0.21589637 -0.037909783 -0.2178657 -0.18742715 0.31764638 0.04564408 -0.12464179 0.11414942 -0.24018553 0.37119672 0.31053886 0.012736314 0.219693 0.032941658 0.05847093 -0.31312922
1016 -0.36857107 0.014295813 -0.2357076 0.1508353 -0.30548182 0.21814388 0.12101865 0.015759809 0.30837214 -0.29040423 0.22079983 -0.4070687 -0.095374554 0.13448876 0.065193295 0.068870455 0.21575378 0.46211484 -0.37854302 0.12777254 -0.26412687 0.00083958934 0.17321569 -0.14888042 0.058635797 -0.4264315 0.3305923 0.24980552 -0.21515876 0.26465747 -0.096835576 -0.12386751 0.085742734 0.20304501 0.1726748 -0.4098626 0.31736133 -0.12562774 0.17578706 -0.25130543 0.31467685 0.29374844 0.13225095 -0.26289523 0.15674639 0.12979539 -0.019769348 0.25022742 0.089007735 0.08238141 -0.36525437 0.15680547 -0.09387732 0.1639382 -0.011372956 -0.07382096 0.016968902 0.37490496 -0.011349917 -0.3627453 -0.19624431 -0.021739895 -0.017825227 -0.14622028
4965 -0.13534364 0.4278065 -0.15151465 0.065989204 -0.030687042 0.5081947 -0.13615142 0.094607025 0.013927463 -0.15272346 -0.25059035 -0.4260553 0.21375637 0.18619917 0.19110359 0.16819473 0.25250626 -0.06748982 -0.07454524 -0.102358386 -0.3986239 0.1406181 0.20842248 0.15295354 0.2464239 0.059743106 0.40029037 0.15058528 -0.14259386 0.22744654 -0.011115752 0.03737165 0.21382703 -0.12976007 0.096380405 -0.24759936 -0.19798109 0.4998399 0.059636936 -0.15184473 -0.11695381 0.022661142 0.19448942 0.12923247 0.017749103 -0.09317866 0.16083503 0.07243303 -0.03253931 -0.066268586 0.3216682 -0.21059783 0.17221293 -0.13687488 -0.08306058 0.14869294 -0.04135384 0.13614425 0.39705658 -0.1307366 0.40820897 0.04011503 -0.0020491383 0.11870612
503 0.23881604 -0.02568308 -0.32491258 -0.08056338 -0.33422324 0.5658799 -0.15047659 0.09650184 0.12602888 -0.15357621 0.09100067 -0.27321568 -0.13903567 0.13640141 0.10208949 -0.06037393 0.18357618 -0.21448456 -0.15316667 -0.16336405 -0.17472214 -0.042344328 0.4913778 0.2052136 0.09578137 0.17787954 0.18246107 0.13977213 0.11466538 -0.070852645 -0.063113086 0.11132218 0.051801357 -0.029280335 -0.18722989 -0.23163222 -0.3151335 0.2034589 0.06222538 -0.16577382 0.11337147 -0.21313813 0.121263415 -0.0021564895 0.0029875312 -0.12670167 0.31318548 0.18190597 0.16246592 0.27437526 -0.12963413 -0.32244164 -0.08326568 0.025968777 -0.2860707 -0.23413897 -0.1857154 -0.23579116 0.28309673 0.11916955 0.16013607 -0.22589982 0.127282 0.19162932
4023 -0.033814695 0.026991948 -0.011042665 -0.2750373 -0.058404468 0.40354306 -0.035455365 -0.46680668 -0.031352457 0.04930666 -0.39609495 -0.011871016 0.3084625 0.09392076 0.21259438 -0.16145633 -0.07269345 0.066635564 0.0034354965 0.09394151 0.34059164 0.23660016 0.025578363 0.20352049 0.43698934 -0.19091575 0.019335583 0.2097741 -0.06520845 -0.046726674 -0.022539586 0.18595713 0.54316866 -0.21667704 -0.13922921 -0.16827072 0.18308873 0.25047725 0.044328306 -0.12729342 0.2867488 -0.0033106208 0.05465175 0.046490144 -0.11101252 0.40453142 0.007384278 -0.002634948 0.12973087 0.44045445 -0.01379908 0.15083894 -0.19780374 -0.2214864 -0.14277199 0.11858662 0.044400066 -0.072776 0.34384963 0.1579901 -0.22572221 -0.22876257 -0.28330353 -0.32720906
3510 -0.08565902 -0.040101238 -0.15585174 0.101479694 -0.3818178 0.39966217 -0.06097298 -0.056152258 0.20263234 0.055423353 -0.2530594 -0.588582 0.08329269 0.14699724 0.24223618 0.15611495 0.2819512 0.25539926 -0.016465526 0.09387557 0.111513875 -0.010074301 -0.11620072 0.08890298 0.27848914 -0.14693983 0.2101248 0.12579368 -0.13348469 0.057696927 0.010444742 0.021471893 0.26764327 -0.38676107 0.14987838 0.0012239246 -0.29528588 -0.15236686 0.40570065 -0.18982089 0.23418328 -0.021719106 -0.23651068 -0.15732686 -0.12580667 -0.091625966 0.23399377 0.29497352 0.15315884 -0.044488583 -0.09256559 0.024425313 0.071368106 0.31728658 -0.271992 0.4128452 0.16107263 0.24183433 0.03767691 0.11076705 0.13103673 -0.20165299 0.048726697 -0.083323784
2337 -0.28981486 0.03152247 -0.24917927 0.1035591 -0.26067472 0.30843276 0.24718495 0.034384847 0.10399173 -0.33333606 0.1332468 -0.17055757 0.07017516 0.3226732 0.22922276 -0.061254688 0.14608413 0.30641088 -0.22084607 0.159232 -0.020088406 0.04343742 -0.03924142 0.0035532631 0.05810464 -0.27735946 0.25481817 0.20776111 -0.21695559 0.15067099 -0.2545921 -0.08320932 0.32753503 0.18302026 -0.004919947 -0.4111321 0.34750056 -0.4063694 0.033330742 -0.20571469 0.37623787 0.27426255 0.20408551 -0.09842976 -0.06385271 0.1223922 0.058069736 0.11519254 0.033574164 0.32424763 -0.43366188 0.12767956 0.01895144 0.11284255 0.15482275 0.061755493 -0.17389733 0.38909122 -0.07462997 -0.3038849 -0.15956491 -0.13683215 0.07653876 -0.2476146
3638 0.20809026 -0.05732566 -0.20262812 0.07559197 -0.18103157 -0.023527585 -0.0071352106 0.2573111 0.24375919 -0.03691534 -0.1468106 -0.1839153 -0.008250258 -0.62301224 0.2983673 0.19521402 0.22733648 0.13801305 -0.24035946 -0.36914584 0.1948389 0.08491986 0.2033956 0.10956152 0.1433519 -0.18415274 0.29876348 0.067441255 0.06813612 0.076960616 -0.32122105 0.050884698 0.31793955 -0.09736608 -0.22992244 -0.037357558 -0.22322166 0.12853886 0.24886668 -0.24494238 0.27825254 0.086428046 0.22299509 -0.19744883 -0.25604123 0.10290299 0.023356488 0.019032035 -0.07733932 0.12899344 -0.108543545 -0.37239635 0.28094047 0.19270597 -0.046687663 0.38196135 -0.18794926 -0.22776309 0.06823461 -0.07427127 -0.028356828 0.11596666 -0.17311941 -0.09557746
2034 0.11308413 -4.1334268e-05 -0.22549962 -0.00086860167 0.19506414 0.26784927 -0.09032237 0.032843232 0.1663787 0.28579226 0.12262685 -0.42267644 -0.23856622 -0.007314326 -0.01653523 -0.073011965 0.4005633 0.25447083 -0.09736892 -0.19299895 0.033552077 -0.24176049 0.40135273 0.24836624 0.008135545 -0.15374343 0.12714835 0.40794587 0.06384115 -0.4339924 -0.055710405 -0.12368133 0.12363532 -0.20650502 0.16555108 -0.13998373 0.26662934 0.16571173 -0.07198116 0.012271517 0.44759467 -0.14038403 0.29258022 -0.36667672 0.19094202 0.06409474 -0.024418555 0.297764 0.09088255 0.026635716 -0.02007339 -0.17004699 0.1970935 0.030513056 -0.17892706 -0.3154042 -0.08116874 0.18318531 0.33101922 0.399522 -0.065488435 -0.21614484 0.019482296 -0.16271468
3328 0.06619168 0.22999412 -0.21032628 0.2603737 -0.04714204 0.2185268 0.28894275 -0.45865506 0.12008882 -0.14455874 0.21860087 -0.69724065 0.21572651 0.0077966573 -0.07536997 -0.07558432 0.55160534 -0.13734572 -0.20425773 -0.10461985 0.08468861 0.13991815 0.32041985 0.20336254 0.08968407 0.06577264 0.03683547 0.30271265 0.11810722 0.2172415 0.18024458 -0.08630863 0.032779574 -0.098579116 0.26958886 -0.048210837 -0.20094612 0.22965488 0.115576714 -0.0635814 0.015802808 -0.19279411 0.27061272 0.2470757 0.046243366 0.17388868 0.075740784 -0.08485333 -0.1671138 0.20007853 -0.09463019 -0.06251775 0.20352189 0.068157 -0.09927808 0.15014175 -0.07514669 -0.14741008 -0.054007456 0.0638543 0.3060414 -0.2177338 0.06378547 -0.22515881
4590 0.1788543 -0.052190043 0.09527802 -0.087870434 -0.13418356 0.23585324 -0.036984604 -0.45978847 0.018915277 -0.0009970343 0.097439855 -0.0016331498 0.49967006 0.26575455 0.22332622 -0.1811555 0.34200785 -0.023158522 0.053097244 -0.3399561 0.080504574 0.3225797 0.32867223 -0.058950465 -0.062837966 -0.6199687 0.20047858 0.13276343 0.4649444 -0.14847276 -0.1760274 -0.26186445 0.22671475 -0.3291442 -0.32206365 -0.3539119 -0.24172615 0.41098902 0.22389674 -0.06547299 0.19378155 -0.29663488 0.13071983 -0.33449036 -0.09980285 0.06637849 0.062178392 -0.0542331 0.49277622 0.34960648 -0.015246476 -0.105177 0.20904407 0.02151479 0.028173406 -0.25461575 -0.14372176 0.008484464 0.24164636 0.16071841 -0.33814532 0.010459991 -0.23181571 -0.054244727
4288 0.3262831 0.054884907 -0.038661532 0.042885743 -0.19109595 0.3410306 -0.31610787 0.065240465 -0.037525453 0.14632793 0.020890532 -0.24910936 -0.018647201 -0.3260373 0.442378 0.2855904 0.22033484 0.16377833 -0.22559682 -0.052759483 0.3825268 0.10297397 0.10133128 0.15587294 0.2467236 0.11979236 0.1051063 0.23035403 -0.12966251 0.053982984 0.092326716 0.14416176 0.4482464 0.14322029 -0.20103878 -0.19536135 -0.051146444 -0.11484243 -0.062417116 0.20345652 -0.017161587 0.19165134 0.48405725 -0.048248414 0.09270138 -0.19019449 0.03237417 -0.103572614 0.057539288 0.038987175 -0.06839896 -0.2772751 0.1009204 0.12983772 -0.12921923 0.28114867 -0.25125647 0.057076912 0.12904848 0.05511808 -0.035125975 0.33297816 -0.023661105 -0.033392448
4951 0.19990695 0.03145707 0.072971016 0.26478705 -0.38273427 0.11368463 0.20255613 -0.2669849 -0.18944517 -0.26914972 0.13738382 -0.1287979 0.13324183 -0.18118195 0.33618513 0.00081639003 0.015886644 -0.042820927 -0.19187067 0.28842202 0.09602736 0.10455798 0.28702748 0.13083 0.35837588 0.052401748 0.1891745 0.0702657 0.061061166 -0.2525747 -0.063311666 -0.10015496 0.056210097 -0.19858181 0.26713362 -0.36259884 -0.21251011 -0.41585302 0.12439781 0.09084557 -0.01012799 0.023221262 0.4974546 -0.04480175 0.111454 0.21478288 0.15416528 -0.30858952 -0.029670546 -0.0042449934 -0.012504275 -0.18068004 -0.16468091 0.04560275 0.1209676 -0.062152736 -0.07220118 0.25680804 0.36145732 0.3420407 -0.113387235 0.18167853 0.0082565155 -0.01726941
4471 -0.003119448 0.19560488 0.22468853 -0.06704842 0.06299336 0.14708327 -0.09195612 0.0069130124 0.049182884 -0.025819225 0.0994314 -0.37867713 0.069865376 -0.17856672 0.07896225 -0.084837414 0.27313286 -0.26124737 -0.36470675 0.06495697 0.103724174 0.1122365 0.5184962 -0.11498599 0.20537907 0.33319855 0.43211725 0.001690643 0.30914015 0.017255485 0.1343904 0.047328345 0.07861543 0.03405978 0.2576839 -0.4135312 -0.16488889 0.056131147 -0.061556913 -0.006205476 0.08090352 -0.39856288 0.28080875 -0.09844787 -0.09926365 0.24045305 0.15473716 0.07775793 0.40827736 0.06610061 -0.10603821 -0.0856329 0.17423746 0.27403772 -0.0633187 0.16610846 0.10318461 0.30275506 0.22338296 0.07496704 0.15473929 -0.16080044 0.1452135 0.20064427
5050 -0.31177253 -0.083359346 -0.25220817 -0.22847807 -0.14874707 0.3743663 0.2758843 0.021098996 -0.030167181 -0.2744381 -0.014666345 -0.13782047 -0.05731952 0.094443075 -0.09792061 0.018022837 -0.0963032 0.2925757 -0.32582206 0.08817695 0.13859722 0.1072767 0.23456374 -0.090557314 0.1293189 -0.50733393 0.3920383 -0.070399374 -0.094757654 -0.029436402 -0.090089016 0.09440323 0.3717137 0.10351089 -0.008503093 0.1186154 0.31509548 -0.0037674261 0.20053636 6.163859e-05 0.3450613 0.13940671 0.109485425 -0.39413527 0.18107161 0.19373077 0.2070995 0.3887963 -0.11142639 0.25064254 -0.23696089 -0.18408711 -0.08659865 0.037650507 0.45606944 0.3203568 -0.018145243 0.18729477 0.08444857 -0.3049284 -0.12904637 0.20690647 0.13663031 -0.422572
3834 0.13872494 0.16233318 -0.025205808 -0.0012692855 -0.37220165 0.27100298 0.040148485 0.1093017 0.19563477 -0.101845615 -0.19432218 -0.54852915 0.072307274 0.05360331 0.06668211 0.13573594 0.37093422 -0.24230084 -0.2964749 0.040981658 0.09541796 -0.010453657 0.04260793 -0.03731825 0.2731435 -0.21630034 0.22084267 0.08988475 -0.10948685 -0.003106646 -0.19324577 -0.10125348 0.27380553 0.058900375 -0.10239994 -0.06485221 -0.08108242 -0.22705463 0.15376684 -0.14848544 0.3271958 -0.045060895 0.30477947 0.09715575 0.112837896 -0.17507418 0.3087544 0.007090403 -0.046315886 -0.014110748 -0.26041833 0.028624957 0.046635985 0.18269932 -0.112656035 0.20556922 -0.06594158 -0.13182387 0.11195907 0.047106102 0.019500433 -0.3239708 0.18961386 0.0025461544
4113 -0.34738505 -0.049152184 -0.1271215 0.02055905 0.04902174 0.18792759 0.26370922 0.0059981435 0.09172496 0.15004987 -0.14517564 0.04883118 0.009290451 -0.061850972 0.13240927 0.07588183 0.18967682 -0.094619244 -0.0938147 -0.44755605 -0.1732875 -0.10747386 0.24794537 0.02908677 0.5588793 -0.33506298 0.2342451 0.32475367 0.11345646 0.30061075 0.022949632 0.070869476 0.19873297 -0.08032653 0.3272429 -0.19360822 -0.036373362 0.17864509 -0.19128092 -0.32883185 0.19244193 0.008104819 0.16983998 -0.16666941 -0.0182947 0.1395923 -0.06147236 0.052485406 0.1241755 -0.18099798 -0.065558955 -0.023000585 0.014490315 -0.09669058 -0.18033807 -0.11797639 -0.14271893 0.22930579 0.18486169 0.44469643 0.12625602 -0.12011284 -0.015044943 -0.30804724
3018 -0.41230285 0.15526874 0.06979205 0.12210426 -0.23762782 0.16997983 -0.23620915 -0.42113528 0.09400573 0.22007513 0.09468297 -0.17462629 0.14019763 0.028105939 -0.36667857 -0.024117813 0.22116278 0.11272843 -0.38150945 -0.15238167 0.3187175 -0.1991376 0.21191971 0.3321603 -0.08680287 -0.23287302 0.5823725 0.39523846 -0.10534981 0.35117278 0.28151718 -0.3372519 -0.011990225 -0.13844112 -0.12350075 -0.20659824 0.07571089 0.039194364 0.14902513 -0.0672538 0.08603531 -0.29434013 -0.10334886 0.15405846 -0.11115334 0.2737109 -0.031445663 0.43160188 -0.27778956 -0.026869526 -0.15138336 -0.15432753 0.121731386 0.15387003 -0.4460527 0.11369405 -0.07998223 0.09698507 0.26099843 0.21954241 -0.18979901 0.25095066 -0.6836096 -0.13387443
16 -0.051054534 0.06969236 0.024593659 -0.062382136 -0.32840422 0.40473133 0.023212584 -0.027157575 -0.022328943 -0.0630063 -0.09348669 -0.6869067 0.11237397 0.0339091 0.034870975 0.050271656 0.3191042 -0.12756994 -0.26109597 0.12278773 -0.08608206 0.29535416 0.33312696 0.16806751 0.21453063 -0.013337663 0.11760236 0.11635223 0.13746431 0.12123267 0.19458038 0.04957226 0.09560897 -0.26006567 0.53126615 -0.05553413 -0.30548856 0.38029838 0.08054381 -0.1427372 0.16838925 0.05548009 -0.34345892 0.23367465 -0.22956483 0.1378842 0.17118622 0.2019756 0.124637105 0.032940283 -0.039330076 -0.036378507 0.1648251 -0.06681364 -0.034064017 0.02332896 0.002125455 0.1213761 0.26500335 0.268141 -0.054751422 -0.34908977 0.19538017 -0.04537737
2642 -0.010884982 0.04865085 -0.16269481 0.22786538 -0.39993665 0.4675473 0.18824553 0.29002312 0.14026189 -0.15535761 0.07471442 -0.31684944 0.13902424 -0.017139064 0.11466371 -0.047947306 0.30458927 0.3184982 0.059409063 -0.4877178 -0.004922675 0.22096793 0.22122826 0.12800856 0.03300288 -0.1654264 0.12465254 0.11375242 -0.14855877 0.20501831 0.038227297 0.26825535 0.32758105 0.11570733 -0.068886854 -0.025590675 -0.21741433 0.13485071 0.100844316 0.16026874 0.17860946 0.10559006 0.10522203 0.074975915 -0.020887889 -0.10789784 -0.180813 0.07527981 -0.03533524 0.15195477 0.10872791 0.0045012613 0.24878007 0.22658327 0.001499845 0.2451728 -0.23379968 0.01185346 0.34997714 0.1603416 0.3542351 0.112297505 0.19156836 0.19935994
895 0.24726552 0.090692975 0.4572475 -0.44724098 -0.25983748 0.04605243 -0.30685976 -0.58991534 -0.12522572 -0.2041469 -0.03241988 -0.012493528 0.26835963 -0.11638203 0.5442221 -0.15623556 0.27335152 0.274551 -0.28621593 0.124080315 0.21688858 0.03372857 0.14168349 -0.08026383 0.30513212 -0.15355167 -0.2167915 0.08002372 0.04408107 0.16889668 0.29407597 0.33777854 0.58949006 -0.40368038 -0.11518469 -0.34268627 0.13302742 -0.0126935 -0.072507106 0.085242644 0.040939514 0.22691436 0.49838895 -0.0015261972 -0.20076999 0.1186684 -0.050098263 -0.18411186 0.5192093 0.17573808 -0.2512989 -0.16958164 -0.22756766 -0.19332825 -0.16697796 0.12831113 -0.28536695 0.034786087 0.20469248 0.024809008 0.009334982 -0.041359276 -0.4585924 -0.3140806
4696 -0.25565886 -0.20774017 -0.27136073 -0.116543576 -0.5186224 0.6006783 -0.11378666 0.06351 0.068067975 -0.1286308 0.111260965 -0.3699125 -0.55383945 0.48828518 0.062071383 -0.39834407 0.17958742 0.372288 -0.17187233 -0.06366849 -0.35852924 0.08741993 0.40850246 -0.032318793 0.124731295 -0.05334889 0.2554099 0.17325817 0.14009567 0.26580402 -0.14650632 0.1782065 0.07034877 0.0556689 -0.038274623 -0.02550629 -0.56309146 0.17960936 -0.032268275 0.017345607 0.45101908 -0.10407923 -0.124073915 -0.0474105 -0.12177799 0.20305607 0.07023613 0.23505601 -0.08877193 -0.0397238 0.06584327 -0.0026034191 -0.17510867 0.03997643 -0.043819625 0.34726658 0.058204908 0.045487862 0.22082639 -0.11063747 -0.020617729 0.101562336 -0.11673008 0.03559003
3626 -0.056346122 0.018557604 0.07525349 -0.17569315 -0.22991212 0.4015598 0.034337666 -0.6314633 0.08769682 -0.1708914 -0.2779596 -0.077795364 0.19555533 -0.29039994 0.2358356 -0.2782351 -0.025716722 0.13452096 0.20178169 0.25538594 0.6505732 0.23162211 0.34802648 -0.10497443 0.38683814 0.015658278 -0.19488059 -0.17286599 0.05881723 -0.22983585 -0.1941476 0.11066711 0.25244793 0.15985952 -0.05926215 -0.2660777 0.015396458 0.2848048 -0.04253359 0.014361467 0.11749501 0.026091825 0.16824429 -0.15536466 -0.20511037 0.1515389 -0.17339344 -0.18676996 -0.01292886 0.08188532 -0.31514072 -0.10626744 -0.41576162 -0.25297192 -0.15447257 -0.010660671 -0.36589986 -0.14045127 0.20287013 0.37297663 -0.2980445 -0.1677697 -0.25823027 0.13187888
1843 -0.052670937 -0.18870012 -0.10417744 0.30200234 -0.2350019 0.54345685 0.009647971 -0.021132175 0.39228338 -0.022258924 -0.19669332 -0.06647114 0.04477431 -0.29445523 0.1782472 -0.029121147 0.0963304 0.015047908 -0.36838028 -0.22030371 -0.15672827 0.18028069 0.00844995 -0.1264776 -0.10871158 -0.03687928 0.41661453 0.3169957 -0.2287602 0.1021654 -0.15176444 0.16659468 0.15641604 0.29838184 -0.12689152 -0.04595549 -0.34235233 0.254013 0.23317593 0.24618255 0.25514346 0.1789127 -0.03322925 -0.031077636 -0.095554255 0.09086087 -0.15867835 -0.00046149944 0.086363606 0.2859381 0.11217955 -0.34128922 -0.25894526 0.23263502 0.1549687 0.3572227 -0.21715455 -0.09637794 0.39311415 0.072008796 0.13780077 0.1702324 -0.30061322 -0.02278103
1583 -0.06650589 0.10694211 0.1411276 -0.08266125 -0.11119967 0.5637547 -0.053138133 0.36928734 0.24084891 0.08865368 -0.037351053 0.06427446 0.030297607 -0.5444714 0.18555458 -0.04358775 0.45172524 0.11792057 -0.10020959 -0.1612123 0.058719788 0.11312498 0.25013563 0.33584848 0.013530773 -0.075570874 0.0945983 0.31300625 -0.1246771 0.0074207424 -0.2610555 -0.12567948 0.35447878 -0.035410747 -0.47072324 -0.25748947 0.20399636 -0.035267923 0.09741164 0.2729533 -0.09370557 0.15427844 -0.01000374 -0.1677919 0.054895718 0.11557229 0.16392615 -0.12096998 -0.019415528 -0.13988438 -0.16823857 -0.09112306 0.031872228 0.038728148 0.04326756 0.32351607 0.0673762 -0.42189637 0.41308498 -0.005651005 0.074546546 -0.117847644 0.85024434 0.07530836
5147 0.009160423 0.044990465 -0.3038676 0.21819596 -0.41122353 0.284991 0.09902999 0.002420467 0.58213353 0.4078614 0.09876167 -0.020368481 0.21659566 0.57435495 0.13531423 -0.04961164 0.5884637 0.17405482 -0.2729945 0.2729909 -0.10530034 0.1769393 0.29082587 0.060250938 0.18827312 -0.22422779 0.1910677 0.23537716 0.054556217 -0.051463846 -0.44692415 -0.33611244 0.24349473 0.2562419 -0.27263945 -0.1622424 0.08662084 0.05608807 -0.40066126 -0.17852715 0.21723063 0.13963349 0.26940498 -0.1595666 -0.14937223 -0.0983041 0.253205 0.009597959 -0.07802217 -0.15724285 -0.29520613 -0.026721865 -0.09049703 -0.15634635 -0.1565892 -0.13822827 -0.28686583 0.08305993 0.03985018 0.2493669 0.02491089 -0.36200297 -0.08754158 0.18817212
2699 -0.21697307 0.22742951 -0.19929937 -0.16724256 0.16444854 0.10343272 0.28354275 -0.16161081 -0.096451044 -0.046905022 -0.21392076 -0.20087977 0.3819353 0.018882677 0.18438277 -0.16861846 -0.034617845 -0.10666211 -0.26478288 -0.0057035107 0.002336951 0.2771074 0.20932695 -0.022170706 0.1318873 -0.08006685 -0.033599224 -0.037538134 0.24359141 -0.08435467 -0.23077744 0.24455856 0.04020138 -0.13138582 0.060429934 -0.18160088 0.31026644 -0.02238776 0.104574524 0.056578632 0.22749634 -0.15756123 0.1500838 0.05328602 -0.21264179 0.34892017 0.5306331 0.36747426 0.28539637 0.30295232 -0.23846495 -0.114407785 0.01216137 0.18181235 -0.11124222 0.17418215 -0.4202794 0.28768757 0.30453244 0.26875702 -0.54123557 -0.09276029 0.0882448 -0.1772672
1954 0.11458164 -0.05628635 0.048794042 0.221218 0.042423308 0.3328193 -0.036740568 -0.023537034 -0.03567399 0.11766682 -0.38566718 -0.10264304 -0.25339505 -0.5752565 0.45526075 -0.016396454 0.35975218 0.1459029 -0.080620356 -0.27760285 -0.08588946 -0.03490838 0.17600125 0.1861742 0.0036209286 -0.041750677 -0.07849613 0.07975493 0.22472371 -0.27543873 -0.2828388 -0.22220694 0.5804531 -0.23712708 0.22977635 0.11655825 -0.13870603 -0.057535257 0.081775256 -0.09111762 0.18015426 -0.16628048 -0.17432396 -0.11429275 -0.32771248 0.09797758 0.23183168 0.046000164 0.18423316 0.1109895 -0.36712205 -0.11463699 0.08133976 0.30249324 0.22582695 0.64811444 -0.18016846 -0.15135284 0.2961466 -0.034541253 0.050722107 0.07783112 0.21654722 -0.17152546
3344 0.09319913 0.38000536 -0.019693272 -0.041035812 0.0853818 0.2872551 0.07211231 -0.31172594 -0.09787646 -0.09069413 0.2015887 -0.38249108 0.14577156 0.017221363 0.008262994 -0.24670471 0.293239 -0.51033235 -0.24829276 0.13250835 0.14636366 0.16557622 0.3045398 0.14896183 0.31174213 0.029947327 0.2038428 -0.07354008 0.4149898 -0.105199434 0.022472965 0.0543084 -0.001476079 0.028318034 0.14530838 -0.17868008 -0.24860388 -0.17700265 0.1642675 -0.0061531877 0.005711514 -0.14482774 0.2502167 -0.07021089 0.1219568 0.4454423 0.13479462 -0.008095808 0.022792686 0.08673059 0.051778976 0.111301124 -0.05661016 0.05891934 -0.049872115 0.013646516 -0.19459966 0.42775047 0.3833773 0.041320927 -0.055351764 -0.2720291 0.14226854 -0.3440798
5104 0.116724156 0.19674137 -0.24005523 0.088186145 -0.30341414 0.46006298 0.045051023 0.20393606 0.0073803132 -0.115449145 0.040794756 -0.29633468 -0.2457218 0.03632374 -0.018917827 -0.03180569 0.59038204 -0.10543305 -0.056063253 -0.29964015 -0.11176228 0.1945085 0.084563956 0.41708383 0.25503507 0.15185758 0.087374434 0.02664295 -0.13044626 0.33023724 -0.056466017 0.48222736 0.36010844 0.16821365 -0.035265468 -0.07092909 -0.32664594 0.24128093 -0.015743954 -0.11522973 0.2732626 -0.140859 0.072553545 0.1954782 0.10937788 -0.108961165 0.29875627 0.17519589 -0.19157836 0.14127825 -0.18415272 -0.135038 -0.06559408 0.24447814 -0.06732896 -0.11802138 -0.09236392 0.0366321 0.42623827 0.034507748 0.25304958 -0.051474713 0.008240305 0.33260652
2574 -0.016596971 -0.13748462 0.22645846 0.37636843 -0.38379073 0.0481925 -0.049875677 -0.095031835 -0.11465508 -0.33872303 0.11878842 -0.09507345 0.17916384 -0.12739356 0.32220578 0.28269517 -0.034773495 0.4620545 -0.15308769 0.25981373 0.29311776 0.12038338 -0.012941837 0.09126699 0.18786232 0.07435682 0.1674661 0.33765164 -0.18793058 -0.072688974 0.115675986 0.019417858 0.3135847 -0.46847415 0.09549755 -0.40738314 0.1179807 -0.33088472 -0.19129242 0.12615022 0.18207203 0.09062364 0.4018091 -0.09536626 0.081209116 0.17659292 -0.010877402 0.16086316 0.30943084 -0.002173606 -0.09906679 -0.094860375 -0.04776589 -0.1680319 -0.008115456 0.13727641 -0.21613699 0.34093076 0.16259186 0.25697777 -0.13564414 0.3290285 -0.07534078 -0.15297712
4807 -0.0027945656 -0.038554344 0.14307144 -0.058024682 -0.35690662 -0.0015052852 -0.21689647 0.04639003 0.13289991 -0.1133188 0.009226808 -0.62828094 0.21838312 -0.15573066 0.025475523 0.042400815 0.5084344 0.53044176 -0.27209818 -0.14061819 -0.0047528087 -0.14210425 0.13126224 0.12152305 0.030424306 -0.07803037 0.38732335 0.27531528 -0.17903465 0.2754218 -0.055982456 0.23148595 0.18904749 -0.13864797 0.054370668 -0.238442 0.29257536 0.066991925 -0.31912988 -0.32405806 0.26893 0.17515498 0.3115999 -0.13123034 0.026763601 -0.21672723 0.044693336 -0.15716985 0.3050272 -0.13846633 0.0129706105 -0.07687287 0.30019614 0.15365197 -0.054715604 -0.1131098 -0.26032394 0.2609442 0.21871027 -0.0066665825 0.13979594 -0.093973435 0.033053935 -0.14779134
80 0.10112199 0.21493477 -0.16180901 0.033253755 -0.36097485 0.36159086 0.04770915 0.13684414 0.3330894 -0.19063474 -0.1485685 -0.7373137 0.18278041 0.021121873 0.024292862 0.06446472 0.337233 -0.15130071 -0.32435435 -0.03851943 0.13505052 0.045193594 0.1368398 0.02876938 0.10879565 0.046565957 0.00464741 0.1221609 0.070973344 0.15104736 -0.10089014 -0.28699547 0.25923988 -0.034912616 -0.26028502 -0.13815585 0.049466997 -0.22443698 0.102274925 -0.19233662 0.22321077 -0.19931652 0.2502539 0.39155442 -0.095634006 -0.005633108 0.2117134 -0.06671418 -0.006102365 0.07500693 -0.30757543 -0.045697328 -0.06020492 0.2477934 -0.0032787418 0.15188827 -0.25526214 -0.13705373 0.047398012 0.024708103 0.026020328 -0.21748206 0.33510396 0.024243502
1997 -0.0795992 0.541519 -0.1435349 -0.14689752 0.09148606 0.13130297 0.2529813 -0.19380826 0.18323115 -0.36394715 0.11089558 -0.37210628 0.18253662 -0.021801211 0.062593974 -0.14673005 0.46535137 0.13717797 -0.37422228 0.15160528 0.1033086 0.14526682 0.109168604 0.21631187 0.39867347 0.19321163 0.084790334 0.23375404 0.21347629 -0.018553793 -0.010019454 -0.03378296 0.053613536 -0.087322466 -0.16141047 -0.14423038 -0.385721 -0.12363082 0.032312173 -0.15304416 -0.06683981 -0.39707097 0.1775224 0.17860578 0.26801288 0.33381742 0.13531478 -0.09561009 -0.18934856 -0.007946208 -0.119259804 -0.18554129 -0.040443987 -0.007505921 0.082206175 -0.0798053 -0.097129695 -0.0959728 0.123873375 0.02858917 0.20323634 -0.3234951 0.29447335 -0.33892494
4206 0.016327294 -0.27809575 0.22293095 0.07692395 -0.23756965 0.107601434 0.18798865 -0.34894016 0.020902224 0.17814818 0.058327448 -0.30433452 -0.13512558 -0.15869133 0.27357912 -0.028190318 0.310922 0.276775 -0.21017437 -0.05826546 -0.02095348 0.15433535 0.3060737 0.16552462 0.53285563 0.04892492 0.16223559 0.16666277 -0.1362902 -0.34832424 0.20086008 -0.03182617 0.49985877 -0.2691687 0.12911227 -0.16330117 0.25254977 -0.017508611 0.49709135 0.17879862 -0.27729607 -0.41406754 0.23147318 -0.24652484 0.29311112 0.107558206 0.14801547 -0.17344937 0.39643455 -0.022247287 -0.6934774 -0.27160546 -0.08637462 0.109211765 -0.50291514 0.62855315 -0.027561283 0.45591432 -0.33341914 -0.04535538 -0.18586785 0.24925067 0.40635437 0.1546532
2593 0.31991354 0.30252987 -0.12903649 0.055630565 -0.1073389 0.61736715 -0.12772164 0.1749661 0.082100905 0.08339354 -0.23131302 -0.54163355 0.16888149 -0.26372102 0.37473822 0.18610781 0.3276666 -0.22987981 -0.12457328 -0.18337893 0.007549152 -0.08824915 -0.07478785 0.12632298 0.20347 -0.002294865 0.07891288 0.14345987 -0.073387094 0.04175965 0.0059757484 -0.04001928 0.24236219 0.017930899 -0.26037052 -0.104214 -0.116918884 0.08041927 0.15245977 -0.0017879329 0.087835774 -0.33497712 0.4598192 0.3470735 0.3888105 -0.18875198 0.15600705 -0.06199551 0.00858178 0.04323016 -0.31540203 -0.109755196 0.07450846 0.19197671 0.08327985 0.23443815 -0.079242855 -0.25784296 0.26160797 -0.032729104 0.12835412 0.036381815 0.4034988 -0.08706021
4328 0.08464599 0.20567949 -0.35544375 -0.08277157 -0.10561154 0.3697819 -0.17454246 0.25130776 0.078699015 -0.18037775 0.09285347 -0.5361847 -0.086140126 -0.059477422 0.14781922 -0.07346763 0.15938155 0.24686489 -0.0006476677 -0.22834899 0.09101614 0.073703386 -0.13440824 0.12151965 0.3101475 -0.091876894 0.27323118 0.20389472 -0.08843255 0.18209103 -0.10637602 -0.22133979 0.43430394 0.32534117 -0.2502256 -0.06504953 0.09038082 0.05834528 0.21611777 -0.09497098 0.26875517 -0.09833407 0.36450186 -0.21349512 -0.05251377 0.1205586 -0.0077252155 0.16794878 -0.0052196006 0.09435441 0.013165348 0.08767669 0.26813528 0.03979857 0.045092545 0.4985923 0.12200659 -0.24392185 0.33113894 -0.14703342 -0.027072618 0.2663789 0.11096268 -0.022377102
2422 0.0179787 -0.06790892 0.14475268 0.21362142 -0.22800344 0.2677915 0.23450899 0.2596786 0.20261745 -0.20854007 0.118905626 -0.020472996 -0.045186967 -0.3064939 0.42720413 0.14833297 0.04018545 0.26210064 -0.0834927 -0.17314026 0.24407221 0.006521364 0.26269305 0.04021076 0.15666059 -0.008341054 0.19777088 0.40958974 0.0016932988 -0.08746219 -0.06883555 0.09575313 0.18753818 0.06749221 -0.28535458 0.14114605 -0.124809295 0.32782388 0.3507052 0.41468826 0.40273762 0.21584839 0.38794073 -0.05403586 -0.10239941 0.02470004 -0.11680404 -0.08285124 -0.14570856 -0.06280294 -0.26865292 -0.35749123 0.30844295 0.33143228 0.03273646 0.34937644 -0.07148492 -0.27043375 0.23877853 -0.08177461 0.106346354 0.14835928 0.16996926 0.019235678
1412 0.034759957 0.37998378 0.07189777 -0.012595789 0.01691676 0.30776218 0.08828984 -0.27303973 -0.118624285 0.056862246 0.2944365 -0.3203657 0.073700726 -0.17702083 -0.037471343 -0.15876722 0.35904014 -0.3563713 -0.23954457 0.04944519 0.1806207 0.18398596 0.24051544 0.017344365 0.33986267 0.19075713 0.43618742 -0.14827032 0.36353558 -0.17586783 0.07432263 0.023629813 -0.07608778 0.0585992 0.16423365 -0.24586365 -0.19432756 -0.33765572 0.019494604 0.072389394 0.032733716 -0.16258231 0.30317375 -0.006355143 0.118844464 0.43637967 0.020288795 -0.06954511 0.041528493 -0.08340342 0.053509593 0.13111198 -0.09894349 0.09163083 0.037304584 0.11422008 -0.27354115 0.32933313 0.32284412 0.19398311 0.024886271 -0.24624145 0.24195063 -0.17340496
2683 -0.008335649 0.4533373 0.059336495 0.08499694 0.027294263 0.18429072 0.214397 -0.12346375 -0.20484234 -0.034500983 0.311881 -0.31868076 -0.009249169 0.1612794 0.031142386 -0.19634987 0.29059327 -0.29537576 -0.31893712 0.0894769 0.14866471 0.09229455 0.4473058 0.183675 0.31175765 0.21010545 0.4369913 0.0601863 0.33118138 -0.14313832 0.10632255 0.091508724 0.11347472 -0.14849801 0.11853177 -0.0011819373 -0.15478201 -0.34295833 0.19233869 -0.09892763 -0.051375087 -0.29131112 0.32807752 0.07434906 0.116884135 0.40190193 -0.04143431 0.009994299 0.076633975 -0.032581065 -0.1788296 -0.19325192 -0.06092551 0.14556202 -0.12116638 -0.050608404 -0.056388635 -0.03634763 0.2651608 0.08777413 0.06145783 -0.37213817 0.1441022 -0.12407132
4345 0.07228519 0.02194011 0.30489525 0.017761292 -0.2737047 0.14863546 0.25460872 -0.28991306 -0.05047905 0.25715628 0.0564613 -0.3412529 -0.34797347 -0.15934025 0.3993105 0.051104218 0.46105155 0.37382692 -0.2316688 0.04623066 0.0718403 0.057222087 -0.0064489185 0.24985114 0.5005481 -0.03910135 0.033694904 0.1444847 -0.15362245 -0.38279226 0.3066837 0.099558115 0.45796496 -0.34833568 0.0065654237 -0.27075928 0.21534708 0.100689076 0.6079932 0.25930154 -0.26957348 -0.41788673 0.37049195 -0.121474676 0.31916916 -0.03258411 0.19008097 -0.39929137 0.29003614 0.07622346 -0.4738004 -0.4073131 -0.15214834 0.29809132 -0.24045707 0.6072312 -0.026125504 0.4637265 0.054471694 -0.0046168673 -0.22840218 0.19313127 0.21986914 0.012127376
3281 0.21399024 -0.1540348 0.3036014 0.121077314 -0.22677287 0.12084343 -0.20985107 -0.26542264 -0.072870135 -0.2932362 0.08593781 0.15970877 -0.006173871 -0.08132169 0.44160268 -0.04137278 -0.026320824 0.07604708 0.039603725 -0.112210825 0.25200295 -0.05465166 0.087663144 0.08049354 0.5407642 0.29853684 0.17015888 0.2012758 -0.2635154 -0.111897126 0.0070000524 -0.07086795 0.11842181 -0.16802564 0.05152567 -0.26837212 0.07181726 -0.054628886 -0.32115525 0.061547134 0.2802606 0.061245386 0.35435903 -0.14745294 0.030875187 0.19740903 0.10325927 0.10537954 0.29526386 -0.26401728 -0.096224405 -0.2572816 0.067576565 0.08988593 -0.03288455 0.15077506 -0.19445564 0.4072375 0.1285326 0.4887208 -0.30815038 -0.06894758 0.4346209 -0.17788489
4697 -0.32749477 0.28212437 -0.017183984 -0.0053387694 -0.018003518 0.29365757 0.001771052 -0.23425438 -0.18028472 -0.075743206 -0.19331963 0.2711826 0.14829503 -0.04552936 0.1729054 0.15929408 0.15427455 -0.043592833 -0.45751816 -0.20484602 0.23931019 -0.43603995 0.0769827 0.032552224 0.55704165 -0.20137244 0.44996202 0.06274458 0.14826135 -0.053714328 0.0033583639 0.2908351 0.23125479 0.015132546 0.29149225 -0.16500497 -0.08182026 -0.02157777 0.044693496 -0.09917887 0.18333359 -0.181507 0.22381753 -0.23303351 -0.18513352 -0.096680775 0.22919478 0.077144936 -0.20485412 0.0034344892 0.15763578 0.118007824 -0.09386779 -0.07048984 -0.07934954 -0.039572302 -0.3573827 0.28920692 -0.11005468 0.12920669 -0.0567811 0.059278563 0.29429385 -0.19059388
3105 0.07010587 -0.13802394 -0.086216204 0.15292057 -0.0802517 0.5033403 -0.12730834 0.37549776 0.259678 -0.16057968 -0.17430063 -0.2142901 0.19285697 -0.28227642 0.042309564 0.09981292 0.15645516 0.12535809 0.113490984 -0.48844072 -0.11050424 0.010867655 0.051837098 -0.17777477 0.19852164 -0.15953134 0.48587263 0.41018647 0.24330148 0.34377208 -0.028215172 -0.006031632 0.26069823 0.22926135 0.010505608 -0.010157139 -0.011438193 0.123008005 0.25253588 -0.16355899 -0.14050768 0.17264244 0.26054403 -0.24245696 0.09175511 0.06374009 -0.0006968178 -0.2359362 0.16710456 0.04626218 -0.0057339068 -0.1370892 0.25403655 0.04403006 -0.04969888 0.38747466 -0.14909129 -0.01336682 0.31246504 0.132261 0.21897411 0.20338273 -0.17378211 -0.1452292
91 -0.00090499053 0.16430536 0.024396366 0.06571018 -0.1870183 0.32154745 0.10741522 0.18183364 0.2888846 -0.34708488 -0.09212661 -0.16002391 0.65650624 -0.18910208 0.028813228 0.0011995275 0.109414846 0.17832513 -0.37333307 -0.047662977 0.10995223 -0.2719348 -0.048477028 0.038740486 0.06333483 -0.1867013 0.2952147 0.010963095 0.15753722 -0.105937585 0.075409934 0.06711197 0.2825801 0.15410776 -0.26956093 -0.07013674 -0.54391843 -0.010106186 0.38551787 0.29867876 0.4018066 0.07435567 0.26226607 -0.06830532 -0.19155852 -0.22675982 -0.053735152 -0.18196827 -0.070770435 0.10101451 -0.2678132 -0.027908932 -0.05793519 0.014115256 0.12524952 0.48266312 0.016252048 0.01723669 0.39658558 0.12588657 0.27066296 0.27207825 0.2013749 -0.11061279
1080 0.1859336 0.33060244 -0.30654863 0.071849525 -0.052314598 0.38119283 0.12312217 0.009149002 -0.17802209 0.018114297 0.06443233 -0.2603777 0.053414743 -0.14733504 0.039788105 -0.029846977 0.37496912 -0.16992237 -0.1278518 0.14704071 -0.066968955 0.0052214996 0.4571798 0.40564036 0.38779572 -0.09278239 0.22241093 -0.018775845 -0.02013842 -0.044146284 0.12683241 0.009936213 0.012391595 -0.09883671 0.10208922 -0.29857734 -0.13421507 -0.24771543 -0.009895797 -0.22213414 -0.08402744 -0.16470705 0.26442713 -0.098554485 0.34253895 0.17552613 -0.04479613 0.051239908 -0.035168257 -0.27605927 0.24510689 -0.22381815 0.11219575 0.32873806 0.055541743 -0.19944915 -0.14318708 0.1884175 0.73930746 0.07952854 0.29452997 -0.09905314 -0.12641297 0.083940715
3240 0.13877682 0.13506013 0.28975135 0.019995973 -0.5308553 0.26907712 -0.040549815 0.039419815 -0.18213272 0.13419345 0.16093554 -0.22563826 0.09299002 -0.38520923 0.39511287 -0.032217044 0.26804554 0.108203545 -0.07911249 -0.0115084285 0.2762755 -0.27458367 0.01821218 0.39517322 -0.13331798 0.17241582 0.12355715 0.47319454 -0.17191413 0.014040675 0.07286397 -0.03099238 0.46968448 -0.2410134 -0.20067497 -0.10372074 0.08825221 -0.14583425 0.06588099 0.38530678 0.1921902 0.16962335 0.54897094 0.036047734 0.066680096 0.03901101 0.057491396 0.11173949 0.0049257996 0.06210381 -0.20212491 -0.44943914 0.18574373 0.12538563 0.2331175 0.28345907 0.04168219 -0.08655168 -0.08891285 0.6231205 -0.16716824 0.14516646 -0.0022554658 -0.051602006
621 -0.0734158 0.2054533 0.11278015 0.22327982 0.13100944 0.37279004 0.030222997 -0.43424958 -0.10837418 0.0601909 -0.18741094 -0.27023572 0.21547347 -0.2513664 0.097321905 0.03378863 0.31921276 0.3765835 -0.18406482 -0.023180416 0.21137851 0.12435202 0.17219003 0.11925847 0.24826318 -0.0024009503 0.20046762 0.09289673 0.30018407 0.24620847 -0.13487658 -0.008170406 0.27609205 0.19980285 0.061024576 -0.003646144 0.18952395 0.41812316 -0.26697353 0.0928031 0.3576715 -0.110044986 -0.1411769 0.016591605 0.12599984 0.11508456 0.053212833 -0.33480442 0.109692514 -0.0686263 -0.21131733 0.19536053 0.19173868 0.035606485 -0.06499587 -0.037677784 -0.12899458 0.13206 0.39994767 0.109205976 0.038716823 -0.30608964 -0.3109516 0.26606616
5229 0.053715397 0.101687156 -0.24748787 0.22035515 -0.13722216 0.11936112 0.1644684 0.0013903597 0.07439694 -0.0120911915 -0.046935253 -0.42619252 -0.018616132 -0.21352118 0.06670257 0.2956189 0.5465197 0.19869615 -0.15761267 -0.20196576 0.25239515 0.12177003 -0.03845544 -0.012952722 0.25425085 -0.14000025 -0.046558615 0.05008387 -0.14659172 0.1395591 -0.04847234 0.018576356 0.42638946 -0.10336039 0.037677467 -0.19087808 -0.061192594 0.2768281 0.08291466 0.29449463 0.121713206 0.17158203 0.25555867 -0.079271264 0.032958645 0.0673301 0.001811138 -0.20228438 -0.20150544 0.20673871 0.031695582 -0.088249415 0.14054154 0.13521752 -0.014433584 0.7540485 -0.13231482 -0.185408 0.1098729 -0.1891376 0.24135286 0.17272831 0.46994504 -0.22407402
2314 -0.17493434 0.55983377 -0.13474096 -0.09133417 0.008838765 0.40696692 0.0028157488 -0.304947 0.0032931473 -0.053691126 -0.21366228 -0.07034962 0.14667018 -0.085112624 -0.08517822 0.098666385 0.2679682 0.23690677 -0.112054266 0.18404926 0.112774104 0.0958624 -0.020555729 0.19568405 0.48440593 0.14251295 0.27301157 0.0031832498 0.04616893 -0.12822048 0.12368116 0.3623837 0.122285835 -0.20399576 0.10582234 -0.04728546 0.012207381 -0.12761126 -0.050790526 -0.114033066 0.43238688 -0.30945355 0.0639646 -0.05416955 0.28364173 -0.07687118 0.35824442 -0.14062956 -0.055867556 -0.08991922 0.04621327 0.020255001 -0.06610975 -0.00947296 0.060857013 0.045253165 -0.15920618 0.1752344 0.40618044 0.2377286 0.031397957 -0.1608848 0.2538298 -0.1635318
2739 -0.22643943 0.119974636 -0.3115752 0.060877267 0.09973499 0.2394119 0.056921605 -0.076432526 0.04382829 0.24156554 0.11947976 0.03552534 0.20889144 0.0070511177 0.4218274 -0.053991295 0.39033553 -0.086534195 -0.1647567 -0.01305933 0.058399975 -0.34746417 0.2594042 0.31826988 0.33715823 -0.2956567 0.34545338 0.08466166 -0.073403046 0.00799099 0.12896067 0.08732637 0.10851886 0.07639907 0.1852139 -0.10783608 0.1215064 0.076696746 -0.0014206525 0.01451468 0.18608677 -0.028934507 0.1661601 -0.105366744 -0.34386814 0.3339815 0.039201975 0.007964172 -0.011753787 -0.34110397 0.06435978 0.21445161 -0.09531667 0.0501334 0.015071393 0.20474866 -0.30006593 0.31377172 -0.014218291 0.6165794 -0.18969919 -0.46372652 0.32627696 -0.31380296
4531 -0.13725577 0.16635886 0.30072376 0.10088691 0.09631773 0.18929084 0.2563606 -0.15550065 -0.23398797 0.07617685 0.15500833 -0.19095434 0.20258202 -0.16939287 0.122963935 -0.15698606 0.116582334 -0.26531112 -0.2768157 -0.10205686 -0.08067754 -0.13384232 0.26500043 0.07393136 0.2563981 0.06937808 0.47395682 -0.23111914 0.043890834 0.050881196 0.21715443 -0.28717348 0.020137375 -0.02109996 0.1903027 -0.33450815 -0.15137497 -0.10204 0.01375996 -0.21767211 0.10524097 -0.08326265 0.28120416 -0.22364742 0.02884566 0.55768377 0.25587586 -0.0006123281 -0.0907816 -0.25235188 0.12607855 -0.04836268 -0.11585192 -0.029432014 -0.039362058 0.3661779 -0.2522397 0.29403114 0.14573045 0.31836584 0.030543402 -0.45965898 0.4633617 -0.16669078
4581 -0.29070216 0.2407595 -0.19396502 -0.26164892 -0.13402039 0.4766324 -0.04303997 -0.09910339 -0.06112247 -0.24300003 -0.262707 -0.21950902 0.02291565 0.057658963 0.12820403 -0.27165425 0.27592707 0.104974 -0.013753021 -0.09587277 -0.47511026 0.2965718 0.4286983 -0.032388918 0.15780228 -0.25473648 0.3585831 -0.086005 0.076154165 0.35617167 -0.29582596 0.085647866 0.27928674 -0.24370871 0.045811 0.002416345 0.15689428 0.42864212 -0.123154245 -0.050152138 0.23331419 0.008424241 0.20423025 0.15714082 0.0065387446 0.09952868 0.14131422 0.19041288 -0.049300257 0.25131416 0.30236477 -0.013100974 0.082222976 -0.11619594 -0.19555475 0.07222053 -0.058628622 0.13758573 0.24267954 -0.1347004 0.35788342 -0.072342396 -0.104170084 -0.01572636
5278 -0.037025884 -0.11414197 0.04304961 -0.13874777 -0.29803544 0.46348003 -0.28358498 -0.21470927 -0.20244144 0.15492213 -0.056519132 -0.1301439 -0.051732063 -0.09721129 0.30142525 0.16937906 -0.064120404 0.17537798 -0.3884661 -0.06336989 0.40426695 0.13930754 0.45877331 0.029916452 0.31857577 0.19178312 0.11117906 0.14352642 -0.083485745 -0.3602572 -0.19606175 -0.35727826 -0.080561526 -0.0890029 -0.017592711 -0.4002276 -0.029480921 -0.44331568 0.14423178 0.51011324 -0.030325204 0.16557567 0.24706137 -0.16344237 0.15723361 0.04846268 -0.108810924 -0.15727311 -0.019582285 0.07300652 -0.36122584 -0.14731613 0.035678957 -0.137473 -0.061980344 0.049811013 -0.52108747 0.08010741 0.096522845 0.16994235 0.13080478 0.3406967 0.25889564 0.03412521
1679 0.32236362 -0.17284784 0.023373997 0.42277136 0.050481502 -0.11833107 0.39607695 -0.16819252 -0.043014657 -0.31740588 -0.40645576 -0.49769035 0.114119545 0.094587006 -0.057996735 -0.3431233 0.17131484 -0.08693002 -0.45447484 -0.103261486 -0.15477484 0.18532339 0.3064236 -0.056478333 0.3520658 -0.13986892 -0.06322331 0.13972443 0.0017937043 0.054446194 -0.08780396 0.3169024 0.25098115 0.109426804 -0.050780337 -0.25693527 0.5717566 -0.035427194 0.23712443 -0.06640731 -0.12536636 -0.37208351 0.3465962 0.03042317 0.4685306 0.124647796 0.38174418 0.32077566 0.32399276 0.29473972 -0.41603303 -0.56281805 0.07609704 0.082042955 -0.54965043 -0.18667467 -0.011501682 0.06122513 0.20353623 0.053284325 -0.14694288 -0.06915437 0.1848176 0.23311813
18 0.21499285 0.5827177 -0.09799567 0.025665106 -0.0725149 0.33624375 0.24061592 -0.39096692 -0.06318301 0.009076928 0.30249628 -0.47368768 -0.024292845 -0.112247355 -0.11609664 0.06958022 0.369483 -0.124506816 -0.24150264 0.21092002 -0.088644825 0.1340622 0.54803795 -0.0083526075 0.20465286 0.35559258 0.34886864 0.049548835 0.15461434 -0.1381814 0.11577013 0.09625193 -0.013858146 -0.060362972 0.05280502 -0.14577094 -0.24489978 -0.10357571 0.22842632 -0.16765662 0.024348494 -0.19901535 0.15021156 0.032800525 0.24498436 0.52411693 0.14073274 0.14189826 0.17771421 -0.053887513 -0.092792496 -0.13721289 0.16756006 0.10109656 0.05029227 -0.09439238 -0.08095092 -0.02038086 0.28685492 -0.11672744 0.36134976 -0.082316115 -0.03539207 0.10347569
2671 0.044573117 -0.0031774123 -0.5202057 0.19156352 0.12037855 0.14377944 0.38115472 -0.31807443 -0.041537125 0.20300093 0.24201214 -0.26220623 0.09898937 0.20611161 0.013154404 0.20135579 0.7722509 0.14552672 -0.42738247 -0.0089063 0.12054871 0.010509408 0.040858783 0.31609252 0.35403964 -0.24147572 0.0705838 0.3050723 -0.07336552 -0.10800807 -0.04772198 0.15616521 0.15303595 -0.15660179 0.109509 0.00964999 -0.04414135 -0.1929105 -0.15717979 0.12807606 0.19112875 -0.15307304 0.50624514 -0.07465287 0.02433294 0.09603975 -0.122415364 -0.1483193 -0.120347306 0.10470039 0.027404103 -0.19503029 0.12478015 0.006557366 0.0054624183 0.37017682 0.3112638 0.07264448 0.10688654 0.3590163 0.18119644 -0.23453327 0.1911983 -0.47959894
3697 0.06909096 -0.20287749 -0.086413346 -0.07928944 -0.23353653 0.41730213 -0.13151892 -0.24280092 -0.069383025 0.08045702 -0.0030324573 -0.04317147 0.117300525 0.0438109 -0.13651478 -0.28985518 -0.13555183 0.53901273 -0.32527018 -0.0531821 -0.6343776 -0.082891345 0.106120594 0.005828068 0.04415626 -0.005543939 0.3619959 -0.13109207 -0.22916627 0.12878476 -0.12198167 -0.19636682 0.4267815 0.14735459 -0.084413856 -0.11454293 -0.17169635 0.11886871 -0.095326856 0.13762926 0.21953987 -0.13981324 -0.22413547 0.12882106 0.007244787 0.67026395 -0.017222784 0.2147787 -0.2782064 0.24756822 -0.08224034 -0.38719907 -0.43497154 0.10403761 0.012788145 0.2213258 -0.42945305 0.058042258 0.35215637 0.2328394 -0.08604416 -0.262163 -0.38400248 -0.041115645
2230 -0.20280766 -0.12741399 -0.0041217776 0.07027027 -0.14742891 0.048478317 -0.09858418 -0.11278091 0.010975768 -0.17190656 -0.050008588 -0.20930332 0.16091758 0.100505054 0.22273763 0.11452065 0.08295462 0.4688364 -0.18332607 -0.22854628 0.043890323 0.28945544 0.15535505 0.11261608 0.5175636 -0.2881079 0.17849773 0.05186579 0.037913255 0.377885 -0.13203113 0.2089951 0.09544072 -0.46469027 0.17427565 -0.12762338 -0.29682958 0.21575898 0.20764488 -0.03883154 -0.033287566 -0.042650063 -0.082277015 0.03654948 -0.054241 0.21625607 0.37147427 0.55502254 -0.12652215 0.21140058 0.05576264 0.13086419 0.3450251 -0.00068778347 -0.20049724 0.04776985 -0.032116644 0.11478193 0.20516254 0.5292027 0.20058516 -0.3519151 -0.13325325 0.12832505
2547 -0.50238454 -0.26605824 -0.027499123 0.2635244 -0.4350274 0.43291688 -0.105336696 0.19076388 0.214113 -0.2382505 -0.19505471 0.07346204 0.07409911 -0.2508216 0.095248304 -0.23668766 0.30623007 0.22752257 -0.297361 -0.4009831 -0.07499875 0.23387781 0.15389428 0.008336234 -0.079831034 -0.11925756 0.39206132 0.0923738 -0.06191217 0.14126892 -0.06706145 0.33482254 0.119560115 0.36495987 -0.008794721 -0.013237656 -0.55966735 0.24970905 0.23820995 0.051215447 0.08690911 0.028677873 0.021313164 -0.15320764 -0.29063126 -0.29207742 -0.109842084 0.17325447 -0.023191392 0.3098952 0.09567233 -0.24997625 -0.19322726 0.38802955 0.07948999 0.25083178 -0.23351406 0.054143045 0.43107483 0.0870928 0.49789566 0.06962905 -0.012167542 0.24110699
4862 -0.112543404 0.14120162 -0.01990114 0.14343458 -0.021615235 0.7897615 0.291992 -0.1993249 -0.21464984 -0.2029723 -0.03432322 -0.052730877 -0.002562975 0.08388068 0.19425029 0.05533875 0.08656189 0.10128673 -0.1373684 -0.06868298 -0.28314063 -0.12600107 0.53179663 -0.028136343 0.46864402 0.19489717 0.122276075 0.038745 0.46839732 0.37052745 0.059236743 0.3625655 0.1994552 0.31744096 -0.14539191 -0.14313462 0.09664903 0.4873666 -0.27280694 0.024991542 0.19171265 -0.14565119 -0.22317933 -0.30709907 -0.13716552 -0.0709229 0.115990564 0.024750799 -0.034478456 -0.10383278 -0.0996108 -0.03619248 -0.30965966 0.073678784 -0.34595612 -0.12582381 0.03602021 -0.2848208 0.14056884 0.50779194 -0.121651776 -0.20822072 0.23248293 0.10975268
2125 0.16427852 0.17592184 0.12345802 0.2299786 -0.561656 0.22186927 -0.09643518 -0.29594222 -0.27987397 -0.2602287 -0.2673442 0.07381885 -0.027671184 -0.16922173 0.52541095 0.0660774 -0.24474902 0.2785617 0.02380179 0.0663001 0.40434316 0.31184602 0.46650824 -0.09127977 0.47817653 -0.02674305 0.2918598 0.38594946 -0.10788278 -0.28660288 -0.0075986576 -0.024375234 0.040778626 -7.789857e-05 -0.08004705 -0.101877645 0.104266085 -0.2963834 -0.095680274 0.31747246 0.11569718 0.18883216 0.32197383 0.072944574 -0.040801797 0.05329163 -0.11360832 -0.14834264 -0.113419496 -0.21578339 -0.30546156 -0.002972302 0.05634988 -0.13316466 -0.2007132 0.023393786 -0.29109403 0.055512883 0.072422445 0.2722833 -0.115226835 0.29018372 -0.0074088215 -0.0605369
5014 -0.22936232 -0.12338495 -0.32834023 0.14280874 0.031257946 0.5057708 0.016556721 -0.0601515 0.117568895 0.22287843 0.19003269 -0.102590434 0.07039553 0.1678446 0.04285394 -0.23049279 0.20059416 -0.025959982 -0.379439 0.02059919 0.17500536 -0.22193176 0.26056603 -0.02987041 0.33939573 -0.18204692 -0.209644 0.29899928 -0.17345434 -0.5357772 0.038818587 0.048410993 0.33188495 -0.10310589 0.19364814 -0.27907172 -0.10384461 -0.26980236 -0.23068221 0.26651302 0.10076601 0.25622058 0.46746686 -0.22719915 0.21642698 -0.0051841866 -0.2126111 0.36833194 0.18664066 -0.12734365 0.06337032 -0.18694437 -0.13421549 0.054222126 0.07870761 0.12744163 -0.20117638 0.5400433 -0.051192548 0.4727768 -0.18063277 0.056621768 -0.16219077 -0.007645705
3251 -0.24414437 0.031575806 -0.12529865 0.37892786 -0.004526215 0.023960754 0.18692671 -0.09067598 -0.006906693 0.20486355 0.32882905 -0.13422686 -0.1389093 0.044031408 0.3001624 -0.19685453 0.0089481985 0.07664898 -0.08745842 -0.1756437 0.5912167 -0.20341308 0.1785634 0.075122274 0.29245728 0.03594923 0.3594269 -0.026485754 -0.057641245 0.10192241 0.09895276 -0.17448667 0.3066254 -0.18472742 0.14098004 -0.19158058 0.14444426 0.066587746 0.10019443 0.3270592 0.24686691 0.41365677 0.4992946 -0.17439578 -0.09873064 0.27711076 -8.626978e-05 0.015408548 0.12925655 -0.23736994 -0.13394032 -0.28082427 -0.14763275 0.22753108 -0.04821461 -0.050143447 -0.2514232 0.19083056 0.11638802 0.36400163 -0.26530805 -0.0633727 0.23359242 -0.14836566
1263 0.056618962 0.44591215 -0.1790307 0.21749942 -0.20012781 0.34671003 -0.08622956 0.4278002 0.14909029 -0.060295716 0.05618176 -0.31371745 0.108936206 -0.19799471 0.017999645 0.009908348 0.31018513 0.093834125 -0.0140302535 -0.13023934 0.009908408 -0.091778554 0.25216973 0.20676094 0.10014674 -0.12150079 0.19640481 0.12643526 -0.24944703 0.32526395 -0.06452182 0.28700703 0.14593434 -0.36001468 -0.23073506 -0.104524925 -0.001414136 0.5872557 0.15164387 -0.16229405 0.28981176 0.18655689 0.24613759 0.07597603 -0.10945897 -0.095399365 0.04287232 0.13992722 -0.38662565 0.17369464 0.008871834 -0.46005878 0.21907812 0.16639547 -0.32519564 -0.08293552 -0.06483183 0.1079538 0.40845597 -0.009578264 0.2848819 -0.20219913 0.03076424 0.21451348
4316 0.11982657 0.082303904 -0.2585565 0.05487178 0.10179104 0.26988274 0.29292712 -0.44330168 0.3344154 -0.3419838 -0.019400919 -0.5821826 0.23472214 0.104470775 0.0044649392 0.09970157 0.43354896 -0.0352888 -0.219182 0.013899492 0.26991144 -0.040586706 0.27681085 0.22481056 0.47991252 -0.06295448 -0.020534754 0.4119674 0.23489244 0.30635315 -0.17050353 -0.07988402 0.3290721 -0.1692189 0.16210254 0.052735265 0.09410968 0.4699222 -0.22994813 -0.06278828 0.013213447 -0.27424425 -0.018015198 0.13802755 0.24508482 0.10964605 -0.1443428 -0.28687084 0.05144362 -0.036696002 -0.073844336 -0.043760594 -0.28404093 0.12585606 -0.13770732 -0.0973749 -0.17982547 -0.22549531 -0.14183721 0.07085689 0.11023654 -0.14799507 0.119109765 0.058212556
4071 0.018571602 -0.16554911 0.009628434 -0.10185042 -0.045719393 0.49832225 -0.020434085 0.302828 0.14865565 -0.2566976 -0.22229843 -0.30730212 0.16923656 -0.25339663 0.11648212 0.18032198 0.037317965 0.025556557 -0.164475 -0.24012423 -0.018949714 0.05538971 -0.018013628 -0.058211133 0.2762314 -0.106599584 0.2878601 0.34105828 0.079523146 0.16649957 -0.09408859 0.028090496 0.3883364 0.25928923 -0.38088745 -0.02876558 -0.044066835 0.07533763 0.23422463 0.017269045 0.23901594 0.11518316 0.1949851 -0.2259293 -0.2388395 -0.03311971 -0.04767207 0.13151352 0.019669952 0.11615208 0.058089588 -0.2129476 -0.012194514 0.12651736 0.14234024 0.60991216 -0.008061306 -0.139896 0.24113236 -0.006005965 0.024322525 0.32816318 0.3858439 -0.22467771
3554 0.14936681 0.27121717 -0.017339753 0.08238918 -0.2951865 0.23113877 0.018381052 0.035260133 0.26610413 -0.15132862 -0.34701502 -0.60323787 0.19852236 -0.26178285 0.011467829 -0.022024622 0.36075154 -0.29440042 -0.280407 -0.17489088 0.11780644 0.09232446 0.34403524 0.13568866 0.28088406 0.03920433 0.09359818 0.09289996 0.08884832 0.015004761 -0.2043839 -0.24557571 0.19710013 0.024793362 -0.22225434 -0.09538483 -0.102094404 -0.2768521 -0.07639214 -0.13605969 0.102872156 -0.2964956 0.35282835 0.36197326 0.056912098 -0.0021067525 0.091812715 -0.07627524 0.086001225 0.04953638 -0.20004925 -0.12934808 -0.00039909608 0.32737324 0.06791527 0.1706798 -0.0888861 -0.26221988 0.044323027 0.024881575 -0.06750713 -0.25594896 0.40737012 -0.019924324
2207 0.25393257 0.43128747 0.014894605 0.2311253 0.042059753 0.24325415 0.25166774 -0.25136772 -0.083331995 -0.13902134 0.1192386 -0.4980086 0.15814197 0.07735491 -0.17933041 0.046351213 0.332922 -0.1903729 -0.2684133 0.098569036 -0.036650654 0.0366598 0.6042151 0.22677785 0.26086304 0.11788533 0.3936091 0.07819001 0.1857007 -0.024461096 0.11784755 0.12495692 -0.13526662 -0.023506194 0.20940009 0.001762288 -0.08833925 -0.17092367 0.23767449 -0.2861503 -0.0924297 -0.20000207 0.20811433 0.08429507 0.2068399 0.29669842 0.16286534 0.051431216 0.13840742 -0.08019468 -0.098115176 -0.18988192 -0.035518706 0.23333515 -0.0068209185 -0.20563123 -0.13197102 -0.064032234 0.5185351 -0.02574375 -0.018969255 -0.2215605 0.17598626 0.0018941194
4414 -0.10316143 0.044408478 0.11551086 0.04150433 -0.1898116 0.24905708 -0.098410815 -0.0762609 0.13666868 -0.5363124 0.4155532 -0.2457536 0.08278961 0.058242075 0.30830967 0.20795673 0.17746682 0.5217251 -0.14282683 0.18656132 -0.33205378 0.036954764 0.03683159 -0.08518323 -0.1769105 0.34981507 0.1808506 0.20463228 -0.1913313 0.13023013 0.15988208 0.23373738 0.35214 -0.15931712 0.10292926 -0.60946304 -0.08073157 -0.113848664 -0.40714222 -0.19010153 0.22709703 0.13556802 0.40198252 -0.022457475 0.2626983 0.050333627 0.13699281 -0.062197715 0.021406949 0.14433526 -0.21527573 -0.041950837 0.16456604 -0.18311013 0.033760697 -0.09198717 -0.26796237 0.3086266 0.35988158 0.11892753 -0.020833122 0.035260025 -0.20859082 -0.11895967
4123 0.34210858 0.014165024 0.1971602 0.010683082 -0.3389122 -0.10014014 -0.16967472 0.12244694 0.05083433 -0.166807 -0.032286536 -0.48271218 0.05441322 -0.325275 0.21553928 0.28569365 0.38616773 0.29537457 -0.2808069 -0.29713786 0.34229887 0.0769567 0.057605185 0.1708122 0.13464221 0.0830834 0.15916868 -0.023443708 0.09795239 -0.004988404 -0.04299578 0.14822137 0.42108363 0.08714793 -0.08947008 -0.16590095 -0.23021793 0.17676476 -0.019499307 0.26741207 0.081398815 0.23342854 0.54035586 -0.06544097 0.038647242 -0.3051136 0.041892473 -0.055892874 0.31117845 -0.21277012 -0.12556183 -0.2234429 0.07473173 0.3236171 0.11490471 0.39619404 -0.30161655 0.03919112 0.25376785 -0.003264817 -0.056008827 0.3811185 0.17028882 -0.18600887
373 -0.4055766 -0.019232439 -0.26050615 0.1947672 -0.30912694 0.15546261 0.38439816 -0.12125088 0.6535688 -0.03503345 -0.026215522 -0.15375292 0.098198876 -0.00013688266 0.012949319 -0.0077866 0.10815425 0.06491925 -0.33553922 -0.085821934 0.01490561 -0.2470197 0.25516346 -0.34620664 -0.018482728 -0.20956375 0.30618915 0.30988333 0.06244444 -0.039209824 0.039867286 -0.051431898 0.41029367 0.036808435 -0.09265976 -0.15543951 0.09960819 -0.42858434 -0.27839252 -0.44334048 0.0963778 0.1842007 0.3069466 -0.06268292 -0.01499538 -0.08715322 0.046104368 0.13337365 0.1074214 0.16565746 -0.4397945 0.26316294 0.116886355 -0.08378586 0.14476083 0.47234032 -0.3458413 0.43050292 0.07887231 -0.18566936 -0.07584865 -0.19147094 0.030386353 0.029289767
199 -0.04164481 0.5877203 -0.055385195 0.087309666 -0.24804328 0.22145997 0.1711272 -0.31000113 0.15977079 0.028924488 0.14421298 -0.4400781 0.31566587 -0.1976821 -0.28870872 -0.26021755 0.43439835 -0.35095608 0.13677712 0.12787153 0.034853432 -0.050268997 0.46782967 0.07876396 0.16348845 0.21851751 0.19997887 0.3159135 0.19506578 0.12353877 0.071811825 -0.0043530655 0.20037904 -0.19222304 0.3804832 -0.2619807 -0.13971974 -0.21047962 0.048504602 -0.0634594 -0.043260053 -0.1892565 0.093240686 -0.25126097 0.2768064 0.34350756 0.100676596 0.039169487 -0.15807706 -0.09388682 -0.016122567 -0.13311936 0.024571517 0.17068437 -0.01525382 -0.26280463 -0.046119988 0.16565534 0.31880525 0.2310479 0.23552552 -0.10493471 0.06488797 -0.05737467
1159 0.117887415 0.13132346 -0.17768599 -0.1894207 -0.20985988 0.3696999 -0.091262914 0.41771564 0.034412183 -0.063243955 -0.35480422 -0.17662898 0.34601566 -0.39099705 0.123612784 0.20577137 0.110644996 0.07813254 -0.2387688 -0.55798554 0.044152018 0.0071906736 0.075872734 -0.022651719 0.13166225 -0.138552 0.111392274 0.24536605 0.1683675 -0.0035558082 -0.18618071 0.15400141 0.3344467 0.12037405 -0.17563203 -0.07224191 -0.15642297 -0.055440754 0.30720448 -0.13809504 0.16095226 -0.19795875 0.035335768 -0.023355898 -0.17317271 -0.047443934 0.38258648 -0.02239459 -0.23975453 0.13574558 -0.251968 0.052186426 -0.047300197 0.12904143 0.10951996 0.34989485 -0.29772806 -0.0013636006 0.21324027 0.1818181 -0.043230906 0.1566337 0.3820001 -0.02383671
1611 -0.21229492 0.0265242 -0.057592627 -0.32385984 0.002471819 0.49554366 -0.008588582 -0.38514456 -0.11578306 -0.08796819 -0.09549174 0.081444524 0.33452174 -0.3388941 0.16563974 -0.14321704 0.3745658 -0.24039733 0.030642036 0.21365874 0.39016655 0.4126345 0.20392816 0.12879129 0.33238038 0.02156082 0.103799045 -0.25447813 0.23985736 -0.016404117 -0.32704094 0.1674115 0.4185967 0.05152791 0.03183986 0.022194192 0.26888967 0.3815637 0.26974523 0.012909153 0.24659795 -0.1406626 -0.21187878 0.3130131 0.012300096 0.42565572 0.23654997 -0.15401615 0.10558191 -0.17754841 -0.16218409 0.2802954 -0.23310772 -0.2035781 -0.026583053 0.22185665 -0.253945 0.102602996 0.21032599 0.32737628 -0.39869314 -0.36031666 0.014174358 0.05758305
103 0.019260477 0.032825563 0.21517259 0.021816904 -0.013366681 0.52291113 0.041079875 -0.51523507 -0.26375294 -0.38329592 0.0873913 -0.03764428 0.06029899 0.051505074 -0.054731656 0.03266321 0.24544899 0.3848176 0.2502161 0.3182458 0.6522094 0.010217612 0.4898643 -0.10550239 0.72398776 0.031221714 0.016056228 -0.38805768 0.36411014 -0.20893864 -0.09587264 0.13405146 0.02874549 0.11895439 -0.12962273 -0.36587465 0.21613018 -0.021960666 0.25985804 0.08641029 0.030355137 0.11652861 0.039729442 0.09389342 0.069215186 0.35370764 -0.11571789 -0.14831772 0.1826322 0.073865 -0.1153122 -0.19513305 -0.26503733 -0.12898459 0.09490478 0.025778547 0.027176546 0.010057497 0.35986954 0.31295657 0.0055451677 -0.1667037 -0.23374906 0.01516858
1420 -0.13065034 0.06872884 0.20546553 0.09201937 0.020154152 0.08059279 0.44140705 0.2827809 -0.118668795 -0.31928957 -0.038869824 -0.3304579 0.106560424 -0.019477682 0.012395597 0.06971547 0.32146275 0.7070358 0.20246294 -0.23306407 -0.32073715 -0.07765913 0.30831265 0.18994714 0.544339 -0.16702585 0.48383552 0.3001448 -0.16373645 -0.00944144 0.010539878 -0.28460887 0.38896504 0.2197593 -0.0075123096 0.1256201 -0.17565884 -0.0048975404 0.14053352 0.079071306 0.22722971 -0.24165893 0.009562546 -0.21338327 0.0021090158 0.14089233 -0.1171223 0.117127985 -0.12731141 0.1503083 -0.3381298 0.42027283 0.04298412 -0.08680298 -0.10252186 -0.37972698 -0.50724864 0.13026795 -0.031651925 0.18002167 -0.24406387 0.23611443 -0.003343188 -0.08635018
3749 -0.13500002 0.0797255 -0.12300477 1.3135678e-05 -0.33844653 0.53167915 0.24989013 0.12876174 0.29106793 0.015461332 -0.118637174 -0.16924562 -0.10845848 0.2583376 -0.22633453 0.14363849 0.27912763 0.17221053 0.035062313 -0.028570622 -0.29658946 0.17705119 0.0841444 0.09899101 0.18164383 0.08056072 0.25690764 0.45478377 -0.13207708 0.10884563 -0.18813458 0.21111275 0.06333401 -0.10213284 0.14030537 -0.39931035 -0.041495983 0.07342846 -0.07870123 -0.51751435 0.29346007 -0.20814209 0.17945303 -0.0034954883 0.1095457 -0.14628308 0.3555581 -0.010443283 0.057447292 0.045947034 0.12911962 -0.12898807 -0.024894228 0.05719067 -0.1245491 -0.03478634 -0.31302032 0.060631063 0.41197842 -0.043003567 0.18595856 -0.24469562 0.19051287 0.051102992
913 0.21711339 0.09343677 -0.05214784 -0.045653794 -0.10674746 0.49717903 -0.2107127 0.26293325 0.1402812 -0.17789076 -0.14457138 -0.45952016 0.04010381 -0.20512828 0.14890033 0.13253397 0.23378855 -0.04222516 0.058294494 -0.32264152 0.017404491 0.08598425 0.052343566 -0.14310059 0.19591571 -0.13031909 0.3648019 0.35309005 -0.11146201 0.22776286 0.00023624612 0.03169292 0.38387522 0.23337477 -0.004709843 -0.10988265 -0.18194053 0.47813883 0.16082323 -0.041267022 0.007214195 -0.01698839 0.34119314 0.07279729 0.24331409 -0.20310229 0.11885033 -0.017003743 -0.0052634627 -0.05720562 0.049545903 -0.17533909 0.27496767 0.21621388 -0.14334367 0.3457731 0.14787582 -0.051820807 0.33792746 -0.021807488 0.1607965 0.040311 -0.042665668 -0.011147729
1091 -0.23211016 0.30790928 0.32466057 -0.38038382 0.021509402 0.4487155 0.18829656 -0.5613388 -0.0148873925 -0.23626763 -0.12909916 -0.33735943 0.048042573 0.015767038 0.23946427 -0.02157723 -0.029677022 0.57049614 0.23529233 -0.06188076 0.32514274 0.44079405 0.10758458 0.012215776 0.25512767 -0.19413173 -0.032094542 -0.063550815 -0.3028441 -0.19846328 0.065907225 0.28594986 0.4558888 -0.24705048 -0.16246834 -0.2828019 0.11585297 -0.08624112 0.11172367 -0.10488018 0.36817014 0.019437332 0.12420185 0.07485555 -0.035168715 0.13879912 -0.45028052 -0.27162167 0.27649245 0.026805755 -0.20959361 -0.10746684 -0.16955765 -0.12785673 -0.11744416 0.26318654 -0.24887766 -0.049570527 -0.06690423 0.5209556 -0.51271224 0.11516447 -0.23117419 0.3935422
1125 0.26533836 -0.12857136 0.18995285 0.25755894 0.017198615 0.6475912 -0.14081298 -0.37646052 -0.20516458 0.16139942 -0.1933566 0.1984251 -0.37928247 -0.5098408 0.41844735 -0.3035021 0.013016393 -0.05932971 -0.08567242 -0.39801443 0.22362816 0.06607487 0.5008331 0.03245593 0.12043312 -0.2747292 -0.06978321 0.37225422 -0.13407962 -0.28833312 -0.1443489 -0.24903877 0.2030933 -0.14506453 -0.085203595 -0.33450055 -0.26739904 -0.27483073 -0.16908443 0.18936756 0.2135137 0.15820001 0.0032586202 0.22497283 -0.1690553 -0.13805127 0.02329801 0.009215909 0.1381611 -0.07264987 -0.65208894 -0.51536757 0.12741059 0.16129655 0.2798708 0.2525967 -0.3096855 -0.061109103 -0.063628525 -0.14042555 0.08216323 0.3858835 0.5061512 0.02106567
1099 -0.19365141 0.10585394 -0.15776768 -0.12999643 -0.41986376 0.6776423 0.10438538 -0.086622894 0.45791894 -0.084534325 -0.03853039 -0.098225884 -0.16181366 0.04629994 -0.1935041 0.08384453 0.13897114 0.34314045 0.04981139 -0.119601235 -0.30205962 0.18306312 0.002151997 0.029056609 0.30982777 0.24153434 0.17685217 0.36265486 -0.11757233 0.0031942024 -0.10382685 0.54404205 0.10288994 -0.21485357 -0.00024192224 -0.012474205 -0.19353051 0.34133747 -0.20120104 -0.30811948 0.13981697 0.00849447 0.1308008 -0.10704838 0.12799649 -0.17260177 0.42365402 0.0076623927 -0.08789099 -0.010060168 0.2662161 -0.06746284 -0.103370756 -0.03877067 -0.26205742 0.053184897 -0.25691253 0.16399206 0.38651547 0.20199601 0.022317957 -0.083770685 0.090837695 0.18239003
4069 0.06852395 0.31649357 -0.18760663 -0.17704834 -0.25148752 0.46953392 -0.23852201 -0.3642119 -0.016271157 -0.2531592 -0.22442092 -0.022507505 0.20509638 0.12894742 0.109876744 -0.057437725 0.03203022 0.1193047 0.013098914 -0.12262111 -0.31822804 0.19002618 0.1467987 0.048109062 0.1912227 -0.1458122 -0.17634341 0.1858903 0.323191 0.35898647 -0.13781394 0.026023665 0.51628697 -0.42309225 -0.12380886 -0.17087787 -0.08603662 0.47433373 -0.19330995 -0.17327486 0.29251704 -0.100453414 0.42808023 0.20446768 -0.015949233 0.2987528 0.09750025 0.24485837 0.20272492 0.27956417 0.0785945 -0.033173095 -0.22068284 -0.36286542 -0.37726802 0.025330242 -0.21532169 0.10524961 0.13388161 -0.047517136 0.2417802 -0.42575392 -0.2288344 0.15911013
4516 -0.06362478 -0.3269479 -0.45933962 0.64787805 0.33964258 0.023858596 0.181103 -0.42862117 -0.016862761 0.07351781 0.34657294 -0.18648925 -0.0077015883 0.01301437 0.29083103 0.37682277 0.61571467 0.51637954 -0.3692062 -0.018686414 0.22331834 0.118869394 -0.05094775 0.20464158 0.5721578 -0.27946377 -0.078389764 0.22064497 -0.034936983 0.049278203 -0.039925206 0.048782814 0.13597982 -0.07550236 0.28533858 -0.27336404 -0.029966304 -0.06685624 -0.39051354 0.44498932 0.03099808 -0.0197594 0.4691897 -0.11178234 -0.06411536 0.26565176 -0.17962337 -0.13412572 -0.03968468 -0.017029991 -0.0019115942 -0.16334921 0.00995639 -0.051788703 -0.08175369 0.29378095 -0.10981491 0.27797052 -0.0001258118 0.26209185 0.23591879 -0.309694 0.009694147 -0.22610447
2553 -0.34539753 -0.14996585 -0.16661981 0.19914253 0.22947079 0.17073387 0.26101086 -0.07281853 0.09610133 0.04110699 -0.00026744147 -0.03650627 -0.05859795 -0.1479371 0.050671738 0.0046643717 0.1993425 0.12803276 -0.029174116 -0.34759495 -0.121477135 -0.34594098 0.10847421 0.21680214 0.4157622 -0.14637947 0.31825367 0.41380745 0.05736983 0.20410812 0.06439751 0.11529671 0.1656917 -0.07290301 0.4206698 -0.23593295 0.10445893 0.18811448 -0.1394509 -0.30913585 0.35501188 -0.035073213 0.18793239 -0.28295785 0.15482816 0.09637754 0.09606317 -0.20095342 0.24179658 -0.36102238 -0.090514414 -0.12883423 -0.21569346 -0.0079642255 -0.15156522 -0.09351669 -0.2239003 0.39178744 0.07856918 0.38145682 -0.009633168 -0.34327906 0.028701166 -0.31081352
3629 0.155929 0.13088287 -0.100604296 0.038991548 -0.31407613 0.46762976 0.016745765 0.23051968 0.13526571 -0.07893116 -0.099972025 -0.37354037 -0.020232847 -0.34179208 -0.09228229 0.098496474 0.28316292 0.14774108 -0.14761731 -0.64756477 0.08162444 0.025783405 -0.11659312 0.18014807 0.070376605 -0.053419523 0.07773124 0.107755095 0.034972377 0.1170386 -0.19681868 -0.042081956 0.41700587 0.037229594 -0.24490955 -0.053376537 -0.06309122 0.13010359 0.2830766 0.088003166 0.24197938 0.24026507 0.11563155 -0.11837652 -0.13536908 -0.035353962 0.055587552 -0.11216272 -0.0034999028 0.12176967 -0.008735971 -0.069302745 0.23037891 0.34110743 0.018535228 0.5476272 -0.19226076 -0.20287237 0.3598618 -0.043549087 0.13680193 0.13197826 0.28540495 -0.12644333
1179 0.08465465 -0.33224836 0.07780515 -0.27704197 -0.13816197 0.27211833 -0.13321872 -0.5375837 0.117594674 -0.14402238 -0.18554474 0.3038401 0.11411237 0.17564452 -0.008331395 -0.009798699 0.23043916 0.24551773 -0.035973486 -0.21335311 -0.010169744 0.3784237 0.059388522 -0.038710263 0.53074336 -0.35446388 -0.11682015 0.06751034 0.44233832 0.16775362 -0.06733623 0.20785242 0.3280843 0.0104644755 0.04320454 -0.35435167 0.04198115 0.40928763 0.2745152 0.009380005 0.019303624 0.100233965 0.37124643 0.14680305 -0.17293367 0.30152 0.14518614 0.64561415 0.22888131 0.5397115 0.06453983 -0.18343997 0.14504834 -0.38393304 -0.0991385 -0.24445796 -0.22158435 -0.2746698 0.3326612 0.34266517 -0.014792769 -0.18445753 -0.2773746 -0.09521336
1280 -0.02519477 0.22787169 0.24426456 0.4300315 -0.098713316 0.16832072 -0.280207 -0.38123238 -0.15479523 -0.20003814 0.1861456 -0.21601957 -0.054221895 -0.3100406 0.35207653 0.14435425 0.18420726 0.10686883 -0.3746577 0.32621425 0.41451266 0.16038683 0.15625848 0.08074417 0.22734137 0.32796693 0.39641136 0.17383687 0.13694178 -0.16975944 -0.004768715 -0.05048034 0.045692664 -0.095044 0.20464487 -0.16235538 -0.11798844 -0.42719856 -0.35445297 0.29800218 -0.010087587 -0.10382508 0.40078646 0.051681858 -0.26351687 0.20097177 0.045281377 -0.111334875 0.3754904 -0.17804776 -0.1444138 -0.1917309 -0.0044994 -0.055196986 -0.017946174 0.119178675 -0.32343486 0.059549402 0.25565565 0.05876589 0.03652004 0.07759446 -0.13785993 0.04906234
4175 -0.26203164 -0.006421583 0.22877055 -0.21367116 -0.004907927 0.51033145 0.15740132 0.19047487 0.12599328 -0.14174286 -0.4224052 -0.23435996 0.35519886 -0.31097046 -0.10631784 -0.11084608 0.46560055 0.08589254 0.16171438 0.002405062 0.20554994 0.3400884 0.18718734 0.20886745 0.21793762 -0.19950306 -0.031008018 -0.3170927 0.047070976 -0.19512865 0.10911326 0.20235999 0.21896997 -0.17958708 -0.38470796 -0.5716395 0.14255184 -0.05276286 0.19353223 -0.34379965 0.48564142 -0.18726547 0.15788999 0.3208592 -0.24414456 0.31056443 0.1044718 -0.45510647 0.08258471 0.26402166 -0.27726176 -0.010508842 0.07851616 -0.15818198 0.18237786 0.24318707 -0.06743381 -0.055647153 -0.12833917 0.4614809 -0.38707483 -0.23085272 0.17167057 0.09996955
4617 -0.15402661 -0.06412832 0.0044554705 -0.10843551 -0.008647199 0.15022275 -0.01353645 0.26869366 0.1674008 -0.12899244 0.02815146 -0.26406544 0.24325661 0.092521034 0.16816477 -0.100644 0.18339513 0.38502863 -0.4274977 -0.0769067 0.26584637 -0.1951221 -0.08878196 -0.1001577 0.21727961 -0.26179862 0.3030345 0.11298601 0.22893617 0.046470717 -0.11285418 -0.036603134 0.18813367 0.031705122 -0.23805548 0.10398112 0.007396793 0.033351626 0.40304002 -0.23955272 0.3705074 0.17528452 0.25563836 -0.3878183 -0.028338498 0.3048866 -0.011993228 0.1374709 -0.15879782 0.3411916 -0.05537962 -0.18872756 0.024894437 0.13393074 0.2167618 0.22348775 -0.13655737 0.20800214 0.28817406 -0.088689886 0.0035883044 -0.19517908 -0.09720838 -0.05202815
1258 -0.0517699 0.2286342 0.17711684 0.026937842 -0.08089304 0.4312559 0.26865152 0.14025861 0.17238207 0.012347469 -0.16622192 0.09729142 -0.30308646 -0.1605815 0.10983388 -0.083205394 0.25514582 0.19823657 -0.25007948 -0.062396143 0.08343459 0.32136175 0.1491746 0.4544613 0.09664396 0.13413024 0.32768068 0.25834498 -0.11960887 0.1250057 -0.1621496 0.16608028 0.45147035 -0.10045506 -0.14145792 -0.19335908 -0.20010988 0.27718362 -0.16927871 -0.12310505 -0.042893406 0.23802547 -0.009889745 -0.076238625 0.20461677 0.12407788 0.43055728 0.22867495 -0.2198871 -0.25913268 -0.07461179 -0.07056073 0.07933094 -0.037786923 -0.3409652 -0.2779074 -0.03423338 -0.25755447 0.5057695 -0.23157012 -0.095163785 -0.35276416 0.38741383 0.30053478
4659 0.20581555 -0.20310596 0.1154143 0.38307008 -0.10801457 0.24270585 -0.15631129 -0.052097376 -0.010685493 -0.16081557 -0.20124184 -0.28377235 -0.00047442355 -0.023391264 0.4430728 0.37070513 0.018810099 0.26403013 0.18211108 -0.058231026 0.14713655 0.10445123 -0.022691613 -0.004333035 0.3763159 0.056684818 0.14099875 0.21758972 0.22815606 -0.14313988 -0.3087195 -0.020870939 0.29191482 0.24467543 -0.27420405 -0.37047845 -0.18719739 0.19309883 -0.046105728 -0.11507698 -0.20495848 0.47009647 0.4620336 -0.14501706 0.2521137 -0.14458582 0.19011773 0.2120035 -0.18622777 -0.07896905 -0.17271309 -0.16816774 0.4918961 0.33228076 -0.062743984 0.41842633 -0.037148327 -5.49698e-05 0.1551783 0.28493935 0.036090918 0.23067264 0.14225225 -0.0529372
1166 -0.15815632 0.467424 -0.26179674 0.21784395 -0.36190954 0.49462295 -0.23313223 0.008742056 0.27504793 0.010342828 -0.16043426 -0.10990794 -0.06151966 -0.030880217 -0.21530144 -0.14137308 -0.14528655 0.44146287 -0.34497923 -0.19843368 -0.3919463 -0.20484646 0.00376571 -0.09382968 0.11518805 0.026862735 0.53496 0.013305004 -0.16738322 -0.3559645 -0.36060706 0.38776293 0.30658722 -0.28107342 0.13844293 -0.21718419 -0.15298983 0.3856991 -0.0020351359 -0.1913964 0.16968754 -0.09106184 -0.14068514 -0.22310376 0.26993325 0.065735124 0.08686491 -0.120563686 -0.22391254 0.46693194 0.36041898 -0.3931482 0.031465217 -0.13206919 0.01689721 0.01062939 -0.46443942 0.09965455 0.10436758 0.19674678 0.19494195 -0.029865135 -0.06566447 0.104157925
366 0.1597582 -0.19900224 0.22170426 -0.11983337 -0.4096513 0.35773137 -0.51906496 -0.40628493 0.16486862 -0.2803283 -0.35888854 0.36660805 0.20765665 0.3267636 -0.053658105 -0.3480189 0.14108488 0.25355783 0.33277515 -0.06863023 -0.09228138 0.07991962 0.070451625 0.20450284 0.30876458 -0.033602644 0.13980979 0.300591 0.43111277 0.30474615 -0.30976844 0.119766384 0.26391965 0.13050118 0.06868162 -0.20326205 -0.46731555 0.15095392 -0.057389565 0.12612759 0.30533898 -0.012470471 0.11640365 0.0018695176 0.29942715 0.42793772 -0.12173942 0.43385738 0.15518272 0.19648252 0.044300858 -0.2661524 -0.061979722 -0.029280419 -0.21178487 0.052965965 -0.1069057 0.17197065 0.11886393 0.20242226 -0.2496445 -0.22327642 0.05943891 -0.09290763
3168 -0.06690219 0.07412385 -0.2152734 -0.1898737 0.14897254 0.5661564 -0.060006388 -0.08600655 0.028665187 -0.07930669 -0.32793826 -0.38987744 -0.0865795 -0.17120132 0.07061847 0.0020020716 0.12507811 0.3458718 0.08638643 -0.0044609443 -0.14167726 0.08982224 -0.029016936 -0.18793164 0.20976578 0.13657834 0.41764933 0.34468913 -0.2054717 0.15925255 -0.11896915 0.06512239 0.3294987 0.13440363 0.12444561 -0.00063109456 0.28909627 0.30155864 0.12828699 -0.5413546 0.016802287 -0.041785825 0.5362963 -0.23673163 0.22184572 0.0061346353 0.28729784 -0.14778887 0.09260762 0.22877052 0.21321891 -0.1373447 0.3138286 -0.11545318 -0.02352983 0.17703462 -0.021286523 0.013288215 0.28191197 -0.064766616 -0.009762941 0.20796724 -0.088558644 -0.18402503
1824 -0.298519 0.43190226 -0.13882723 0.22134699 -0.33642927 0.4010109 0.051289096 0.064927116 0.024146417 -0.18012172 -0.38149357 -0.2976454 -0.041266635 -0.038053084 0.22112648 -0.20102988 0.2714586 0.17578177 -0.11081186 -0.09030762 -0.65641797 -0.04045934 0.49548575 -0.028157642 0.12139448 0.21868424 0.28596666 0.16551231 0.13665693 0.10631197 -0.44425213 0.09998243 -0.044174284 -0.08929013 -0.16442575 -0.22487263 0.023388539 0.76806355 -0.3565274 -0.047538538 -0.054441135 0.24106078 0.23989178 0.1846108 -0.0828329 0.054080922 0.10910607 0.37175706 -0.056969278 0.12852766 0.094457686 -0.13201602 0.086656 0.026893662 0.20072365 0.19870561 0.12084278 0.28657126 0.16924621 0.00091608654 0.14312808 -0.21335472 0.22895682 0.26341015
4547 -0.004718202 0.024650535 0.34647986 -0.4677898 -0.11377547 0.51664484 -0.3961726 -0.6553445 -0.18402489 -0.019303698 -0.0028328772 -0.050035235 -0.03266295 0.0650263 0.0988391 -0.31796545 0.21094659 0.12517484 -0.038183022 0.3211813 0.044711143 0.09095106 0.5588939 0.09846233 0.41873458 -0.067275696 -0.035783593 -0.13135242 -0.35077775 -0.085900955 -0.11783405 0.017908005 0.45272458 -0.00038447356 -0.24305245 0.0042234566 0.43252063 0.028239124 0.19074526 -0.17227933 -0.15298596 0.05148049 0.08152143 0.036501627 -0.05284704 -0.12912051 -0.19385223 -0.23175249 0.035514753 0.31665125 0.038332988 0.09250678 -0.25546265 -0.18341056 -0.23321362 0.7236867 -0.4893219 0.31374976 0.091146246 0.27151415 -0.27779108 -0.030284427 0.2107212 0.115243874
617 0.09297757 -0.30074918 -0.31491846 0.13537973 0.09059676 0.18916608 0.0973146 -0.032726068 0.09066098 -0.3558123 -0.08498883 -0.2498581 0.053895436 -0.30227324 -0.09099615 0.002941966 0.7263172 0.25902513 -0.030423477 0.20678453 0.19770321 0.19893402 0.12727185 -0.08748896 0.5410264 -0.1748384 0.17896804 0.3163301 -0.06977787 0.08974383 0.07583365 -0.3586949 0.14705022 0.11580875 0.35268775 0.045964897 -0.118587434 0.66624206 -0.033822805 -0.1540974 -0.23187648 -0.011703008 0.184845 -0.23091021 0.11155739 0.3645512 -0.32787234 0.010450028 -0.518469 0.13163443 -0.06342274 -0.00081861 0.37678376 -0.32802716 0.043115176 -0.047048736 -0.17968404 0.08336233 -0.08713497 0.1519759 -0.08478385 0.2180438 -0.039494734 -0.16460846
1704 0.039750073 0.13124919 -0.11625442 0.14013262 -0.26600018 0.20744471 0.09435356 0.028899029 0.40006196 -0.24341165 -0.011928745 -0.73395526 0.041605256 0.37817988 0.08875362 -0.0879652 0.47980955 -0.121229626 -0.35658467 0.12958519 0.06353442 0.06543029 0.3252118 -0.112792134 0.067466706 -0.008454176 0.15530251 0.500854 -0.13131839 0.22836755 -0.1181149 -0.22754034 0.28022513 -0.06581384 0.14484999 -0.22248381 0.0724664 -0.022633886 0.075112276 -0.32359222 0.03141285 0.008715605 0.083610505 0.25518894 -0.041739628 0.046869893 0.11175955 -0.041040797 0.019485971 -0.13560611 -0.3790536 0.16929574 -0.08583105 0.286774 -0.18197043 -0.09507462 -0.33455756 -0.17458563 -0.067095794 -0.1630504 0.26142672 -0.38308242 0.26433116 0.025605433
755 -0.41019747 0.23679045 -0.25444415 0.059646077 -0.013766266 0.34801227 0.21458004 -0.1397122 0.0030193157 0.08811235 -0.17087343 0.08474151 -0.008916365 -0.12422496 0.1486578 -0.09133355 -0.13436306 0.07417818 -0.14727512 -0.22421749 0.07110272 -0.17344466 -0.04569373 -0.115862526 0.28144693 -0.5066688 0.44898784 0.0028923308 0.07629602 0.2944857 0.036006987 0.016217288 0.4371642 0.16410251 0.18357028 -0.15406331 0.10567327 0.13252574 0.19560972 -0.4741315 0.1693819 -0.03564841 0.006366456 -0.32716435 -0.22991322 0.118766025 -0.21856342 0.056590263 -0.034083195 0.18898015 0.052007593 -0.23572434 -0.118811846 -0.17790326 -0.044976566 0.25515002 -0.31993487 -0.13063824 0.09002213 0.18959871 -0.21249856 0.1460219 0.32279977 -0.54522616
4138 -0.04350536 -0.02582174 -0.43187803 0.46214306 -0.2155941 0.18063556 0.41665825 -0.5696751 -0.27118686 -0.046918634 0.0077809086 0.13161024 -0.04058565 0.028731901 0.3519042 0.42192787 0.3737716 0.0703671 -0.22446463 0.04228885 0.41723925 0.0168524 0.36544642 -0.04563444 0.552396 0.015479902 0.11973532 0.15253228 -0.006458304 0.17082933 0.31682658 -0.28064921 0.0015525764 -0.19041157 0.2991673 -0.36457708 0.025093874 0.0021322193 -0.10138338 0.47293925 -0.18201779 0.043040026 0.43307596 -0.13976622 0.0154612595 0.029053958 -0.09278275 -0.35489467 -0.078366235 0.07214382 -0.11197233 0.017565709 -0.0530122 -0.055141542 -0.30209133 0.47366104 -0.36199173 -0.10622673 -0.2705729 0.152209 0.04549321 0.06775759 0.2986754 -0.2155951
3164 -0.1867713 0.23749402 -0.27618384 0.117052145 -0.4306982 0.0835743 -0.06151635 -0.34229046 -0.45785534 -0.047759827 -0.25407776 0.42414743 -0.06922842 -0.09406448 0.14558142 0.023883222 0.09017042 0.17977008 -0.24973999 0.18455127 0.59083116 0.083106115 0.16321753 0.028591085 0.53979886 0.1556556 0.1916655 -0.021306055 0.16295081 -0.30625919 0.029907592 -0.35975528 0.21472567 0.11876595 0.013902816 -0.32992923 -0.1662674 -0.17120406 -0.08282941 0.32714102 0.2626539 0.2180642 0.2101702 0.09557248 -0.07301084 0.06301359 0.05480864 -0.017747842 -0.062932625 0.12826031 -0.5514318 -0.11258877 0.15052934 0.0065757125 -0.4278736 0.047008332 -0.27077827 0.09839792 0.15142535 0.042501297 -0.21602921 0.24815142 -0.028170433 0.10381759
6 -0.28692928 -0.0062582404 0.0659447 -0.38627058 -0.12554458 0.6574957 -0.010613127 -0.31197676 -0.07024253 -0.030596513 0.0002897694 -0.10972289 0.3036108 -0.08595128 0.11862538 -0.0447044 0.4596484 -0.090844646 0.12458669 0.30237934 0.25213513 0.16878486 0.2766896 0.13432653 0.24259403 -0.22878346 -0.11787426 -0.33681405 0.13396566 -0.11471446 -0.14694276 0.4337858 0.30522022 0.15948118 -0.21160707 -0.19550575 0.48630914 0.28846276 0.07719125 -0.031200647 0.23075202 -0.10020946 -0.20894049 0.108212486 -0.06777861 0.31420636 0.022840302 -0.14817892 0.32453528 0.14586693 -0.3513689 0.04901273 -0.26275045 -0.41504434 -0.10079741 0.43656543 -0.24471958 0.032757647 0.1397563 0.3922078 -0.35780805 -0.29507977 -0.13920063 0.006913636
3911 -0.2912756 -0.042223465 -0.11508962 0.11274991 -0.20504567 -0.09567756 -0.037795756 -0.06088963 0.12327788 0.105747744 0.3546757 -0.21422604 0.0027524175 -0.24042009 -0.11546774 -0.34337375 0.32010257 -0.09758459 -0.09802822 0.27818227 0.44363603 0.01621993 0.5522983 -0.12902403 -0.05847359 -0.0095954025 0.48288596 0.38154045 -0.06861986 0.3252861 -0.35388207 -0.16238283 0.50160366 -0.21094514 0.11856382 -0.073415734 0.22503805 0.16869158 0.4245655 -0.049501475 0.3925219 0.29700974 0.31386438 0.1415624 -0.16020042 0.19945142 0.23451102 -0.19166721 -0.022286305 -0.06254294 -0.28974992 -0.08613213 0.06134443 0.31189924 -0.33869177 -0.09571326 -0.08879423 0.105914764 -0.052405216 -0.094521664 -0.118658006 -0.5070633 -0.0008514611 0.111177824
3709 -0.1615906 0.1936107 0.17020278 0.2780915 -0.025229212 0.45670247 -0.021269612 -0.076443106 0.0761064 -0.08076044 -0.11640637 -0.36123556 -0.13887703 -0.047140297 0.010120351 -0.067948006 -0.043690108 -0.02079449 -0.47956672 -0.27584162 -0.029825823 -0.49145186 0.12506405 -0.005219955 0.44350854 -0.2809217 0.33904198 0.07980992 -0.022738855 0.1777166 -0.15796027 0.049086887 0.47206706 0.1800887 0.55199194 -0.23245043 -0.07988366 0.4007235 0.23865896 -0.4667069 0.052689627 -0.22097808 -0.1703045 -0.317253 -0.14017695 0.09346967 -0.15337442 0.16574503 -0.07439093 0.04674918 0.16589859 -0.030139457 0.24027067 -0.11205005 -0.04098097 -0.30636635 -0.31067228 0.337673 -0.1511099 0.16092078 -0.03707751 0.09983447 0.102203436 -0.12029632
4924 -0.07982303 0.0029383649 0.041866828 -0.08144444 -0.20198914 0.06362861 0.13935964 0.13131626 0.040542018 0.057915643 0.30302677 -0.78884643 0.08064074 0.14964473 0.08796739 -0.23372667 0.20168485 0.17218344 -0.34405196 -0.20198166 0.030863574 0.2666104 0.44042835 0.08421103 0.16479795 -0.24853913 0.4010274 -0.0044270614 -0.07112891 0.065726206 -0.16630326 -0.21016084 -0.015813923 0.28971058 0.0020574706 0.08436842 0.02545478 0.24499051 0.26569825 -0.21405111 0.3916386 0.29633144 0.27300814 -0.06231342 0.41240364 0.14539975 0.26139736 0.08766437 -0.045012917 -0.093935095 -0.14453535 -0.15851128 0.20496951 -0.06358858 -0.1265343 0.3742775 0.16520306 -0.13595983 0.025959777 -0.047297243 0.30270442 -0.13159765 0.26414475 -0.30619588
2973 -0.115870394 0.06489721 -0.27580708 -0.018277306 -0.2452272 0.14743061 0.13303085 0.24867573 0.381443 -0.12680879 -0.12185776 -0.3944695 -0.019110795 0.039424308 -0.030537205 0.18165143 0.26134184 0.22139108 -0.2558127 -0.005535174 0.13057618 0.09458176 -0.028465103 -0.10812832 0.028192332 -0.34696877 0.26959404 0.24991906 0.09856803 0.13870142 -0.30591747 -0.06564983 0.4059009 0.22894056 -0.047668505 -0.075559594 0.08134486 -0.0015266042 0.22721316 -0.2263202 0.28937545 0.34058228 0.30402106 -0.16345157 -0.226835 0.019773278 -0.06679597 -0.018893959 -0.05663006 0.072286814 -0.10277404 -0.031774066 0.14443392 0.14686303 -0.06687017 0.45520672 -0.13936579 0.019734034 0.213488 -0.09620108 0.05101169 -0.08864842 0.36226255 -0.13247956
1265 0.033842087 0.17018478 0.048431557 0.44113696 -0.4380237 0.21004952 -0.22498962 -0.42320696 0.43104747 0.33555505 -0.43116185 -0.10667895 -0.16086288 0.011797393 -0.3155014 0.018582923 -0.14273728 0.4326458 -0.0379307 -0.21726117 0.5078553 0.25271416 0.14141814 0.2747486 0.075824305 0.13479023 0.76581234 0.018840443 -0.058230806 -0.2361861 -0.10053254 0.19392079 0.025403371 -0.27995726 -0.013646354 -0.29949522 0.03805531 0.36796105 -0.053912647 -0.17662707 0.15533403 -0.09954809 -0.32015726 -0.03323497 0.23566622 0.33408803 -0.51404667 0.3360525 -0.05493625 0.36495802 0.052791603 -0.13286552 -0.24577326 0.13366021 -0.26713136 0.08698315 -0.2702355 -0.009989031 0.44100857 -0.31169984 0.007446422 0.048931234 0.15987203 -0.232609
1261 0.19570254 -0.03512138 -0.54498684 0.04663472 0.07535673 0.48944888 -0.00044650014 0.34295392 0.10625637 0.1842196 0.08225794 -0.39730072 -0.06376776 -0.08504182 0.30641973 -0.09430309 0.45331788 0.08762174 -0.0013022169 -0.3523259 -0.054723334 -0.16888979 0.3014986 0.021374656 0.39769793 -0.21349554 0.095838994 0.3553767 0.035509024 -0.09044179 0.006617197 0.25200486 0.24936056 0.1624176 -0.0734371 0.021919431 -0.06495622 -0.003933058 -0.11484382 0.21743344 0.22997518 0.15942025 0.15953195 -0.19428185 0.014464324 -0.07854966 -0.100696154 0.22350815 0.095059015 -0.18700418 -0.13327087 -0.26066586 -0.17326713 0.36085996 -0.052834876 0.16605853 0.26965326 0.08654486 0.25271654 0.18048769 0.11400298 -0.23904784 0.17421421 -0.054148175
3703 -0.03257543 -0.16413847 0.09891735 0.45326027 -0.20116462 0.5200199 -0.17983939 0.28805056 -0.25224218 -0.2694768 -0.5168871 -0.2334953 0.19448459 0.16921315 0.027561547 0.16498324 0.39210775 -0.26663902 0.14274088 -0.25003627 -0.0046034795 -0.038969304 -0.06043085 0.29010737 0.20057766 -0.3323252 0.1820693 0.36650357 0.040002953 -0.2093972 -0.24979216 0.26908734 0.35657912 0.070270434 -0.31194893 0.15080078 -0.57903343 -0.073668785 -0.06111339 0.34730712 0.39193666 -0.18862844 -0.32527626 -0.17619263 -0.061857816 0.26598468 -0.15454623 0.29619694 -0.11523587 0.15107207 -0.21723932 -0.085470214 0.090860486 -0.35977024 -0.026170552 0.30076724 -0.25560015 0.26348904 0.014955724 0.06501038 0.029369496 0.1498071 0.04133694 -0.16570261
1245 -0.37651008 0.48680556 -0.12326676 -0.25428128 0.095772326 0.24192287 0.11568984 0.006876069 0.0425023 -0.2705935 0.4892805 -0.14435707 -0.018671457 0.04496498 0.32768986 -0.33963582 0.6266269 0.09370053 -0.18517289 -0.09911792 -0.07490908 0.29767105 -0.113730565 0.06592069 0.15995696 0.17956226 0.048742738 0.3667688 0.17603037 -0.11385755 0.026656985 -0.28329718 0.054223634 0.11364678 -0.07105961 -0.42421904 -0.25420514 -0.26331663 -0.01101486 -0.16068284 -0.13883388 -0.13835792 -0.18253472 -0.08614105 0.30746838 0.2669349 -0.36033878 0.048726037 -0.35411984 0.11965645 -0.49383065 -0.007916455 0.19620694 -0.04211306 -0.14221196 0.00394313 -0.44095093 0.084552586 0.3689195 0.22202218 -0.39097175 -0.22456749 0.023161579 -0.1821673
3229 0.10578755 0.25916407 0.06732038 0.26368055 -0.14966482 0.35892105 0.11264261 0.1714975 0.027748862 -0.25011182 0.10023451 -0.54959494 0.2149423 -0.10262265 0.04277597 0.15112075 0.16717988 0.27866188 0.0019909171 -0.5852352 -0.097283594 0.20488532 -0.013639125 0.25325745 0.13872524 -0.12096699 0.05055734 0.37683794 -0.13763952 0.17434989 0.036073238 0.19231275 0.5750681 0.33491692 -0.18752313 0.027401567 -0.1672666 0.045513593 0.4192029 0.35487586 0.1259417 0.26047546 0.052534714 -0.049871493 -0.03933954 -0.016761372 -0.26678297 -0.38036424 0.1329615 0.0686689 -0.19238846 0.11256697 0.1761553 0.48551694 -0.14178549 0.42641643 -0.0985411 0.32611725 0.374031 -0.043159112 0.14785759 0.3475518 0.27409092 0.21397722
1948 0.29064152 0.14146851 0.015256539 0.04043063 0.29199314 0.6392612 -0.082780704 0.2692729 0.22057179 0.02231347 -0.096177325 -0.34646133 -0.11092351 0.0355531 0.16810064 0.11099355 0.36578894 -0.34716946 0.028168235 0.31235966 0.029067522 0.47548062 0.25031978 -0.3215485 -0.033548027 0.2488102 0.692098 0.07916913 -0.030024193 0.23664254 0.14218506 0.075870804 0.33515725 0.19900398 0.014590975 -0.2903835 -0.27622172 0.30576113 0.069416106 -0.16352457 -0.10679232 -0.3448476 0.5217375 0.025713254 0.015257117 0.29392627 0.16043088 0.13784304 0.22683565 -0.0440255 -0.03811809 -0.123307325 0.3889777 0.18193993 -0.062170662 0.27830595 0.08004907 0.029362366 0.19991855 -0.027244044 0.19608146 0.024862323 -0.04202682 0.15867105
491 -0.39034563 0.3386896 -0.10237311 0.21578373 0.054583568 0.4375347 -0.06852258 0.03921963 -0.11814603 -0.13328923 -0.2537626 0.3317447 0.17589346 -0.13837628 0.21568665 -0.06687516 0.1587332 0.028482946 -0.48945826 -0.40015453 0.12960838 -0.4578519 -0.29156703 -0.024805166 0.24040072 -0.19898874 0.37238067 -0.14145991 0.039029423 0.026881881 0.084664926 -0.20084542 0.4456627 0.10187182 -0.20827056 -0.023163164 -0.11188243 0.16760343 0.29437867 -0.38566998 0.26177782 0.05635297 0.040530305 -0.41152364 -0.20989725 0.1618364 0.10678488 0.040967137 -0.117658146 0.14060068 -0.20052235 -0.08178376 0.062626496 0.16957596 -0.073579885 0.17579223 -0.22577451 0.03968051 -0.051299606 0.32563317 0.019437358 0.14342399 0.38481265 -0.17593467
1892 -0.0017138857 0.18461089 -0.45022687 -0.035361554 0.18664077 0.25585812 0.065183096 0.047308497 0.06068586 0.052682318 0.14426951 -0.2020226 -0.2351301 0.3387392 0.18903096 -0.16660964 0.38455176 -0.19509058 -0.24822809 -0.0839587 0.02992897 0.04037205 0.4547302 0.17028289 0.30999574 -0.25461397 0.18800761 -0.014426903 -0.15720282 0.07090122 -0.39572206 0.2942057 0.36665103 0.10050751 0.0507929 -0.059475165 0.22633429 0.21880627 -0.25021932 -0.007167073 0.66083556 0.09547906 0.5068705 -0.016220905 0.16380738 0.04877104 0.15133935 0.36397615 -0.02818 -0.43935794 -0.24204674 -0.15842177 -0.24323928 0.043593757 0.07375631 -0.12695608 0.14000498 0.2729028 0.065848485 -0.11623296 0.04325372 -0.15877163 0.02878761 -0.09523036
1652 -0.15726733 0.027865047 -0.108447045 -0.21408767 -0.11421398 0.16094784 0.19323972 -0.32536682 -0.2818474 -0.4112512 0.16045706 -0.24113041 0.15570016 -0.1540568 0.032727793 0.075426675 0.17686398 0.4763932 0.23133948 0.07612236 0.35817727 0.08049849 -0.06964301 -0.09100343 0.39404508 -0.10609518 0.34150475 -0.22173981 -0.0018498388 -0.3562213 0.09810209 0.0341312 0.44000328 -0.251256 0.01849823 -0.37863317 -0.14173175 -0.049922448 -0.09042221 -0.013014567 -0.048799787 0.22519968 -0.034492217 -0.0060399394 -0.33916607 0.4452257 -0.30537492 -0.022533895 -0.14745912 -0.17711163 -0.6807742 -0.54532367 0.10567215 -0.14536457 -0.23940265 0.013389257 0.09373402 -0.22491689 0.101010315 0.39644244 -0.4075576 0.07112195 -0.26393476 0.16283557
1793 -0.10352802 0.12708071 0.04398865 0.07123752 -0.17837895 0.3409133 -0.14909795 0.062734485 -0.21805723 0.16696867 -0.040322963 -0.047985848 0.2434424 -0.07797722 0.34475705 -0.08748054 -0.0012895307 0.55181146 -0.6776501 -0.07005165 0.22153682 -0.23598075 0.021289757 -0.0798927 0.73912597 -0.19966403 -0.0009985516 0.02036393 0.10065825 -0.4673951 -0.17080812 0.102562666 0.31937358 -0.11382505 0.3391901 -0.3277897 -0.11641149 0.021541666 0.35704038 -0.17953849 0.1712743 -0.27460375 0.057462003 -0.08954265 -0.31754085 -0.050328653 0.38598382 -0.10247071 -0.36743432 0.29190397 0.12192991 0.124426536 -0.09264283 0.020576956 -0.3314278 -0.085080996 -0.19205582 0.38846162 -0.15882356 0.20621502 0.22803776 0.16405551 0.2568084 -0.0264838
4265 0.24992892 0.012976528 -0.0676542 0.32169124 -0.06764047 0.19066294 -0.0027190407 -0.3084223 -0.06240659 -0.052842733 0.18372111 -0.6147922 0.21190237 -0.45241874 -0.3419392 -0.28495908 0.367659 0.004173966 -0.019285413 0.14776385 -0.12714829 0.009641434 0.47278622 0.16725518 0.3905504 -0.14146185 0.2185243 0.091334246 0.29370725 0.11240585 -0.03341508 -0.09070265 -0.13827334 -0.0054035494 0.2292284 -0.379476 -0.22311798 -0.34476924 0.39454165 -0.35756347 -0.023808109 0.051506728 0.15333211 -0.1637259 0.34859797 0.07486807 0.13775703 0.0066200783 -0.12081244 0.0977586 0.1933083 -0.2877167 0.029223124 0.32083145 0.18530801 -0.08765109 -0.11646931 0.11706472 0.46099037 0.021403426 0.059413087 -0.10481287 0.031667806 0.14746062
